svm_type c_svc
kernel_type wgkm
L 11
k 7
d 3
M 50
H 50
nr_class 2
total_sv 12585
rho 0.250995
label 1 -1
nr_sv 6670 5915
SV
0.03095176725081682 tctaacgtcgccaacggcccacctctatggtgtcggcgaagacccgcccttgtgacgtcacggaaggcgcacccttgtgacgtcacaggggactaccactcacgcagagccaatcagaactcgcggtgggggctgctggttcttccaggagcgcgcatgagcggacgctgcctactggtggccgggcgggatgtaaccggctgctgagctg
0.9650390960853129 cgggctggggcagcggcccctggcgcccccacactcccccaggacgtctggggtcaccgtctgctccatggcagccccagggttatttatgacctcctccctctggcggcgggaggcaggctccagcctcagcccagcggcggaggggccccagcagggggacccggagcagcgacagaggcaccaaggcccaggcaggcggggctcggtg
0.4211769463235687 ccctcatcagcagccccgcccctgcctgccggcaccttccccccatccgtagcccctccccaagcgcgcttgtccgcagggctggactgcgacaccgacgtcccgaagacgatccagctggtttggcggcagcactggggaatggtgcagacggaggctccgtacaagttcacgtacctggcgctgcagcggcacatccggggcgagtaac
1 aggtggcaggggccccgggcctggctggtgcctgccatcgttggtcccaggtgaggtggaatggggacaggcagggctctgagatgggctgaggtcgcccccgccgctcacctttgtctaggtcgatgtacttggcaggcagggggctgtgggccagctccgccctctccttcaggatgttgtttttgtaatctgtgggaggagaggaggc
0.8083419174387443 tacagcaacagtcctcagtggtactgcaccactctggaaaaaatgccttcaggttccttcccatcccccaaggcagcagcaaatccttcgtgtcgcctcctactggccaaggcagccaaagatttgaaagtctttggctcgtagatggccagatccgctaggactttcctgttgagctccacctggcactgaaaaaagaatgaatcagaac
0.3402039002943366 gcccgcgggataccccgggcgcccagtgcccaggccgggcaggcggcactcaccctggcgtgcttcagcacctcctggatccgaaagtagcggtcggtgacgcgattccgcagccagagctgcgcggtgaggaagaccatggcgcctgcaggccggcgtcccgaacactcaacaacgcacgcgcagcgccgctgccatcttgcccgggtcg
1 ccttaaccaagaaaccagaggcgaagtgacaaagtccaggtggctcacttgggcctcaggggcctgggccagggccctgggggcagctgaggggctttcctgcctggaccccgggctctgcgacctcaaagtcggccacgtggtggcagcagccgcccaggcaccctggtgccacacttggctgtgcccagtgccccatgggcccaggcca
0.7617220263688471 ctctccagtggagggtcctcactttttgttttgcaaataacgctggggcccctgcgccactggggc
0.5838852860273763 caaactcatggcttgggaataagctctgggctcccggggaggagctgcctccctccagcaaggcccgggccagtgtggtgccgggacagggctgggctgccccctggtggatgcgctgagcaccctggtgctgtcagcccaggagggagggcgccgtcccttgcctggtcctctctcttggcccagggcgctggtgaccagcaagcagtgt
1 aatatcatagaaccccgggcggccggggacttcccagaagtcacttgcttaaatgcaaacacagaacaaccccatggggtcagacacttggcagaagatgggccctgattgtcctaaaacggcagggactctgcacacacattctctgagaatggggctcctgcgggccggccagcttggggccagagccttccggagaagggcgcgtccaagcccggggcggacga
0.0764704421745097 tgaaaggagagtttggaatcaaaccaaggagggccgggtaggaagagcttcttgctgaaggacatgggcacatttataagccatcaataagaaccattaagacctgcggctttctctttgttctttctgagaggaaacacttgacaagttgttgttctttgttgtacttttttaatgagccaagagaacatggcacagcctggagaggagg
0.2436725782000687 cgcgctattgaacttaattggttccatttgtcattcaaaactgactctgcagcacctctg
0.3465910301232019 ctttgtgttctctgagctctgtgtcctccggtcccctctgcctcaggcagctgcatgtttgcctctgacctcctcagggctttagattgctgccctggggcgggaagctccggcctcctcccccagctgggcccccgacagctcctggcattcacagtgaactgtctggggaatcatcgctatttggggtaagcggctggtgggcggctct
0.008723045504953085 tgcccggcgcagctgctgccgggacccagccctcaccttccggctcctcatgagtgtgagcaccgcagccaagcaccgcgcgccccggccaacgcgtcccggcggagcggcgacccggagtctgcagagcgcgccgcggcggcgtccgacgtcagcacagccaatcacagtgcagcaccctcgtcatgtgattcccccccccccccccccc
0.3226066965979618 tgcatagaggttttaatgaaacaaggggataaccgtctccctcctgctggctctgttgacactgccagtgggttttgca
0.4925883310301256 ggagtgcacggatacggtgtgggtcacagggatcacatgcttcaagggcgacaaaagatcacaaggcagaaggtcagggcgaaactagaatccactaatgaacttccatgtcccgctgtgcacgcattgtcagggttcaagagcagaaaacaggtctgactagaatttgccaggctggaatttcctaatcctagcaagcctgggggcgctg
0.1294578462568449 gtggtgggctgtgaagcacacagcactgacaatgaagtgttcatgctgagatccagaatcaaacagctttcagccgtcgctcc
0.5738095584550134 ccaatcagaagctggaagaggcgtggccccgggcgtcccacgaggtgaagatgctgctggcggaacctgcaggagctagcgggattcgggggcgctaaagtcgcaggggcagggcgggaaggaagatccggcgcggggcacaggatccggagctggagcccccaggtgagtaccggggagaccccggcggggcgcgctttccaccaagctg
0.898007520991818 aaagctcactgatcacgtcgacctagcaagcgagcgcacgctggagaaaacgctgggatcaacacgcatctgccaggcccagacggcagagggggcactgctggaaaggccgggaacctcccctctcaacctcccacccaaacccatccctcttttgggaacttggcaggcaatgaggatagggccttaattaagtggacgcccagtatgt
1 gtggcctctccggtctgcttcccgcggtgtggggtggggtagaggccaggacaaatccctctgcagtccaccaggtggcggtgttgcactgcagacccaaaggtccttcctccaaactccagggcgggcgcgcggggggacaggggctcgacaagtcccaagcagcttaggcccagctcctattgccctgccctgttctgtctcttcagtc
0.4971363120314108 cccccagaggagctcacttcccaccagttacctgaacctgcctccccaaggcaaagcgcttttcctcctcaataaacacagccccaggctccaaatcaagccccagggggcccattaagaaaaggcctgtgcctgcccctcctccccgcacagaacacaccttgggaacgtggggctcccagtgcttgggaaccacaggcaaataatatgg
0.4227751456846285 gcgatctggcctggtggaagtcgttggaaacccacctggctaggcacagcccagcagctccagttacctgggcacctgggagcgcgggaggccatcacgcaggtcgccactaggtggcaggcccagggaaaggaccggaggcagctgccgagtttagcactatgagtttagcactatgactcccactgttcctggaaggggcttccttcat
0.5784665812398678 ttggcagcccccaggagctgggtgaggtggaggcatcaggaaaccctggcgacccacatggcacagcagcccaggtccctgcagttctaggccaggtccccaccgccagggggcactcagcaaagcctgagaggacgcaaacgcccagactctggtgctggagtcaccactacacggctgtcaaagcgcttttacactgattcccaggaag
0.8366194339927823 cctgccaggcagagaggggctggtcacagcgggagatcaagtgagcctcaaaacattagaaaaacccaagccagtctgcagagcaccgcagccgcctcagggccggttaccatagctacccttggcttcccagcccagcacatgtctgcccagctgaactctgctgattcgcaagactttgcttgctcagctcctggcactgcagactgga
0.4836362988015759 ttgagatttagtttgagattgaagaaaagatggtctctgcttctctggctcacaggcagtcacccccttcctttcctccctcagccacttatgcattcccagcagggtacctttgatgctgggggaaggactctttatgatcccttccctccagactttggctggctggctgttgaggtgagtggaaaggccacaggatgactctgccgtg
0.5249417677314756 ggaaaatgcttgtgattagcatcgcttattgctattttacttgaagctaaaagataaatcagagaaacaatatcccagtaagggcccccagcaggcggtccatcctgacgatgacagagggggaggaggaacaatggctacactttactctgaagtggctacatcacctttttctgggccaagaagcccaggtgcagatgttttctctgcaggga
0.2339083246640818 ctggcgctcttcagtcatttacaacattttacaaaacaatgtaggtaaggaagaaggctaatctgtaatcaaagaaacaaaggttacagatgcctaggttacagttgcctgattactgcc
0.7710984296813768 tttctgaggcttgggtttactgtacttacagttccaccagtaaatcgtctcccagtctgggctggagaagcgctggccacggtttgattgctccagccccaggttgccaggcaacccacacaagggggaagtctgagaaccgctgacagatagccaagtggctgaaacaacagacttctctctgtcaaaaatgtgtttgagagagccactt
0.5052846978585718 ctccccacaaattctgtacttcaaccaggttctctttactgaacgctgcgcataccatatgcattcctgcctcaggccgacccctgcctggactgtcctaacctgctctcccagtctgctattcaaacagcacccattcttcgatggcccactcagcttttcaatggatctttggtcaacttatttaatccacaccaatctctaacctgaa
0.6594063240067516 cagggttccccataaagccagtgagaaaccccacagtgcttgagagcccacacagcaagcagccaactcaggcattcttttgcccaacgaagtcaggcctcaaggatcctttc
0.1489072276604434 gcagctgatgttccctattaaatgacagtggggagtcttagaagtattcgggaggcctacgttcaccgctaacatccttgttgtgaaggcctgctgacgtttgccattccaggaccaagtggacaatgagttaagctaggccaggagggggttcagctccccataacaaggcaggggtggccctttgtgtccggcagcatggtagcccccc
0.7761913146682465 aaactctgaaaagacggagccaaccaggcaaagtccataaatctacaggccgtgttaaacacaggcgcaccccctgaagcttgaaattaaggaataaaggaagctctcttttacccagcaggtagtaaacccgtggaatgcattctt
1 atgggcgggctcaggagaggacagggagtcgtggtggaagttccacagctggccgcgtgggggggcccttgcaccgcactgccgcctcctgactgcccctatccccgcagcccctgtgccggatttcatttccctcctctctcccagggtacctggccccagcactctcccatctgttcttcaggaaccgactcctctccagttgcaacac
0.6443570702683659 gctcttcctacctgccgacctgcggagccttcttactgagcagggcttacgtcacgcaagcgccgcgggtgtgtgacgtcatctgagagcgccacgcgcggtcccgaaaacctgagcaccctctggctaaggcgttgctgtagagacggtgcgccagccccgcccccgaggcgggattggaggaaaactggacagctgacaagggtgacgt
0.8545856172611552 tcagagggcattgatttaggggatgcaaatgagaagactgccggtctgaggaagacaggcttctcccctgacagccagtggatggggctccgagaattctcaatgagcctccctgcagctggcttagcaggagccagggaggagcccggagcagcctgggaaaggcagggaggcaaactggaagtgcgctggagcaacatgggcccctccc
0.2571662801762488 cctacctgagggcactggcctggcggaccgcgccgggggagcacttccgctggacgcacgcacttccggccccctggaaccaatgagagtgcgaccgagatgttccactcgctggcgtccgggccgctggtgatctccggtagcactcgggccggcggacagtgagggcgcggtaagctccccgcaaggagcccctgagaaactggtcgct
0.9706679044117597 ctcccggggtcaaggagacgttttccgttttcttttccctcgcttaggcggcgggcgcgcacagtccagtgggagcgatgaggtgtttctaggcccccaagtcacagaaaagcaggcgattgggaacaacggaggcgcggcgggcccccgggccgcgggccagcgccaccttctggtggatcttccccgacgcgagtctgggagtcgtccc
1 cggcgcagcagacacggctttagagtccggatctcgccagattctggtaccccggcgtccccggtcacctccatcctccacaaggtgggacctgcccaccttcgagaagtcgcgggaggccggagcggcggtccttctactcgacccccttccgcagcctgccgggagatgtagttcgttccgcagcaaatcacacgtgagaccagggcac
0.01122784219952495 ctagcagaaacttccagagagttgctcctgctacttcaatggggcccgcttacctgtctattgtccctccacaggggcaggggccgggagacctgcagagacaaagaggaagcaatgtctcctgcaagcggtgagcaaaggtgagcaaacatccctgcctgtgcccatcagcaccggcaattaccccagcaggaggccggtgagagagctgtgccgcagg
0.6590360249763262 gaccacgcacttctgggcagctccatgagagcgaggagaaggtgaaggggagggagttccagcacctcggacagaggtgtccccctcccgaagcccaggcgtccggccgattcaattgtttcagcaccagggacagggactcacacattaaatggctatggaaatagactgggttgataaaaaaaaaaagtacttgaggacagcggtcttc
0.6955173577358816 gcctccactctctgaagtcgacattgcaaaactcaggatgctgctcctgtgccctgccccctctaggcaggaatgtcgtgaagctaaaataacataatcagggcaaaagctttccagagtagaggcgtttcagcactcaagcagtgtagccggagatgcctcccgtgattgtggataacagccccatcaagacggcacgctattactcagc
1 gtctgcagccactcctggtctcagtcccagagctcgagagggccacgtgaccgtcccggggccagtcacgtgaggcgcagatcctggctgggagggggttggtagaggggtccagagtggcagtaaaggaggaagatggcggggtgcagggggtctctgtgctgctgctgcaggtggtgctgctgctgcggtgagcgtgagacccgcaccc
0.1817935912492955 cctggccttgggctgggccaccaccctgtcttcccacacctggtcagcctgctccttcccaaatcaagcatgcagtgtcgcccaggtaaggagagagcctccagcgccacctgctggagatgcagtagcagcgccctccaggggaccctgcatccccagagtgtctggggagagtggggtgagatataatgggggaaagggagggggtcag
0.7964342820246639 taagatgttggggtggcttactgcttttgaccaagaagtagggtttgttggttgattacaccagtggtttttaaccccagccactgagtgatggagggttaccgactcacaagcgagcattaacgcctgaggtccgcctgctgtcagggcagcaaggcatcagattctcctaggagcgggaaccctattgtgaactgcgtatacgaggtat
0.4748505229657452 ggcccgccccattccaggaatcgacctccgcaccggcctcgaaaattgaccaatcggttgtgtagctccgctcttagtcccgcccccacgctgaaactgacacttcggatcgccgagtaacgctcaccagacgtcccggccctgcccctcacctgaccaatcaagacggccggccgaggcccctggaacggctcaggcggctgcggctgct
0.494474628379068 tgtctgaaccagagtcatttgtggccctgccctcccctgggactcaatttccccacctataaaataagccccagtgtccgcgaaccctggaggggcccgcaccactgcaggagcggccgccggcgccagggggcgcctcctcgataactcggcgctcggctggccaggcaccggcgcgtcggccgctcgattggtcgggtcggggccggcc
0.6803348673210797 tggctgagtgagggtgggtgctgagttgcctggctgccagaggagcagaggcccagcagggtttttgtctgagaataatgagcgaggcgacttgaatatggatgaataacatcattgagcgaagctattgtgggcttttgttggggagctgggctggggggtaattatggtgatgaattttatgatccttttcataagatcctacgcccta
0.3602909818754889 aaacaattgcaaagcaggtgaaagaaaatgcaagcaggacgctttgttgaaatacaggacatcagtggcaaaatcctcctcagtcacgcaaataagacagaatgctgcagaaaggcattccgtaaattccaaagagcttcccagcagaggtgactgagggcccaggtgcacagtaccctggaaagaagagtgggagataactaacccagga
0.1181056076226658 gatttccaacaaacagtgtctcatgactgggctgagggttcttccccagtcctcgacccccacccactgaagtctgtgctgcccccaggtggtagaccagacctgctaaggaatgcagccatcaaccagtggccgttaagaatgagtatgtgaataccccagctccctcgcctctggactgggatcatgcagaggcttgtgctgtgttgtg
0.7164244435252034 atacagtcaacctgagcctcccttagctcagctcttaaagtgctgtcaaagccacctggggatcttgtgaaatgcagatcctggttcaataggtctggggtggctgagcctctgcaagtctagcaggtttcctgtgatgctgatgttgccagtccctggaccaccctttgagtagcagaagggaggccctgctaattaggggagggaagcg
0.6253761918867409 gcctcaggacaaataaaacctgttaagccacccagattcccttccagccaggaggcccagatcctgagcccagcacgctgtgaggacgatagaccacccagcaggagatgagttgaggaatggcctgatgccaggcaggaggtcttcctctgtgcgtgcagctccaacgtgaaacggcagctttttcccttcctctgaggggtggcaggca
0.1076288216632674 cagagggccctaaaaagcccattgtcatgcactggctgaaaatgaaagaaaacctgcagatttacataatcagtccacatgcattattcatggcctccctaggcacacacaatgcgggctggccagccttccaccgagcgggaggagg
0.8748802440214809 gaaaagggctaccagggggccagatatactcagcaaagaggctctatcttcccttttgttaccacaagacagtaaagaagtaggcaacatggcactggccaggtagagaacccatctgcataacacaagattggagtggggctggccagcttttcgcaccacatgcaaatggcacacctagccctaaccagttttatgcatcctatgcaaa
1 gagaggcaggcggctgtctcaacgtgcctgctccccgccccccttccccagaaccggtttggctagtctggggtacaagaggggggctggaacaatgggagtcctatgcccaagtgaggctctgaaggaccctacacccaggtcctaaagacgggggaggcagtgcttctgctcctaggagacaggtcaccactcttctggagcttcccaa
1 tcccttgaacgcccattctgtaagacagataacgcgttggcccttaagaaagatggcatctttccgccttctctgcccccttccaagatggctgccctaatgtacacttgggaccttgcctggcgcctcttccgggcttggcagcgggcggggtccattgagtaaagccttgcgtgcctgcgcccgcgacggaggcgcgcttcaaagcgca
1 agtttcactctcgttgcccagtctggagtgcaattgtgtgatctcagctcactgcaacctctgcctcccaggtactcaagcgattctcctgtctccgcctcccaagtagctcagattacaggcatgcaccatcatgcccagctaaactttttgtgtttagtagagacagggcttcaccatgctagtcaggctggtcgtgaactcctgacct
0.006244676653711171 aagggaatagccggaacccgccaggctcagagccctgccgcccctcactcaccccgagcctcggccgccgcgacccggttcacaacatccgcccaacctctcggctacggcgtccgttcagggccaaatcacgcgcacgctcgcgcgctgagcctccagccgcgcacgcgcaccggcccgcgcccagcctccgctaggggaccccctccgt
1 ttttcggctgtcactgtcccttatccttgctctgccagcccagagggggcctacctagggaacagcagggctgtcctggctgctgggctgttgggtgtgaacagcccagggtgcagttgccaccaaaggacactaggtggagccacaacctacccccagacccaggagaagttccaggttgggggccacgacctattgggttccagttcac
1 tctcctaacgcgcaggcgtccaacgtgaccggcgcgactcaccgctctaatctctctggttttccaaggccttgctcggtggtcctgccgggcgggctctgggagtagagggaagggagttagttcagtgagtgggcccttcccatatcaccagtagaagcggaagcgcttgtctctgtggcgcaatcggttagcgcgttcggctgttaac
1 ccctagctgcacgccggtcaccaggaccatctgcagcagcaggctgctgagcacgggcacgctgagcagcgcccccggtggccgcacccgtcccaggaccagcgctggccccgtgcggctcatgagcactgccactgtggtggtgatgaccaggtcgatggccaggaactgcaggtcacccaggttggtgttgatctgccacagggaaggg
0.664059238313036 atgtgggggtgcaggaatgtgtggaattcaagatgctccccagggttttggcctgagcagctgggtgccagtggagccatttactcagctggggcaggctgcccgagccaaccagttgcgggtcattcctgttgaccacctgggccatgggactggcttccttgggtcaggtgacaagagttctttcatcttccggtgacacttccagggg
0.05550809339041009 aaaaaaaaaaaaaaagaaagaaaaaaaagaaagaaaggtgtgtggaagtggagggcagctatggagcgatgaccagaaaaagctcagcaaacaagggtttgttatgcagattgcaactgatgctttctccattgataagagtttctagtaatttagagtcattcttctcttcctgatatggagagggagatactctttcaaatggaggtttcct
0.07289677030470003 agtgccaggcaaggcccagaggaggtgctcaagaacctgctctaggccagaagcaaagggaggaaaggaaggctccttttgctggtcttttccctgctgccagcagagggcgcctccgcaccacgattctgcccaggtgggtccagcctccagtggggccacagccaacctccttgtcctcaggaggcttccggacagaggggagacctcc
0.688336321245498 agtattgattctactgtgctgttgataccccaggagctttgctttctactctccaggctctcagcaacctgactttccctgagttcatttaggggcagcaggggtccctgtgagtgatttcttccaggagggaatttggaggaacattccagagcttggctctcacacttgagctgcatcacaatcagctagggggctttgtaaaacacag
0.2012402107391294 caaaccatatcacaatcctttaattcaaccccaaggaaaactccacccctaaccacagctgttaagttgtaaccatccagactcatcacactgagctcctcctcctggggatggggtgatgggagaaaccttcagctccctctagaggccagagtgtgaatcacaatcattgcagccctgatccttgatctttaatggaagttctattgga
0.7362795970863784 gcgactgcctcttcaggctgcagagccccatcagggctggcgacggggcgcgggactccgcatttacatataaatgaagatatttacaaattaatgcatctcaacgagagagagtcccagctccacagctgtctgagccgtttcctcttcagctggggaaagtagggagagaatgagactgagaagattaccaagaattggctgagagcaa
0.627859267056186 gtgacttccttggaggtccgggtgaatcacagcgaggcttcaaccactcctcccacacacatgctgtgtcttccatttcctgaagcatcctgaaagccacaggtggtggggaacagctgggcggggcagggtggacctgggggccatgtagagaaagccaatgctgggctgcacctt
0.00871676843662395 gagtaattggagaagctgcaaatcgtgtgacctccagaatcatggctggtaatcatttatgtctacaccttagcagaattcaggctcctctcattgtcctaatctggaggcctttcattagccttacaaaggcagttgatttggggggaagagctattatcatttaaactataaactaaatgtctcccagagttagcttagtgtaagccca
0.984762138744069 ctgggccccagcggccaccctctgcagctcaaagtcacctttgctcctctcctctcctcggctggccagccagaaccagcccagaactccctcccctccgctcagcaggacccaggaactggtccctactgggcaattattaatcagattcttgacattcctcagccccaggttggctggagaagcatgttccccagaggagcagaggccc
0.06675525251013582 cgtttccggaaacgttctgcacacgggagcttctcttgaaagagcctcggccctcagaggcggcttctttgaaggacagccgtggttgtaatgcgtgaaccctgctgcgcctctttagagcaacaccaaagtctctttacctgatgcaaaggctccatgagatgactggggagccctgcctgggagctatttacaagctggctagggacaa
1 tgggacggattcgcccaggccttgactctgctggcccccagtggccatctgtgttgttcttccagcaccaggtccctgactgagctgacagctggtccaggggctgagccctggagtacgacaaaaatatgcaggaatgagggagcgggaagccgaggtgagaggccacagaaacaagcttggcctcctcccctaactcctccccacaaac
0.08303073688918929 gcagcctggtttgaaaggggaagtggcatttcaggcacttaattagacccgggacaagaatggaagttggctctcaggtcaggccaggggggattgttgggggattaacactcaggtaaacccatcaaggctcaccggccccctggcaggaggcagcaagagaatcccgggcagcagcggaaaggctgggccggctgggcccaca
0.2664206123050892 tgaccctgtcccgtgaacgagcagattcccgccacatgagggggtaggggctgaagcgccagcagctccatgcccagcattcaggccccaccaaacaaaagccacctcctaattgccctgtttgttctggcacgagggctgatgggggtgcctgcggagctccctgtcagcccggcctggagctggttcccagggccttgcaccttgtccg
0.9362185495007028 ggatccaacaattcagaagcacctggaatcgtgaattaaagaccctgtcaacacagtctgctcttccaacccccaaccaccaggggcgcaggccaagctctagcttgaagtgtgtggtctgaaagtggcagctgcacctgtgcagccctcctgggcacaagggcgagcccagcctgctctcaaggggtggcttctccggccactccccttt
0.5547272026694382 tttaggtaacgatgacatccccacccctcaacaatgtgagccatgagggcagagatccttgtcttgcatcctcagcacataagcaccacagagtaggcacttaatacacaaaaagctgaattaacattatcctgtagctgcaggtaccccacaacatgcctcagtatttgcctaacaataagcatttcccagcctggagggagggcaggct
0.6218341785316128 gtgtcagtagcaaaggacacagcccatgtggcttagtattcataaaatgcttagaacaggaggcagaggtcaggcagtaattctcattcacccaccactcacctcctgctgtgcggccaggttcctaacaggctacagaccagtactggtccacggcctggaggttagagacccctgcgttagaggcaaggacaatgacttgcccctctct
0.3638895662827338 cctctccccataatttcttttcatcgttagaacctccctctaggacctaggctcagacttcactgccagactggcctgccctggacaacactccacactcgactggctgccccctgctggctgtcaagctgaacaagccccaagaaacccatttacccaaggaggccaatggtggccaacaaaagcagtccattagacagtggctgctcat
0.5476018202743256 tcatctttaatttctctgcttgacttgttcctgctttgttctctctggtccctctccggtcgctcctgccactcacgttgagtaccatccaccactagagggcggaatagaacaaaccaagatgggtgcccctccagctctctatggcgtctgctcgccgagccccgcaaaagaggcggggattccatcatgtgaccggggtgctgggcgc
0.9155340259987188 ggtgtcaggcttttttcaacaaccagctctcttgggaactaatagaacaagaactcactcacccccggagagaaggcgttaatctattcatgagggatccaccccatgacccaaacacctcccattaagccccacctccaacattggggatcaaatttcaacatgagatttgaaggggacaaatacccaaaccacagcagaagctgagcaa
0.4154535640179657 cctgccgaaggacccagcacgtgcacaccggaagtaccccatctacggtagcccaatcgcggctcgtgcccgtggagcactacccggaagtgatcgggatacgccgcggctgggcgtccagagccgca
1 gcagtggctctaaagagcatggtacagtgcacagcgcacggcggacatccgtgtctctccttccttcaggccctcaggctctgcgccccctgcaggttcttgcaggcactgcggaaagggagctaatgtctgtcccttgtacctgaaggaggtggtgtgggacagaggaaagggcacaagaccaggcatcaagcaagtctcagctctgcca
0.218422379048714 gctagatccacttagttggaaacagagaaccagtctcagacccctacagcaggatcagagtggcccaattgtatcaccattcaaagtgggacaaaggcaccgatcaaggaacacgatgggcagctggatctggaagggcagctctcctgggggtgtaatgcgctc
0.3888172139689854 ccccacttggttttgccacagatcaagttgcatctgactagagagcctgtcctctaccctatttcctgcacaagtctttttctttgtaatgcaacaagcgctactcagctcagatccagtgggacacagggaaaggggctgtagtgtagcccagccttgctgagggagacccctgcctcgccaaagcacttcgctcacaaaggctgaaact
0.6142208868460475 tcgtcctactgtcccagctgtgagatcctggtagagggacttggactcatccccgtctcctgggtccccatcgggtcccgtaagtggtcccttggcgccgccttgtggccatatcaggggattcactgaatatgagaacagggagaaggaagtaattaattgagcacctaatgtgtgccagacactgtgctgtatgtttgatacgcaccag
0.682147500386057 accctggtctcctcctggtcttctccattcagttcacatcatggatgtccccctggtctctatcccttccccacgtctccaaaaaccatccaaccccctggcctggctcagcttaaaatgctttgcattcctcctgggcggcagcagctgcggggagcccagagcatgccgggacatggggcgctctcccctctcctccttccccctgcca
1 gagcctagaccggttccgaacccctttcccgagccctcctgacgtcatgggaccttccggccttttcccgtgctagggtgggactacgtgtcccggcatgccctgcgtcctgccactgactgtgaggcatgctgggatttgtagtcttcgaggtgggagtgctcagtgcgccgcagactgtgcgggcgggggtccgaggtgccagggtgga
0.6941446889272813 cttggccgtgagctttctgcagtgttcccgcatgttgtcttttggagcttgagagaaatccttttggaatgtcctgtgccttctctctccgagttcccggctttgttcaattgttcaccagaaattcctgccctgttgggaggggcctgggaggctgttaaagagtttgccaaaaatggtggtacccgctcaggcacagcacatggccgag
0.5037913256391218 acactggctccaggcctctcaatttctctccagcctcaaaaggaggttcagacagcggaggtgagctcagccagaagtgtgaggagacagcgccctccagtggcctctgcgcagcagcgagggaagccgaaggagggggtggggcacttcgatgtcacaagggctgcagccccgaggagagggacagagatcaggggcacattcgactcct
0.5001392640094731 gggtgcagggccaggggtcaaaagtggaaacccaggacccctgcacctcttgcctctggccacctccctgatggttctcctagagggtgaattcacttccaggaccaccaggtggcagtcaagagactggctaattggagctgcagcccagcccagcctcctccagctctgagtcacaaagacccagggctgacagtgaggagtcaagcaa
0.3809202483747464 aagccctaagaccacggactgtgccaggtcccactccaaacgccggggagacgctctaggcaagctacacgttctttgctgcggtgccactctagccgcgagaacgccgctctatggctgcgggggaggggcggggctcgtgggtgtctccgaccctttttgtcccggcgcggcgggagcgcgcttggcgcgtgcgtacgcgacggcggtt
0.9894463939437241 gaaagaggttgccaaactcttcttgggtggtcattgattgcacccaaattgcattttatgagactctcagatccattatctctcttggtcttgggaagacagtagagggagttgggatggattgttcagctctttgcattacaaatgtatcctgggtgacagagagggtgtcctgcagttgctcccatgctccctgactctcttctctctt
0.7755939637447181 aaagagtcagtttctcccagggcttgggaactcctttgggagctacactaacttctaaaacaccagggaaccacttaacaaattatcatttcagtgcactcagtgatatcctaacggcctggaaacacagtcctaacctacctctagggtct
0.4242268509323205 ttcatcccttctctgacagattgctttgtaaactttcttaggccttccccccacccctttgccccagtgctttaagcccttctttgtcttcttgctgtt
0.7493248667891018 aaagagctaaagtgtttgatgcagctttgatttcctctcctttagaagagggacattcag
0.100400108568111 cactatcctctctgggagttatctgacctagggccaaattgctttcactctctaatgactaatggattggcatgctggtctttcttttgtcctggccacctgaacaactcagtcctgggagtcctgacaggcaatttccttggaattagcttaataatacctcgtaggtgtgtgatgcatttcaaagaactttcccaccattatcttctgtcctg
1 tctgtttcctgcctttccctcccccacccacctgggcacagagggtctttcatccattgttactgcttcctgcccatccatctccagctgctggtctgaaccctgcagatttacactgacaagcggatgcttttaccaggaccctc
0.9532862288293729 tccatcatggcggtgagtagctgggacctggatttgctttcctttatccgtcgccatccatggcaggccgagcctgcgggggctacttcgcccgcagcccgaggaatatggagcccgcaatgcctgctggcccaaaactagcagagccgttcgagccaaggacgcagggttgaattctgtcactttccctgccatcgttttaggagcggct
1 ccaccaccagggtcctctccaggcgcctgcggcctccccgcctaggcccggagtacctgccttgtacctacctggtgtcgtcggccacgttcctgacgaacagagacgtgttggggggacgcaggtagcgggacatggcggcggcgtgtctcggccgggcgcactaacgggctcagcaaaccgtccgcggctcaggcggccgagcctcaga
0.1898799806427505 acggctttgcatcttctagcctttgttgggaacaaacccaggatggctaagcaggaatgtgttgagttctgggtcttagctcttcagtgtcctgcacgttttctcagggtgaacaattcctgttgagcaatgcccctttgaaatcattttgtttgcctctgtctttgacttgatgttagctggcaagtggtgtggtttgctaatgacctca
0.07082295965912158 ataccgttagtagtctaaagggatacatgttgctttcacctaaggcactaacacttttcacgggatatgcttccagcgcaggcccagcccacaccgcgcagttcccacctgctgtgcacgtgaaagggctttgtaaacagttaagtgctgaccacacaaggcaaattattatactgattatcatgccctttccaaatgcttctcctggctt
0.4357984930920801 attcctgctaggcatgtgtctccaagtcagacctgtttgggctgcacagcccagcccctgaaaaagttcttttgtgctttctcaaagggcctcacaagagggttaaacgccctcacattagtgctaatttggggctgactttcctattcagccagggacaaagcggtgtttgcacaaggacctgaggaatgggaccacacgcactgccagggagcgggggctctgtgcccaccgc
0.3828932338759153 tgcccatgtcatccccctcagggttcaagcagggcttaagaataactcggtggagactcttgtgggtaagggggatgctgaatgcctcctccattcccagcattggtctcctgctgggtgtgactcagactgcacagtgggccaggaagaagggggtgggggtgtcagaggtcactaggccccaaaaaagaaaatgttctatttcccaggt
0.7315845060961614 atggctagacggcatgcagagagggcaaacaaagagaccagatgggacaggttaattactggacacggagagttggggag
0.320087618808237 gagccatgagaagctcgcccaggagagtctaatttattctgattacagctcatggagagtgtagggcatgtgaggccactccagctattgttattcaacttgcatctgcccctgctgatcccctgagaggctggcagcctctcagggctccttgggcggtgagccctcctccgcagcctgcaagcctttttacctctttccatcacctgag
0.7388410398491084 ttggccagggtggatgtgggtgggggttggggtgggggaggaagtatttcctctctgccaagctgcagcaagaggctaatggcctccacagggatccaatccaattaagggcctggcttcaagtcaactcgggttcccttcctggctggagcagcttccaagtgacaaaatgaaacctgtaatgtccccaggatgagatagtctccaggcg
0.5383643808496179 ccagaggggccctgcatcccccacctcctgctgcgagaggcatcagccggccttgtccctaaagcccctgctcgctttcctgtcaccactcgggtgcggttccgaagtggccagcaggggccgcggttcccctcctttcggcgccacttctgcaagcagggctgggacagctgcaggacctcgtcagtttggggagctgccagacccgatc
1 ggcatgagccaccgcacccagcctatttttttttttatcaccatgtgctgacaattctaaacagcatgggtggtaaatagccctcccagcaccctgccattgttctgccgctgttctcaggtacccatgtggcttgtgcactcgttaccttcaggtctgtactcaaaaaaaatcacccccttgatgagatgaagctgcccctggccacccc
0.388374396423839 gccaaggaggacgagggaagcgggggcaggaggcaggggactcatcaattgctggcaattacacggtgctttgtcattcttaattagctcagtggctccacagcctagagatctccctgtggatgctaggctgggggaggagacagctgctggtcccaccacggagggctatttggaggggtaggtaccgaggagctcccctcagcagcac
0.6278944046828013 ggcagagatttccaaagcactaaaatcacaccattcaaagtgctggcccctggacttaccgtcaagctgccacttggcccatcagtgctctgtgcagagcccaggtaggggggctttatctgtaaaacccagggaggaaggcaatcaatacgtaatcttttcacattctttttacttaacaagagaattggtttgcctctgaagtaacttg
0.2198185703011113 aatgtaattagccaaggaaaatgaatgtgggagctgccttttgtcaaagcaccattaaaacccagctctggtcaataccaatgtggtgtgaagacaaaaggctcagtttgctcctcttgtgactggagagggaaggcccagcaggaggtgggaaaataggtatcttgggatcttagcaaaaggaagctcattaattcattcattcagaggc
0.6604267267145959 tgttcctgggctcatgtctgaggaccaggcaccagggactgctgacccccgggggttacctagctctgccctctgtgccccctgctgcggaggtggtggtttgccagtgctggggctccctcgtgcggcggatctgcagattgcactgctcggctcagatttcctgctgcccgccagaggcctgtgcagggaccacggtgctcgttttcat
1 cctggcccgggcacacgggacagcactaccccaggctttgcagtgcctggctggcctcccttcaagggtggtgcccatctgcccagttttctagcccgggtgggagcctgggcctcagccaacaccattctctgggacctaactccactccgtgatttggggaaaaaagccaagcaatggactcaattaggagcctccaaaccatcaaggc
0.5537717780640365 gtcgacggccgcctggcggcgctcgagccgctggccgagagtgacgtcatcagaggcggtccggccgagcctgcctagccccccggcgtggcctgacgtagctgatcggcccggaagtgctcacacgtgtgctccctgccctgctcctggccccttggccggccgggctgtttctggccatgggtcgctcccgccggacaggcgcgcaccg
0.9196957127836607 gaggacaagatgactgccctaaggagctgtggagataaatctacccgaacacttgagttcacagctcagaccaggtagcgggccactcagtacctcctggtataggcgccctcgggcttacctttgggcagacaggctgagcagcgccatctggtggagaactccaggcaggagctacagggcctggctgtggctgagcagaggggatcag
0.5397781519817387 agcacctcattacagtggatttttgtttctagttaaggcctcttgtcctttccttggaagcttccacattcaagaggggattaggggcttggcatgcataagaatggggttgcctgtgccactggctgggatgaaaggatggggccatggcttggggcatgagaccctaataatactttgtcccctactcctcaaagccttttacaaatct
0.8071846891933389 ctctcctgtgagggagagctagcgagactttagtccggtttccatgtcaacgattcagtccatatttgccatcaggctgttggccgaggtgctttcgcgagggtagcgctgtcctagtcctagttctccaatctgcgccgggattcctgagctgcctgggtgtggggttaaaaggcaggggccgtgggggaaaaaactccaccgaagggag
0.06015317222263364 atttttattttttatgaatgcaggagagtatatagcagggggcccgactttgctgatcaaggggcagcattttcctctcaattatgtgtctctgtggcagagcctttgcttttgaagtgtaatcacagtaatctactcctgtggtttcccattgaaaggatttcctctgtctttcccagagtggaatctctggctttttgcagctagggtttggagtttccatcccctgccttgtgcctgcagact
0.469894975343025 acccccaggcagcgtgggcctctgcttctctagagcatcaccatatcaggaatccctggaatgggccctggggaactccataaggggagaagtggaggaggggcaggcttttcatcccaggaacattccattctaactgctcaggctaggggatcccagccaaggacaaaggcccaagggaacctctgcttccccaggagtcccattccat
0.1592094639898197 ggtggctggactcaccctggtgacctggggcctcctctgcagcattgttttttccaccctggccagaaccatcaaagtcaccacttcagaggcccctaatgaggctgaatatgttaagggctttgcaatccctggatcaaagagtctgggcaaacagcaggcagcgtccaggcccatgactgactggctgatactctgagggcgcagcatg
1 ctttaccaggggaagatattgtcatggcaatgggagggtaagcaactggccacaaggaacacggagaatggggcgtaagcagctggccatcaggaacacagagggtggcagaaggaggctaggcatctaatg
1 gcccaagagctaggcaggtgccaagaggccagcatctgtgaggctggagagactcttgattaggagtgggagttacttctgatgtcacagtcttcgagcaacagttaagagcccagcaggcagagagacgtgggggaggggttggacagacaggcacagatgaggaagggtaattctggagtgtgaggagggagttagaggcagagcactg
1 caaagggcctctgcttgggaacgggctattcagtacccacttcaaagggtaaataggaagtgaggagatagaagagagactgcgaaccagcaggatccacttcttggactgaaagccgcagtgggacgcccctttgccagattggttgactttgcttggtggcttgggctctctctcctctgcgggtgtactcccagggtttctagaggag
0.309826676393079 aaaccatgcaactttggggcagttacttggtgtctctctcagagtgtttcctggtctgaaaaggaggcatgccagcacctcccactgagcgtttctattgaggatcagcatgtttaaatggcatgtttaaagcacctgggggagtgcctggtgcccaggataggaggaagctgagctcagtcaggctcccgctaggcattcacacctgctt
0.5210863557742071 gcatttgccattccttccacctggaatgctctctcctccctgagcgcctttga
0.5069329276373787 tcttctaggtcaacagacagctgtggggttgctaggcaaccgcctggctcccccctccattaggccccctcccactgcctctacctgcaaaccctctgctggctccccccacgccaggataggcctcacccctccgcgccaattaacacagcgggactgagggggtagggggtcagggcagctccgggactggaatcaaggtatgaggacg
0.3611319385492936 aacggtctccccgccccttaggccggccctgccttttcctccacctcccgccgactccacccacggcgcgtcccgaacaccaggagcggtgcccgcgagggggcgggccgcgcgggccgggctcccggagattggtagcacctggagtgatgtcgctaggggcggggtcggggcttcggacacgccctcttccccggaccctttcccccgg
1 acaagtcccaccaccaagcctttgcccaaaggtcctcccacctggcagcctctctgtccccttttttgcccaggcttagcctccgagagagcggtattttctcccttctctaagccctgagcacttcttctctgcaccaccaggggtcctgtggcacgatgtgcctttttcgggcaggcatctctgcctggataagaagcaaggcctctga
0.459209305641378 tttcaggggcttggcctctccaaaacacctccttggccactacctaatttggtcggggtcccctgcagttttagggagtgactaaatacagaaggaagggatgactcctgttattcagccagctcttagctgctgccaaagcacagctggtgagtcctcactgtgggcgggacccagcttggggaacaaaagccacaggacacttcaggac
0.3763553670443556 tgagcaggggcgaggtctattcatttccgtctctatttaaccctggttgcctgccccagagagggctgttggtaatcgtggagctgctaaaggctgatgagggctgatggagtccaagataggactgtactgccacctggtggtcagatccgcacatagcaccatgaaattgtgagagcccctgccgggagagtggtgattcaagggtatg
0.3147183784690142 accccactgcaagtgaagagcagcaggtagcacaagaaaagcgataccgccttctgccgcatggtggcgccgcgcgcgggctccgtcactagacctgcgaacgggcgagagggagatggtccccggagcatttttggagctcatcagctccgttgttttcccttccagttccaactgaatcagtaaaaagcagcgaggtgtggtgaatgga
1 attctgttgtttgcccctccctcttgggggcaggggctgcactggcaggagaggtgtggcttccacttaagggtccggtatgcctgcctcctcgggccagcccagatcataccctgctgggcaaaggaggaagagccagaggatccagacgccttggaggacttggaacacctgtaacaggacaaggagttctgctcaggcacgtggccac
1 gaaatgtctttttaacaagcttcccaggtgtcctcaatcctcagctctttcatccctttatttaagcagggaacaaccagcaggagtggggcagagaggaacggccactgtgcaccccactgtgctgggcacctggcttccctgacctcctcagtcctcaggataccacacacagtagagtcaggattcaaactccagtctgtctgatgcc
0.1977076960383341 gggaaacagacctctgattggctggaccgccgggcttttgtgtccccgccctcccccggggaccgcagcgggctgaactgctggtgtcagagcccggcgagcgctggcagttccgcggcggggatgctgaggagcgctgggtccgggagcagccctggcccctgcggacttccgaggccgtgaaaacccctgcgctgcggcccttcccagg
0.322841319203866 gttgaagaaataggtgtggaatacatgcttgtatccaccaggatacctgggctagttctgggcccaggtggcagtgcttaagaaacaatagcctcctgctgctgtggacatggcctctgctctggctgtctctccctgcctggttgtctgttaaatggccagctctcagatactcagcaccagtctggtgtc
0.4967949168737016 agttccagctgttgtctgggtcagcgcaaacagagacctttgggctgcccaagatccaggatttacagcccacagactcctcccagtttaccggagtgtttggaagacattccaggtcagcaggaattaagtagggcccccgaggggagtgtgtgtcacgtggtctgacgacacagccaggatgaactggagaagggcaaagcatagtcca
1 atttggtaacactgccaccctgctttggtgacagagaaagcaaaaagggcttctgtcgtgagtggcacacgtagggcaactcgattgctctgcgtgcggaatcgacatcaagagatttcggaagcataattttttggtatttgggcagctggtgatcgttggtcccggcgccctttctttactgttatatgttaggcgaaatattacgcgt
0.3416105157718685 ggagcttgctgatggagccagactgagaggcaacccaggggagctgcctgctcactgggaggcagccgctgtatcttccatcaggcagctctgtctctttggcaggtgggagccacattcccacatactaaattgttaatagcttccccagggagttcctttctgctctgactccttcagtgatttctgtttctctcctgctgacgccttc
0.7474011730645654 atgtaaaaacccctccacagcagggattgacagaaacacaaagagccctgcgatacactttcaatcttcctcccctatgcatatgaaagaataaaaagcatgacctcactattcaatacacaacacccttcaagtaagagaagaaactcctttctttaatgtttctctgcaataggttgagtattctgaatccgaaaatccaaaatctgaa
0.2607086280406872 tagtgccagctctgctgcctgctgtgtgatctggaacaactcacttcacatctctgggaggctgctgc
0.5465400677609571 ccaacacagagcctgacgccccggctacgtcatcttccagcgaccgcgcgcctgcgccccgcccctgccccgccgggtgaccactcccccttggtccctttgaagggcgtttccttccttcgctgcccaagtggtggcgcctggctagactgcgtgtgggccccggagggatccgggggtgcggagcttgcgaggccgccaaagctgttgt
1 gctctgccccttacatcaccccatcctgagcccagccggatgtggctaaaccatccccctgccttcccaaattgtggctgacggttgctcaggcaaccgcctgccagactggggagattagctgaggaatgtagctgggccagtttgaactgaggctgggggagcccttgggggtcttgggttgattcaattcaccctctcagggaggcct
0.4623866365655912 gtaatttacctgttgattttctttgttttttccccattctgttgctgcctctttttgacactagatggcgccttaagcacatgcttgccttggttctaaataagcaactagagcgctgcgtttactgactggggaaaggtcccaaaggggaatacccgagtagtgcaggaagcctggctaggggttcatgccctgggaatctgtggaatga
0.3191615289215901 agtgtttaacttgcagtttctgaaggccatcaggagccccatggagttaatgttttctctcttaatgacactgcagcacattaaagagggacccatcttccagctgacattgaagagaggccattcattacccaggatggcctgggttggcagctggaataactttcccagagacctgcctgggtgggggaagggtctttttatccctgcc
1 cagcccctgggctctctgcccatctccaccaaaagccctctcaggaaaggccctggaaatcccctctcactgcagcctaattggctgatgtgggggaggggcaggcacctggtccctcagggcagcattgtccatttgcagacagaggtttgtggatcttggtgggagggtgtttagggaccctccaggttcctggccactgattacacct
1 gggctgctgggggcactcctgtcacactcacgagctcactccatgctagttcccttccctaaacctcccaatctatagacctggccgtggggggtctcccgctcattcattcactcagcagatctctgggcatggctgatctgtgctggggcctgagcttggaagaggaaacagcaaagagggctggttaagaggctacctctgcagggac
0.4371652535649128 caggaggaggtgccacttgaaagctaagtagaattttaccatgacgatgagaggaagagctttcctggcagggggcacagcggttagttacagaagctcagagactcttggaggcacaaggagatgctta
0.6626272348917812 gctttggagacttagaaagcctttcccctctctcaacaaagcctggctttcaagaccatta
0.4747111930966783 ggcaggaggagctgggcctgctgtgcagctctgagctcagagacaagcatcgagcctcctggaaacccatcagcctccactcaggtagcgctcacctacatactattcatccccagctcagtagccatcgacatgacaaccgttaccatgacgaccatcttctccatgctaacgaccaggagctgcagctccccacagagatggggtggta
0.4889097629467078 cactccgacaacatggcggcccactggggactgggttggcgcggtgcatcctgggataggctccggccccggccccggcggtggcagcggcatgtgcggagaaggctggcggctctggaacaggttgcctggttgccatgccaacccagggcctgtgtgaactcgggaaactcgcaggcaacacaaacgctgcgcgcgagtgcccgcccgc
1 ctgaggtgagagggggctggggaggacacagtcagtgcaaaggcccagcgttgccaggaagggagaaacggcgcgcggccgagggcctgtccagtaggctcacgccccctctcggccgcagcgggagatgcaggcgcaggacaggcagctggcagggcagctgctgcggctgcgggcccagctgcaccgactgaagatggaccaagcctgt
0.507815939315266 gtgcccgggctgcgcggctataggtgagcccaggaggggacgggcggggcgggccggaggcccgccccctcccccctgggtcggacgctgagcggagccgcgggcgggagggcggacggaccgactgacggtagggacgggaggcgagcaagatggcgcagacgcagggcacccggaggaaagtctgttactactacgacggtgagcaccg
0.2144106111276418 ctgttctttctgggggagaatttgcatccgtaaagaatctctattaacatagctagatctttttcttccagaccctcccaatcctaaagatgttaactaacatctgaataggaaacatttgtcttctattgtctctaagggcagccactataggacttcaaaagaactttgttctccacaatcttttatcttaaccagaacattccctttc
0.2471234884796344 cctgtgaggtcaacacctgggattcctgctcctttaagcctttcccagtggagggcgtggccctggctgcaggtgagcgctgttgccacatcagccgggtaagccctgccctgtcccctcccccagctctggagagaggccctagaggccccagaggacggtgggaagtgggcggggagaaaaggcggagcctgcttggctggagagaagg
1 gcgggaggaaaaatgggtggaattaggcttggggcttgattctaagagatgcctagaggatcaaagaagacctc
1 cttcccaggtcaacgcacgcacgccacgcacgtcccactcgccgctcacactggcccatagccgcgtccgtcagcccgttccgcccgcccctgagcacgacggactcttcaccttaccaactgcacggcgatactgaggaactttgcttttgattggacagaattggtgcgggataaggaaggggcgggccagcatgtactaagggtggcg
0.809861232872541 ttgggttggcagcagagccgaggagctgagggtccagggaggtggcaggggaaaggggtgggcttctacttactgcaccggtaggtggcgccggagaagttgcagggggactgcataaccatcagtggggtgctgggatttcagctcaggggaggtggaggaggcaagtgctcagggacttctcagggcattttattcctgaaagggagcc
0.8638191777352051 tcatttaagcatctctgagaccttgaggtcaaaggcattcaggaaggatcatggactgtggaggtcccaggagatgtttcccggccaccactgagcaatcacattctgcccaagcagcggagaaagccctcccggggcacagcccagcacagctgcttggcagtgagtggattgtgtttctttgttctcaagaacagaggcttcgaacatg
0.3676650933542994 agtaagaaaaaaagttgcatctgaatacgaaccaacaggagaaggctacaccacaagggggcggtgtagacacagtctgggtgagggcagctgctgaaggccccgctagttggagctctcacgagctggctgctgcgttgtagacaagcaccagaacacgacaggcacgcagagccgtagggttccacctgcggccatggggtgcttctag
0.9074405726909405 gggaaaatgtgctctctgcttgagctctgttatccaccttctcctcctttgttctcgctagttctcaggcctttgagcttggactggaacaataccactggccttccagactgcaaatagcagattgtggtatttactggcctccaaaatt
0.007710859983953058 tagtgagcgcccagctgacaggcctggacctctgggtagctgtccacggtgctgacacccgccgtgcttattgctggctgccctctgccagcaggaaacagatttccagggccacccggtgttgaatgagtggtcccctgcagagtccatttctctctgcagtttgtaggtaagcccattactatgctgatattctccaaccattgagaaa
0.9871346389859896 caagattgcaagttatctgaggtcaaggaccatccctagtgcccagcacagcatgtggcagattagaggcataaaatacatgctggttgaatgaatggatgcattgggtgaggcacttgcgatggggaagggtatgtttgcaggctattgttaacccagatgagtgagatgcacatatatatggccataggttgtaatcagacaagtgtta
0.6961311172382617 cctttgtcctcgtcttatataggccagctggcacggccccgcctactccacgatcgacagctccaatagccaattgcaattactatgcttgatgacactaagttgcgaacctctgatcattcctattggcccctgggtgagaggcgggaggcatggggggactgaagtttccagttggccagtgagcgaagaaggcgttggctgtaggcca
1 gattgtctttccagtaatttctttcatttctccttcatccctgcgtcatggtccctttaagggagcggccatagttgagtggtgggagcagctgctggcagcaaagagacttgcaggatttggcctacccatggccacttaccgcgcacgctcaggaccgggggcttggtgggaaaggaaggagggacttagggtgcgcctgcgcatcagg
0.5385380769168047 caggggctgcaggtccgacacagcacgagactcgcccgcttccaggtctcaccggtgagacagcacctcagagcgaagattggcgcgacgcctgcagcacgacttccacggcgctctcggatgacgtacaactgtcgcgagaggttgcaaagcgggcgcggcgccgggtgccttatgttcagtgcttgtctctgggatcgtacgggtctcc
1 tcttaacacagtcaactacaactcccggagtgctccgcgcgcgcctgcctggtagagcccagcttgcgctgggcagcatcctggccgctgggtggcgtccgcagccttcggtaatcctgggtcacacacacgcttcctccttgtccccctccccccgcgcccggctcagagatgatgctccacaaattcctctctcgccggggttggtctt
0.7013078018832642 ctgcctagcacggcgccacgccggtctggtcgctgggggcggggcctgcgcgggggcagggcctgggcctccgcattcctgacggtccctcccaggcacatctggccaacatgtggctcccattaccgttcccaaggcctgcgcgcggctatttttatccaccggatggtgaggggcgggggagggtgtctccttcggactccagccgcgc
0.3907477423728982 atcaaactcagcgtcctccacgcgaccctcagcatggtgacctctaacccccgcggggcccgcgccgcggccgccgttcgctttgcggcacggaccgggttacatgggcgccgccatgctggcccaggatcgaccaatcgaggcagttgcaataccggagcagacgaagaccgagagaatggattaggtggcgtgactctgatgacgcaac
0.9921387091323233 cctttgccatctcagggcatgtcttttttaggtgggtgctggctaaaagccctggcgtttgctgttcagttccccaccacgctaggcgccacactggaggggctgggcgatgctggccatcccgcgcttggaggctctgggcttcggatagtcacgattaccaccagagggcgctcgatgctcagattacggaccaggggctctgggtagg
1 gggtgaggtgacgctcccagcgcctccaggcaaggtgtttgggcactccatccttggtccagccttccatggtgggccttgggggtggggatcctagagggctcctgggcagcgcatcggttcctgaggtgccccggatgacctctagatggcagcattggcgagcgggagccagataggagctgatgggggtgggctgggcctgtgggct
0.4869888520175228 tttttccttcctttagtgcctgactggtgggtaagtccaagcaacttcactctccttccctctgccaggaggggcctggaagccacccacatgcggactgcagtctttccactaggtggtgctagactagcatctgtgggcttgatgggtggagtcctggccggctctggggagcagagcttaaccatggatgaagaatagatacaggaaa
1 gggtgacctgcattcacaactcctgtatgcacagcctcattcaaacacagagaacacaagaatccca
0.485821071442696 tctccccactttgggggacagcccccctcgctcattcccgcctccacccttgacttgaatcactgttggcgggggacggggcgtgacccattcatgccgggaatcggatccagatgttcccgcggcgtgtgcagctgcatccttgccttttttggcaaaaaacgtgcggccgcgagaggatcctgggccgcccttgctaatccttgggaag
0.5332021878459776 agtggtctgtcagcacctggggctgctgtggagcgcagacccacctgagctctgcaggtaggcaatcctggctgggattctgcagacaggcctggagcagagccccccccaaccccttcccggcggcagcagcagcagcaatagcagcagcaaccctccttttttaagtcaaatgttgcctggaagtcattgcttcagcaattacctctga
1 gagtccgggttacaatttctggggaacagaaagagttatgatgctcccttaaatggcccagtgaagtctcacagattgagttactcctgtggtagtcaggaaaattgaaggcgaaacggcgccatgatggtgggtaattaattgtctgggccctttggtgatggggctgtctgtgctgtggaggaggcggccagggctctgcctgttccct
0.8590162211499339 ggctacccaggcacaggttctctgctgagacagcttccaaaaagaagggggaggagtttaagctacaaacctgctacctctcccaagctggggggtgggggaccggaaagggagatcagagtgactagaggccaattcagggcaagagtgcagcttgccaccctaccacctggaaactaaaccagagagaaagaggtttccccacaaacag
1 ctctgctccctgagtgctaggggagattgatttgaataataataaaactccagtctccctcacagccggctctgcgtgaactactctttctctgtggcaatacccctgtcttaatgagttggctctgtctaggcagcaggcaaggtgaaccccttgggcagttacatctcccaaagtgctgagattacaggcataagccatggcacgtggc
0.3934402240731742 taatttcatggggttcatggacttgctaaagcccatcctccaatactcgcttctgtttaagtgcagacttcccagggctcagcggaatgcccttgatgacctttaacaatcacccttttatcatggggacaagagcggcctagaaggaggtttttggagtcaccagacccccatggcccctcaccaggccccttcaagctctcccctcccccacgcccgcgcagcgcaggtgcga
0.072204485584818 ggcattacaggagtgctacacaccttgcccagtgggagggatttttcatttgcatttctgaaaagaaacaaaccaagctcttgcaagaattttccatatcaatgaaggcattgagtaggccatttgggctagctggctggtaaacagatggttgtgatactgtactaaactctcaacaggtgttgtggaagagttcagtaacatattcaaa
1 ggagaggcctagggagaggctgaggtggagcgacttggccagttgctatggtaacccagatggctgagtaaccattttgagggttgctatggtgatgggctgctggtggcagggatcttgtcttcctgggtggctggcaccctccaggcctcttaaattgagatgttgcactttctgaacagaagagggcagcatgagagcaggcaaaggc
1 ggggtgtggtgggagctggttgctaacaagcagcgccgcctgtggacctgcacagccacttgttttcctagccaagagctacccgtccagtctggcctgttcctgatccatctggagtgagagcagagacctggaagagagatcagtggggaggcagtcattgtgatcccttttgtttgtagtgaagctttgcttagtgtttgagggcctg
1 gcagcatttgctttttgtggggaacagtggctaaggaagtgatttgctactggcttcagaagttgggctctgctgcctttatcctccacagctgcctcacatagttttgattcttcctgagaaaggcagttgttaggtttggaagtcttcagattccagagacagctggacagctgaccctctggtagctatttcccaaactgccagcctc
1 gtctacagtgagtcagagtcccatttggagagaactggagttgggagtggggaggagggtggagggaggaatgcaggttgatgggctatttgtaagcccattgtaaagtaagc
1 tgacagtcatgtttttgttaaagaggtaaaaaaaaaaaaacctggagaaaaaaggagtttgctgctgtgacaggagaaggtagagagggaagagatgtgcagtgggggtaagctgggcagctttgagagtttgattgttttgataatggctggtaaagaaattggaatgaaggaattcctggggtaggagagggagggagttgggcattcc
0.1380597599732346 agttcaaataatttaaacaggctccaaagctgtccttaggtgtctggtaccctggggtgattagggcaggcggatagtgacctgacctcagcttgggagagaccagttgagtagatggttgtgtttatgggctttgaatgggttacttcgcataagaaaagcgtgctctaggatgttgtttgcaatctctaggaattagctagcaa
0.3754782017222597 aggctcctaagaagctgtccttaggtgtctggtaccggggcctggggtcattagggcaggcggatagtgacctcagcttaggagaggcttggttagcatagatagttgtggttatgggctctggatgggttactttgcataagaaaggcgtgctctaggttaagttgtttactatctttaggaattagctagcgagggagagacagtccctgcaggatcagtaag
1 cctcccccacggaggggttggagagaaagagctaccggcctgggacaaagtttagctataaagatcttccccagtcgggctctttcatgccccatcagaattgtaaatgaggggtctgtgggcagagctgccctttgttcctgcccagcacagcctgcacttggggaattgttacttttcacaagttataaatcctattattcccccacct
0.2682389601994108 tctctgtaggtgctatttaatatttaaataacaaatgacatttgatctgtttcagcaggtggtccattatggctgacatgcaaaatctggtagaaagattggagagggcagtgggccgcctggaggcagtatctcatacctctgacatgcaccgt
1 gagagtctgcaaggggaagagtgtgtctgtgacactgccagcagcgcgcagagggagggatgggggcgggtatcggcgtaggggccctcggaaagaacggatattgctgtgacaccgcggggacgctctgaagggacgagtgtcggtgtggcaccggtgcacgctgaaggagccggcggaaccgggtggccatggggatgtgggcatcgct
0.6130766068453548 tcttgcctggcccgctgctgtcgccgccgccgcgctcgtggggtccgtgtgcctcgtcggcccggcccgcgggctttctcccattggcggaaggcgacggcgggggggctcgctcgtgattggtcggtggcggggaggccgcggacctggcaccttattggacgcgccagctccggtctagggggtgatgaaggaatctgaggctgcgggg
0.3781251774145359 ataacaagacgtaatgtagaagatttcccaaggcctgtgtgctgagcacacaggtcgggccccggctggaggtgcgaactgtctccgagagcgccaggtgagtgcccagcgggagcagaacgggaatggcaggaggcccgtgctctgggtcagagcgccctctggtgccaacatctcagctctgcacctggagctgaaattaggtgacatc
0.9792737973739863 ggctctgccctctacctcattctacactctccacaggcataagcgatcccagagtggtgacctcaaggggaggggcagggtgcagagaggaattctgcctgggctgcacattccttcccagcctctggggagggcaacaaagaaacccaattagcacaaagtgtgtaggtgggtggggagacagccgcttttgtccttccttctggtgtca
0.2564148645337515 cgctgcgccgccggcccggcgtcagcggcgtcaagtccctgcgcggtcacggtcgcttcgacgcacgcaggatccctccgctgggacaagtagtgccctgagactcccgaggctctgcatcggcgcagccggtgtcatctagcggccggcagttccgagcgacttggggtccttgtgcctcggagtggcgtctgggagcaaaggcggcgga
0.8469095743693774 aacgctcgacatgttaccatggttacagctgtctccaaagccaatggaatgagttgtactatcgatacggccgggacaactccgcccccgacccgaaggccaatggtgtgagacataataacagtctccacaagaaccacagtctctggttccactggcgtgcgtcgtctctatggttcccgccggaaggacgcgtctgcgtctctgcggc
0.32462039930205 gcctggtctcgctccacgtctaccgcgcctgctccccggacgaaatccgcggaccgggctttaggttcgccggaatcccacgctcccgacttctgcttccgggtcggagccatggcggtggcaaattcaagtcctgttaaccccgtggtgttctttgatgtcagtattggcggtcaggtgagatccaggaggctgcccacacctgcgccga
1 gactcctcagtctcctcaggccgcagcttctatttgttctgtgtccccacattccacaagaaccgggaggtgctctccaaagagaagccatagaaatgtggctctcacccagcatggttcctttcttttaagaattaaatcccatcaagtttatgcctgttttttggggggtttgtttgcttgtttgtttgtttgtttgtttttgtcattc
0.3995405441951064 ttttcggcccggcacgtagtaggcacctaaaagctgtttggtgaatgggtggatgaacagatgatctacccccagctgatgttgctgtgctggcctaattgtgggccattttgcatgtgactgaattttatttctcctgctttacatgtgaattggatgatgtggtgttcttttcaagggttgttagcatagtcggtgggtggtagctgatgagttcttgaaagggtgggttggctctcagataatgaaatgaggcagtgtggtttctgcagaaaaaagatg
0.4291551211100544 gtgtttcagctttttaatggagctttgatatgtagcagtcaccctgagccacaagagggcagaagaaccttttgattgccacaggacagattagcgctggaatgacttctggcaaaatcctgcatggagtagttcttcaactcacttactagaccgtgggcatccaaaggcaggccagtgtctaagccatcagaggaggcaatggaggggt
0.1385740393966825 gtccatctggatttcctcttgtgagtgcagtggtaacactcttcaccccaggggcttggtagtcacgtttgcaggacaatgggtgctcttactgggtttaatgctaaatctcccaaaatgaaaggccagctgcagagtaggagaagaacaagggctgagtgatttgatcagacatctgtgggggcctgctggcatttggagtgtgagtgcc
0.4621675808958524 cgctttgtgcggaagctgtcagcgagcaagcgtcccgtctcctttaagagtgatccgcgagggggtgtggcttgcggagagcaggcccgaaagggggtgcggctcctttaagtatccgccggcccgaggcgcggaggcctccggccggcgggcaggggcgcggtcggtctgggagcagcggcaccgcccgcagcgtcccggttcctcgaag
0.2524920672876851 aggctgcatgcttcctcttaggaggaactgaaagaccagggcctagacagtgatggaagggtggccccagggacaccattgagatcattcagggcttgtttattccaagaacagtgggaagccattgatgagtttaaacataatctgtctcaattagatttgcattttcaaaggagtgccctggtggatgtgggctggattcaaggcaaca
0.8195301242083546 caatgaggatgttgtgggggagacagggagagaccaatgaggcagccgcggggccaggggctcccccctgcggcagctccggtttatcgcaggctgcagtgataatccctgcggagagtaagggccggcctgggtgtcagcgcagggctagatcccgcctagcagtgggacgggacaggtcggggaggggcctaaaccaatcaccggctcc
0.4316023122261359 ccacataccctcctcccctctcccaaggtgaaggcaaacaaagcgaatcacaggggtttgctctgacattctggtgatcccccaacccccacactagtaagtggcaccctgggggaatgaacagtgcctggagagcacagctggctgcagccttaggccttctcatttgctgccttagactcggtctctactcgaggccctgaatgactgc
1 ttgcgggtgggggaggagggatgtaaacaaaagccaacgctctctttagttcacaatggctcgcgaccccaagacttccaagctctttggtgagggccagcaggtctgttctccaggagtgccctgggtctggacttcatttcccagagtcccttagtgccctaatgtattcagtgctcagagtgcctgtatgtgtgtgagtgtgagagaa
0.8587773076688193 tggaagcgtgtttagacctttcctccccagcggctgcagctctgtacaaggaggtgtcccaggctgcctgtctccattctctaatagcctcctggccaccacctgggcatccccctccccagagcctgccagaccattctaattgccgctgctgctgagggagggagtctctaaagagagaggagggagggaggagctccatctggtgtcc
0.126632117925953 atgcccagtgacacctgcaggttggctagtgttgttgacatggggctggggggaggggagggggtgatgggggagatcgttggtggctttattatggagaactcagcaggcctggggccttctattgtccaagtggcaaataaataaataggagaaagtaagtcttccccatggcttaccgacgggaggttaacagctggacatgacatga
0.6522885389014114 ccagcgatctccacgccgcctctgactgacagcccaatggcgcaggcgcgcgatggccgagaaactcgatggaacgcgcagagcagacccatggagaagagaagaccgccgagcgatggatgacggaggggaagcacactcagcggagaggagggaaggcgggccggagggggcggggccaccgaggagcattcgacacgtgtgtccctct
0.4487922019301894 tacagttccccgagaactggaggcgaagccgggcggtgggaagggacttcggacgcttcgcgggccctgggttttcactgcgcgtgcgcgaggttcttccgctcgcgggagactgggccgctggcgcctctcagtgcccactgatggggcccagggcttgggcttgcttccccaaggatcaacagcttagctgcaagcctctgcttctgcc
0.04190390534411669 gcactgatcgtcccacaatccagtgcctaggtctgaagaagacgtgttaggaggcctgaagacgaaaatgcctctgggccattgcctgggaaggctgtggccaccagagggcgcactgtatccacagtggcagagcccatttatgcagatatttggcccctcagccttctagtcctctccacttcttcattcattcacagcggaccctggg
0.5511741956859798 gccctcccatctaagtcacgcctcctagtaggtcaatttagcttctccagctccagagcccagactcctcattgggcgcagcactattcccgcctcttccttgggtcgcgagcgccgaactcatcgaacgcagccaatgggtgatacgacggcagcgcggcgggaggttcgattgacccggtcttggcgggtcggtgagtcttggcggctg
0.9269255034714013 tctgcccgcctaggcctcccaaattgctgggattacaggcatgagccaccgcgcccggccccttgtgtcaagtactcacttcagccatccactggctgatatcctgcctgcccagtcatccttttgactttcaagcctcagctcaagtgtgccacctcctggacgtctgtccttacgacctctgctggccggttcagaaatgatgcctgtc
0.04242083992156349 agcgggatgtcgctgggggcgatgccaggcgggccgcctctgatagcctctaggctctggcgcgcttccccgcccctcccgcgcaggcgggcgtgggatcccggctgatccagtccgggttttgcggcggagcgggcgggctgcgcgtgcggcggcttcaactgtcgcggtaggcagcagcaggctgaagggatcatggtgcagtacgagc
0.230140765482188 agcgcatatgcaagccatgaattatcaactgaaaggagtcaattaccggctctaaaaacgagtgtctgcgctcgcagcgccccgggccatccgcctatttacggag
0.1393087838772295 gcaaatagagtcaatcaattatgaagggaacaatctggcggcccctcggggagcggcggccgagcgatcccgggggattaggccgcaaatcgcgctgagcctccctaagtgacagcgagagaatcgcgcgcggcggcgacggcggcggcgggagcgggagggagcgcggccgctaacccgattatgcagatccgcggggggcgcggattag
0.3540672409827077 acagtcccgctcggccgccccgcagtgcccatgtaaatgacagcaataaatatctaatcaaggccccgggcgacgccactgctgcccgccaaagccc
0.3817067881050742 cgggcagccgtgaaggccctgactgcccccttccgggcacacgagctcactcacagaccccggccccatttagctcggaggaatacctcgcaggtctcgcttttaccttcgctggctcccgccggggagcggtcgcgcgcacccctacctgcagatcgctcctccgagaacgcggaagaggcggtgctagatccagggggtgggcccgatc
0.08756427184563953 agtacttcctattaacccaggtgccccatcaagatgcattcctacaagcaacagttctctcttatgcaaattcatttca
1 ccgccccaatctttgagcccgggctgctctggctctccctctgataaaagtcactgccctctcacttaggtgccattaggatgctaatgatgtgtgattagacctgctctgagactcccatttgactgacctcaggatggcagaagtttgcctggaggccaggaaagaaaaacacacagaaaaggagaggcctaggctctggagggaagcc
0.8085805324176242 agattttgatgtgggggatgatgaggccaacacatggggagttcagggagtgattcagtaaggacgctagggcagtagtta
0.4021416527427742 tgtcttagtaacactcactatgggtctgactaaattcctacctttgtctgtgcctcaccatgtcctacctgtgtctatgtcatcgtttgtttgcacaacagtctcctgcacagcaggggctaggcaggtctgaatgggtgctcacttaggatcagtcactgcagctctaagagactgtgatttcctggtatctcaagagtagaaggtgatt
0.7073241215735686 cttaactgtgtgagaacatttgttctgaagctagtttatcttattctatcctcgcattgtcctgtaatttgctcttgagaggagcacttgttctaaatgacaatcaaggtcccccttggagagtgaaaggggccagtgctgccacctacagacagaaaggtgattagattcatttcataaagagcctggttaaagagcagcagaaaaagca
0.9911044466503259 cagaaggctcagtagatgttagccatcatcatcactattaccattataatgatatccttcagtcgtggacaccccgcctcaaagacagacaatgacaaacatctggagcacgttcagaggacagcgggaaggacagggaggggaatggatttcagattacatatgaaaggttggaaggctttggggatgtttggcctggagcagtggtggg
0.3348340377185586 actgtatctaaatttgcaaatcgtcaccccgtgccccaccatcatgtgtcatcttttatgcatggccacctctgccgcgctgctcggccggttgctatgcaaccaacgacagcgccgcgggggcctgacattagtgaaagcaaattgaccagaggagccttcatcctgcatgcaaagcagccagggcctcactctttggagaggctgctgg
0.3728765592358586 tgtgtaatgggtccactagaattaatttacttgcaccaaatccattgagcacagaggttcttttcccccctctctctctctcttctcaaatcatttggagtcgaacgcagcccccggcctttgtaattctagtaaagcacttaaagtgcacagtaggtgttcatgaggaccatctggtcaaaagcaaaacaagctgctgattttgcctttgaatagaatgaagcaagtgtgaattagtctcttcaattagcactattac
0.5967524806697292 tccacgtgaccaccctcctgtcaagcgctgagcgcgcgactacccggccaggatctctgcgctggcggcagagactgcaacctgcagctgcggaagcttcaagtctcgcaacaggttattccagtttggatttaagcaaaggcctcaggatagcgcctccccctagctgaggcggggaccagattgtgcacctcacgtggttagtcacaca
0.2840569197222146 caagggccagcgggccggtgagtgcctagctcttcgcggaggtgagctggcggcgggacgcagcggggaggctgagcaaacggcgcccgacctcgatgccagcactcccttcccctccccccatgacagctgaggacagccgggctctgagcctcgcgtccagttgcgaggaggcaaatgcctctctggcttcttagcccctcagactatt
0.9285885194797938 cacgcccgccccgccccgcctggccccgcccgcctgcccgcccgccggagccggccgcggcgccgcccaaaccctggcgccggagtctcggccaccggaccagagcctgcccccggggccgccttggaaaacccggcgcggacataaaattaaagcggacgggctgcggaggcgactgcagattgacctgtgaacttcagacaggccacct
0.9709228445111308 ctacttgaagtttttgttatgttgattgacttagccacttcttaactgaagtgttcctttctttccccattacacttttatcttctagtcccacatcgtcaatctacatcataaaagtccagcgaattggtctatctgcatacctccacaaattgagaagtgggagcaaagggtggaaaccttgagcattcacattaatcgttttcatccc
0.5136348571665105 aacctgaataaaagccaccacaatcacttggtgtgtgcaaacaacaccccggttcagacatcactgacaggacgtgtcagggatttcaccttaccggctaaagtggcgccaccgtgtggcaagaatgtaaacgctatttgcaatggacttggataggcagcttcgaaattacgtgagccttagttctttttatttaattggtgagagttgc
0.2762561899711258 tctcccctccccagaggtgggggtgggagctgaaagttctaattgtctaatcatgccttggtcttcctggtgagcagcccccatcctgaaggtatctaggggaccccagccaccaatcacatcattagcatataaaaagacactgttatcattccagagattccaagggtcttagaagctcctgtcaggaactgaggataaagggcaaata
0.7190105878386734 catgcacttgttgggcttctcgcccgagtgcactcgcatgtggatgagcagcttgtagcgggcgttgaagggcttgtagcggcgcacgcagccagcccagaagcaggtgaagtcctcgcccttgcgctggtcgatgtggctcttctcgatgtgccgcaccagctcctcctgctgctcataggctgcacagcagtccacccagcggcacgcc
0.6296773102749547 gatggttttctaagacatgtgcacaacccgggtttggctgaggagctcagcagcaagtaattttctaattgattcattagcactccaatcaactactactttagacacaaaggccttgcttgggtctgaatgtctcagcctgggaagctgagctgaataaaccattcttgccctgggggcagcagcagcccagggacaggcaggagaaccc
1 gcaggtgcatggtgcaagagactaaccccgccccgacccgctggttggggaaagactgtctgtttccaccagcccttgtcaggggggccttgaggctggcccggcctccggcctccgggatgtctgcacagcaggatagtaagtgatgccccattgcttttctctggttgcgggggagggttgagaaaggagctcttgattttcctggcat
0.2465022725235674 gacgtctagttagaggggcagctgtgagcacaggtgtggggttagggaacaagggcagccctgctggcaggaggggagaaggtgatgaccgccaacaggaaatccccaagcccagcaagtcagggagcccattgaaagccttttatcctgcatcggcgatttaaccccatgtaaacgccaagtgaacattctcttgtagagaccgatggtc
0.4659184565407604 cctcctgattctcttccacttttccctgactccaccccaccctcaccatagctgcagaccctttctaatgaaaatcaattcatctctactccacctgaccagcattcccaatcagcaaaacaaaagcaggtgtcaggagagacacgcactgaaactcgagagtttaacgtcttctctttcattgctgtttccaaggccttaatgaggacaa
0.2925488724777896 ataatgaggccacagcacatgactgcttcaagaaaacctgggaggtcaggaagcattgtaattaaaatatcaacataacacaaggaaaggggcaagccacaatgaagctctcaatagcacatttttttctaagaaatgctgacatcccttaaggagaaagggattggccttggcaagcagcaagcgaagagctgctgatctgaagctctgc
0.4420685126225368 aggtacttttaactggagctaaggaggggagccactcacaaactgggcagctgcttcctgtagtcagaaatccaggtactctgggaccatcctcagttgctcctgcagcgctgccccttcccccaccagaatgggaataacaaaatgtaaggcattcggatacactgggagaactggctacagtaaacaactcctaggtggtttgttatag
0.5888583145046746 aacaaaacacactgagtaaacacagggagttccaggcaagtttacagcaaacagcttccatgtgtttagtgcttccttgtactcccctgggaccagagagggtcttttaaaaattcaacagcttgattacaagactttaagtagtaatctgtcccactgtgcatgataatgagccagctgccttcaggaaggtaggccccccagtgacaat
0.2398711511797939 gtaagtgctgcagttactcccactgtgaatctccaggctaggccttcctgagtcagtgcatgcagggaagcttattgtggtctctgtcaatttccacaatggtcttctgttccagcccagcaggtgaatcatcaccaagatggggcagtccaattcctgacctagcgg
0.1222221583636671 ctcaatgggtaaatgtaaggatttgatgaaatcacacgtgacaatggatggcccagtcaccagggcatagtaggaactcaaaataagccctttctttttcaggctattgagtgtattgtgctcctctccgcttcaatgacaaagaaacctcaaagaagaaacccgattttgatggcttctctttactgacatgttttaaaatagatggccc
1 tctctgcctcccgtccctcaggaatgctcctgtgaaggtgaaacatgtggattctgaaagggaacagtgaatagttgctcttgtgcattgt
0.6040270678231383 ctcttagtttcttccatcgccaggatggcttcagccctcagctgccagatttcctttgagatgctaaggaccaactattacacaaatgcttaaaccctgggctcagccaccagcccctgtatcccttctccctctcagaggaagctgaattgctttgcaaatatatgcagatacatgcgaataacaaagctattaacatgtgccctaagcc
0.07075507652509321 ctgggatccggcttggggtgtttccgctgggtgggggcgccggtttgcgaagagctttcctcggacagctactgctgatttttgtcgctcagccagccaagtgggggcgattctgagtaatcgcaggcaatcagcgcggctggggttaaaagcgaaagggactcgcgggcgaacggccggggagggcggcgggcacagagcccagacgccg
0.530113213976558 aggaatcaaggctttctactgagcaggaagatgtggcaacttcacaggaatgctaaaggagatgctcacaaggagaaagaaggagcctcctttatgatttaacacccaaaacaatagttccattgcctactgtagtgcctggaattccacctttaaatacccagccctttaggttctgaaggcactaaatggaggcgagagggcaccaaac
0.2695964550528758 cccaaacttgaattggtccacagaactaaattagaagtaacaacctttccttatgatgtgtgatttctcaaatggtggcatcttcccagagctgtgtgttcttttgtttggagcacagctgcttcctattgttaagttgcaccggagagctctgagacaattaatgaaggggatttaaatgttatttaaaggtaatcccaaaacgtttctt
0.9339503023964772 ggtgccgcaacagctgtgaccctggcttgattttgatgtagacttcaagggcgccgtccccagcggggagaacatttttacctcaggagcctattcacattggtagccttggcagggaaagttccagaagctttgattacacaaatacctttgctaggtacaggcccgtcttggcaacctggggagagagaatgtgcacatgggctgatta
0.5637536183693617 ttttcgtgtttggcattctccccttcatgtgagcacaccaatttaagtacaagaggagagctgtattaacacaacaaatgaattgctgtatttggcagtgcagggatccaaggagattaatgatcttgcctgcagctcttgtcgtaccttcccccactatcaaaaattgaatgtcatgtataacaactcactctccattacttaattacat
0.635335712588402 tggaaatggaccagcattccaagctgcccttcaattatgtactccgagtttatctcagtacctgccttttcattcttctctaatgcagcctgcttccctaatggcatcacctgtaggtcctcacgtctgcattcctagcctaatcctagagacagaactatggacatgcagatatagtagcaggaagtgaaaaccaccaagtcagcagggg
0.9173691332026386 atggggaccttctctggtggctccccaagaagtaaggagatgggaattgtgctgtagaggtctacaggcagcagcactgcctgctgaggcgggggacaattgttttacatttgtaagggcactggctgtgccgggtatgcctcggtttgttgaggggcttgaggtgggcccctcttcccgtttcctgaaataggttgtccatctttgctaa
0.5169894445168236 tctcccagcacaagaggaatgctgggctttgatgagggagtttgagctgataa
0.9484998864147239 tcaaaccacaggggtctgcaaactttctatcaagagccagagggtgaatattttaagctttgtgtgccgcttgtctccatcacaa
1 ttcagattaatcagttcatttagaacagcttaattcattgcaaaaaagaagaggtcaagctgataggtaacaaagtaggactaatactgaatacaaaagtggatagtcatactccaactcctttgacactagcagcagtaggtaacagtagggtagcacggggaagggaacagaaaagtggaggaggaggagactcgataggatattttgc
0.7185747021363453 tcgtatcccggaagtggctgatctgttggatttgacgcggaggcggttcctcttactacggtggccggggtgctcaaagtacctgtagctgcggcgctgaggtcggaacgtctgcgtgtgtgcgggctggttttgtggcggctgctgctagagctggagcatttgccgggttggtggctcctgcacatttttacagttctccagtccttct
0.5412119365469114 tacctcttcttgaacagtaacaaaaggtataaatcacccccaaggctcttaattactcccattaacagttgctttgttatcccggatgcagagcagtttcactgcactgtgagtacacacagtgagttcagaggtacaagcctggcattgagccaggagttaaaataagttatgctaagtggatggctcaattgttcccctggactccctc
0.5602724916611997 aagcacagcgcttagcggaggccacacctgcacctcatttgcttctgagcagtgccatgacccgcctgctgatggggcgccttccctttcatcctcgggattatgacaagttattaattgccaccattagccgcagcagcctgcccgagatctctgctgctctctggaggtgagaaaccgcgcatctgaatgccgagggaagaggcgctga
0.8896243689992545 ttgactcgttttatctccttttcatttttgtttgtgggtctattcattttggtgaggccaggcacgttgctaggtaacgggcccatcacgggccagcatgttagcttgcctgggtggcagacttccctagcgctagctgccggcaatgcagtctctcacaaaaagcatttatcactgggcaggcacagtaatggccactcagtggagggga
0.2318602352941289 gtaaattcccaggcctcacagtcagaattccccattcagtcagaggtaagcactgctgccacatt
0.4728333963850329 atctgcttctcagagttgtgagaactgaatgataatattcctccctccctgtgaagctattaagcactcaataaatggttgatattattattcatattagaatttcttttgtctcccactggttatttgttcttcttttctctgcatcaattgcttcacttaaagcaccaattctaatttaatgaggttattttaaatgtgatcttggctc
0.09734365251372259 gaaccccagctgatgctttttgtggccgcacgaaaaaatacatacaggaaaacacgcccgcatcaagccgggaaagagcaggtaggacctgagtggtttggttgggggagggggaaaaagacatctcagcaggtgtcttccccggaatgagcactgaggccagaggggaatctgaaatctaattagcaggagggagccgggtgcgctgctc
0.2398250430261871 tttctgaggatgatttctgaaacggatcctataatgtggtcgtgctaatctgaaagctcctgggggtaaatagagctcctaattgtaattaagatgtgcatcagcagggagtgcaccttcctgatgaaaaatcctaatgaaatgtaaacagcttggtcacatagatgttttgcttggtgatgccaaacatctggccttgcgccacaacacc
0.8236577368865952 aggttctggtgggagggttggcagccaggctggtgctccagagggctgatggattacattcttcgagttagaaatcatcagaagccccgctgagagggctcttgtggctttggagctatgccggaggttccctcttgcaaggggaaaaattggctgtgcctttaagtgttatcctcctgtcctcttggtttcctagtgtggcaagattcaa
0.4330475995272403 aatgacctttccaagaatcttgcacagcttgtggctattcaggcctgttccatggatttttcttcaatgcaaatccagctgtgtcagttcccgtaacccctcctgtgcctgctcaaggttaagcgctgcagtctgctctttagtaagtgtccagagggtaattacccaggtgcatctgggtggggtttaacccctttcacccccaccctgt
0.3056420931483161 attcaggtagggatcctaagcaaatgtagttttaaaaggctgccctgttgaaaaagacacttcgaaaaaaagctctgatcggtggggggtttgtgcccaaatggtcctttatctcctcccaactggcctctttctaacacctttgcaacctcattgtggaaacggacctcctgtggacagggttttgtctggcaaaatgtgaagtggcttctctccttttttgaaaggagacac
0.3071073872470722 tgggacaagggagggaggaggcggccagcgttggaatgtggagaccagggtattggcacttcagagctgagcatcttaacattttctcttcttacccccagctggggactttgcatttgcaatgagggccccacttctctgagccctagtgaaagtggatcactttaagcccacaacaatggtggcttcttatcctcttagttaatgcttt
0.4391621531547629 ctgcagctatttggagtcatatagttcaggaaaaaaaataccccagagagagccaggaatcagcaggcattaaaccctggcttgttctcctggtaaatgagtcagcctctggcgggaatataatcaaaataacaacaggacacatcagcatatcaaaaaggggcagagggagtttatcaggggccaagagtgagcacagactagatcccaa
0.6938048551545974 tgccctgcctactctatgtcattgattgaacttggcagtcctgtggctgtaatggttgtattccttgggaaacaaaggaaatgattagatc
0.8266120837758018 tagagcattgttctatcaacaccgagaatggtttctggctggaatgtcagtggagcatggtgagccagacacaggcagtcctttgaacacagcctggggtataagacaga
0.1946017430127411 atttaagctggttaaagatggaatagagggcttcaaatggctatggcagttaagacagaaatggtgcctctgatgtgcctccctttggtctttgcacgactggctccctcttgtggttcagtcattctgtgctctcacccttttaactgcagaggacttaacgttgttttcttattactttcttctatttatccacccagctatgtatgct
0.1100982835176152 agttgttcttcccagcaggggtcctttactgtcgatgtacttctcaaggatgtccgggctggttattgcccatcatggactaattatccggagatctgcatttcagaagcacagactg
0.006796639148586536 gcctcagcggctgcaggctcttcgtcgcgggccgggctgcacgcgagcgccctccgggcagactttcgtcccccacccccgggagcgcggaaggctcactcgcagcgcatggtctacccgcgccgggcggagccccggcgtccagagcgctgcggccgcggcggtgcagcagaggcgcctcgggcaggaggagggcggcttctgcgagggc
0.8978515200077091 gtactgctgagaaacaacatccacccaccctccccttgaaagttggaatcatgcatgttagtaagtatttcagttatgctattgacgtcaatggagtcattaaatagattgctggccctcccagaggcaaatcgctgccagggacctagatacagacacgttttttacaaagacaaccatcaggttttgctatagcagtaagccagagaaa
0.9202781452740435 gatggcgtaagggctgaaggcttttccccatgccccgcgaaaagcaatcagccagccatcctcactcgccctggaggccacgtagccgtggcgcgtcccaggctcgagctccctggcctgtgctcagagcgccctctacaggccaag
0.7398557671339214 tgggaaagacaatggcttaaagtttatgtaacaaatcttgcttttgtgtagatc
0.6803992593094157 gtggaagccaaagcaagcagatgctgccccagacccctacaccagggggcaggctgcgtccatcagaggctcctgagttatccatggacaagagaatgagttgaatcccagcatctctgtcctcaccagagagccctcctggtgagagctgttgccatggtttccatttcccaggccttggtgctcccctgcttcctgccatcaccaagcc
0.2419142618044562 tatcctacatgactaagcagtagcagccttttgtattcagtttaacccacatggaaaatgttaaatcaccatattaacaacacaatctagcagttaaatagcatgacagttaccatggaaatgtgccaaacacaggtgggctggcaatgtgtgtagggggttttggaggggggatgcattgtagattagaactgctatgcctgtttttata
0.1746948609912788 ttcatgatagcatgccaggtagagggcaatggagatgcaaagaggaaaatcaagcactaataggtgttctcaaggtagttcccttttgtagtgcaaagcaggccttagaaagcaggaccttgcccagcaggatgaccccctaccagcctggtgactgtgag
0.7840273907833526 ttgatgaatcagggccagacacaaatacaaggttatagactcaggggcttcaaagagagacatttaggacagatctgctcttggagctgctgcttgtacttgctaagagccagaatccaaaggatgcagctgccgcaaatgtgcataaataaaggcagtgagttcctagcattcctatgggaacctgcagcagctcagattacccgttccc
0.09915339599940172 gagtctgttgggaattttaacagcctgatctctgccccattcagatggttatggtaacatgcaaagtgaatagctctgtgggcctgccagaaacagagggg
0.9699499662060975 aaacttctattcatcctgtaacacttagcttaaacacttcctctttgacatcctcaggtgtgctaatga
0.02746639470509752 taatccagtcaggagatcctcagaaatgcaaattacccacttgaaataagaaggcacctattgttcagccttgattgcctctgc
0.04545120700968446 cctcaatcctcttttcttctctcgcactccacctcccactgccccgcaccccctttagcccggtgttccccgctccgctatgattgacgtctggaaagaaagagctttgtgaggggatgattgttattaacttgttatccccggcgggggggcggggaaccgacgtgcccgggtgagcgccggagacccggagcccggggagcgcgggacg
0.1951761656035011 tctagctccatccccccaatttgctagtcattgtttctgatatctgtggggaggagggtaagagttggggaaatgcagcacagcttttgtgacagctacagttgtaatctacccgcagggccctctgggtggcagaaatacaatagctgactctgtagggtgcctttgtgggtttctcatcaatcccaggcaattggcttgtctgcctctt
1 gccgtgacccgtgtattattgtccgagtggccggaacgggagccaacatggcagcggggttcgggcgatgctgcagggtgagagggagcccagcggtgcggtggggctggaacatgggtattgtggtgtcggagcagggggccctgggccaaaaataggtgcggccgggaggagtgggaagtcgggctgaggaaggagccagcctaggggc
1 tagacaaatcggagtgactatgggacaagcatatggtcgcaggactttggacgcaggcagtgaggacacctatgagcgatcagtggggtcctacggcagccgtggaactgctctgccttgcaggcgaaagtgtggtcagctatatcggagcgcgatgggggcctgagaggcgcatctgcgcaggcgcccggctcctaagtctacccaggaa
0.6365708244774239 gttggcagtcagagagtggttaagtgatgaccgttgcagcatccttcctctggcagcagcaggagctgggtgacgctgagctgcctgtttccaggccactcactgtggctttgatgtgctgtgtctgcaactcattccccagttctgttctccagcatttcattgtcagccacggccagggtaccccgccgcctctcacttccatcacaca
0.7667638013416371 ggaggctgatgtagtgaaagggccaggtccaaggatctctccatgaaaggaagcaaaggctggcaggctgctctgtggcacccccacgtagtaggtgagatgcagcagtgagaatctttgattggaagtcattctcatgcacagaaggtggtaacagcttggttggtgagagactgatgagaagtgctgggtctttgttaaggtatgaccc
0.5310502583478124 cagtttttccaaataaattaaacgaaagataaagaggcaggctatcaaggcagcctaaataaggacacctcaaaaggaagaacgaggaacaaagcttcagaagcttcaacaggagaacaaagaggaagaggaagcggtgtttaatgagtgcacagtatgaagccggaggctgactgctttggtttgctgttagaatctccagctaacagtg
0.9174174053993799 ttcagcaatttctgtgatacttttctcctcttcaatgttcccacgttctgagacggctgcagcagcatcaagcatcacatactcccacaatccactttcaaagccttgagacaaagggcaacacaggccagtgttgctcctcctgtgcgcctcttatcaggaaaaaaaatatctttctcagagccccacagcagcctccctttatatctca
1 ggttatctccattcctgcctccccagcccgcatatcctttccttcagctcacggggcccacaatgggaacttgagtaccagaattccttttaca
0.4102903501806897 gcgtcaggagggccggaaaacggccccgcagcgctgccctcggggggtccgcctcctgaactggccacttcccgcagcagccgcggctccttccggtgtctccggggccgccgcaggcgtctccggcgataggggaggtgggggcggagcctcgatgggagcccgccccaggggcggggccacgggagccaggcccaggtgcggggaccca
1 cactttctctccaccttcgcactcctgaccccggaaggactccgccttctccatgtcagactgctgctcagcgccaggcatcagctgggaagctggcgtgggcaggccagctgtacctggcctggagctccaggtacagggccaggggcggggtggggtggagaggcgggcgggaggaagcggagagttgagcggccacgcagttggggca
0.64464370392524 cgggtgataacggcggaggtggggggttgggggaactggccttgtgttttggaacagctgcagccggcgctgggcccgcctggaatgcgggaacaggctgcacaccaggacttttatggaaacttgctgctggagacggcggcggcggcggcggcagcggcagccagaggactcccagcggctggagcagaagtgttagcggccagagctc
0.5832940292876804 tctgtgattaggttataaaatatagtgccttctgtcttgctagcagatcctccctgtggttttctcagcttgcatgctttgatgaattgaagtaagctgccatgtggaagaggtgcattgttaaggaaatgagggcaacctctggccactagctagcaaggaagtgaggtcctttgcccaacagcctgtgaagaagtgactgctatggaca
0.06259924479687044 actctcagtggagaaaacagccagaataagagtaggtaggcgtgaaagtgaaggtgacctgggaggtagcctctgtggtttggtggatgagagcacagcatgaattatgggtagggggtctggacctcaaacaaaggttaatgggttaacaagggggggtttattgggtgttaatgggtgttaacaagggcgga
0.3544602169906838 agcaaggcgagccacacttcacctaaactaattcctgctgagatactaaagtaaataatggcttaagacaaactccctctgagtgagctgtttgcctttgaactggcccctcctcacctggaggaggtgtgacttctagtggatagacttgccaggccactgggaagatttgccaatttttgattcattcttctcacgcccataactggct
0.2574013039418109 gtatcctagagatggtttctccacagcagagcaatgccttaactgtgctatcacctggcccatcaggttctttgtcattctataggattagggtcatagggagctgacaccgtgctgat
0.5216341909465642 ctcactgaatatccagggacaaatcccaatcaatgcagcagaaactgacctgacttctcttgaattgttctgctgattgttttgtttgcttttcctgacctcattcctgtgtgccatttggttctgggttcttagtctttgcaatgcaaatgcccagtgttaactttaaatgcagtcagtaaggaagccttgtttctttccaaaatgctcc
1 ggccggtccttgccttaagtgctgacattaccttgtgaaagtccttttcctggctcatcctggctcaaaaagcacccccactgagcactttgtgacctccactcctgcccgccagagaacaaacgtcctttgactgtaattttcctttacctacccaaatcctataaagtggccccacccttatctcccttcactgaatctctttttggac
1 gcggacgccatcacccaaccaatgtggaggtagagcctgtcagagaagtgggtttcagggcagcttccaagttacaatgatcgccagccagcatgctcctggaacaatgagacgtggacctcaggaggcagtgctggcaggagcaaaacagaaaaaggagtttggggttcacaaacgtggatagaaagcagaactttctttccccttctgg
0.3961595973388976 aagagctaagattaggcttaaatcaatgcaagcaaagccattaaaccgtgttggggatattggcaccagggcagtctgcattcctcactctacagcactaaagaggtgtctgcttgtaaccaggtgctgctgcacaaatgctaagtgataggtggccattcttatcagggaatttctttgtttatatggtgttcagtcacaagctgatcct
0.1619626831200014 ctattgtcttggcaaagaagtcaaaggagccagcttttgagattcaaaactgatcaatggcttctttgttctaatcttgggaattcccagcttctccctcccaggggc
0.4526780206563165 tctctttggatgtgaggctagtgtggtctggccataacgtggctgcatgtcatctggcttaaacaagcgcctttgaattcttctaccctgtggtgtgtgcatgaaaattccattacctccacagagagggggcagctccatgtgcatatttgtttctttcaattcagtctcttggaatggatggaatgtgtgataacgctatataggagtc
0.01131836635452704 agaaaaaaatcatcgcaatttaaaaaaatgtaactttcattaacgagcgcgccggaaatctcaggtatcaaagacgcattaaccctggagcgtcccccgcgcgccgcagccggacggaggcagccgcggcgaacagacgttctttctcctccatgcagttacacaaaaggagggctacggaaactaaaagtttcggggcctctggctcggt
0.8541447986715405 caactcaggggtgtctttctcaaggacccaaaagccatttatttgaaatacaatcaagaagaatagggcccctgtctcccagtctgtaggaagatagaatcctagtgtttgtaactatcacctaccagaaacagctggcgttaccactttgtgatgtgaaccctttgttatgtttcacttctctgactctcctgagccctcattcaccccc
0.9046852423925136 gcagctggattaaggtggtggtgtttgcctaacctccttttccctgtgcaggcaccccactgccacagaacaatgatctccattaagttttcatctgctgcaattatcttcatcaaattctcttctggcaatcctcttttgagtcttctgtgttagtagcaattacaagtcaaaagaatcatcaagaatgaaggcctaagtccctgcctag
1 gcctaaagtttcctcaagcctcagctttactattttcttgaatggctaaaactcacaaaacacatctagcgtcaaaaactttgcgaccccggaagtaaaaggttaaggaagggggtcacaggagaaggctatttccgtttccgtacggaagcaaaggagccaagaccatggcgaaagccggggataagagcagcagcagcgggaagaaaagtctaaaac
0.1627700315331778 gggcggcagagctcaggctccgggcatgggcagtcggtcccggccgcgagccgcagcgccagcagcgccagcagcgccagcagcgctagacccgggacgccgctcggcgggctagagacgaggcgccagcgtcgaagctgcggccgggacatagcagcaggtctagcgggccggagtgggttcctaccgcctgggtgggcggggcctgctg
0.3005470839110441 cgccagggggagaggtcggagccccgctggggagaaaaccgcgctcgcggaggcggaggcggaggcggcggcggctccccatgaccggcgctggccctcgccggctcctcacatacttggcataactctgccgcgggaaggcgtgggggagggcggtggcgccgcaacgcgcatgccccggagccccgggccgcgacggggcgcgcgggcc
0.6974216658388532 ttttggtttcagctaattggtttcagctgaggtgggagaggccacgcctcaggatctgcctaggccaggactgggaatgggtctcccaggtgactccgcgggcccataggcaggcagatcctgggaagacgccctttactcagtaaggagggcccaggcgtccaaagcccaccagggggcagcggcggcattcttagccccacttctccgc
0.1065946441127037 agactatgaaagagacatctgcagttcctgatagctgccatgatggcaactgctgagccatttgaaggtaaacgctgtgtttcactatgattctgaggctccccatggggactgctgctgctgcagattccttagaagtattctgatcatgctggcttctgctctgaaagggaggaatcttgagaaaccagagaaaggtcagccgacacct
1 tagttttccctcagtctttgtaatggtttcatagactttcattccattattgaagtcccatagttatttaaatgctgtacctgctgtgcccaccgaaaggccataccccatctccttgactcctcgtcagcaaagcctcagatctgtctgggtgttcttcctcccataagttctgggaaggcaatcccctgtctccaccctcaaccaaagg
1 ccaaggcagcgctctcggtaggcctgggcctctggctagtggtttccttcaacccacacactgcgcatggaaccacagaaggcagcacagcagagcatctgccctcacgttcttcctggtggggggcctcccaaggacattctgcctcaggttcttattgtctgaggtcactgagcctcctgaaagtatttcaggaatgtggaggcctgac
0.8390568003931227 ggcgaggcctgaaagccttgcttgctttctcagcagggaagcttatagcctggggcaaggtctgaatgctgagcacaggctacctggagacaaactcagtgctgttagtagggcacattgtcaggggcaaaaccgacctctacatgggagctgggtaagacctaatgctaccggctttcccctacttctctgatgacagagggtattatgg
1 gcctcgcgcggtggcagagggaaagccctcggggcaggagctgcaggagggccgcatgcggaggctggctgggcaagaagtggagggcctcactccgcctctcctggagtctccaggctggcagggctagagcctctctgcatccgcccctgatcagcgggaagatctgtcagttccgcaggatcggctgcaacccccgactctccaggct
0.7131924331128124 agagttatgggagcaggtaggtcgctgcctgaaaagaggatatgagcaaatgttactattttgaccacctgggcgcgctggtacgctctgcgttgtatcctctttatctgccagattgcggtgagtcagaccgcccattatctccacctgaaaggaattcagaagatttaaagggagagattcctctcccctcttcattcccttctatggg
1 ctagagaaaatagatttcctgagtaacatctcccttttcttctttctctcgatgctaatgcaacattcctttaccccaagactgccaggcacaggaagccagtgctctagaccttccttcatggcccattcccacttttcctttgactcccagcatgagcccactctagctaattttaacaccattttctgcaaacttgaggtccccaaca
0.6412942297453936 aatctctgagagaagctaatgatctaataatctgttggcttgatattccttgtgataattttatgtgtcaacttgagtaggccatagggtgcccaagttaaacattgttatgtgtatgtctgagattagcatttgaatcagtgaactcctaaggtagtttgccttctctaatgtggttgggcatcattcaatccactgaaggcctcaatag
0.5062622469786148 cagtgggaggccctgcaaactaactgcaagtcgttcttatgcagggagcattg
0.1419856055973283 aaggctctccttgactttcctttcactgatacaaggtaatgcagcttgaagcctcctactttagcttgcagcacagggggtcattagtgaggggtaatgctgtattcacatgctggttacctgtttgtcttgtcttctcttttctgacaacacacagcaggcaaggccttatcatcctttgatgagtaaggacagctatcttcttcaaagg
1 cacagctcctcccctctctacctcatctttgtccctgtataccatggtcaaggaaatgagaagtaaactagccgctgtaggtcactgacactctccttagaaatgctaaatatttcttttcccaccttcttttcagtgtaatctgacctgagttctctgaatgcttgaccttcccagggagtttcagcgggtgagaaagcctgacactgct
0.6240031871784256 tgccattttatatcaccttttatgtgctaaaatggtgtttgtttgccactgccccagagatgatactggcttatcacctgccctctgcttagttcttggtattatctcctagtgagggtatgcccaagcttacctttgtctttgttttcctgtagagtgcttaattatgagtcaaactacatgcaggtggtctatccgaatgagttagcat
1 gactttgaggtgtgagggagaggctctaatcatatggccttgtgcagatgctccatttgcatttctattaatccaggccctcctggagatgctcgagcagggacacagcatgctttgtgtttgaacttgtgagaacccataccaccgcttaataacttaatacatatgtatagcctccctcagacagcccactaggaggcagaagcaggaggaggtgctaccagcttgcagactgcagggctctacagaaatgtgttctgacaggaag
0.6746584704356138 gccaatcaggaattgtgctgagttgcagctgtgaagaagttttggtaaaactcaatgtagttctgcttggccccgttcataggtcatggctccccagggtttttcattgtaagcttggtaggattttgatttcccacatctgaatgactaaaggagattcagttctgcccttcagaagtttatcacttagttctttagcttcctgacccac
0.3140030884869376 tcgcagcacaacgaactcactaggacaagcggctccgcatggggctgggggctggacgcccgccgccagggactgagaaggcaacgatcaaagccgccacaagggtttgttagctggccctctccaagtcccccgggggcgtcctaattgctcgtcccacagcctcccgctcacaggctgtccgacctcgccggcgctcagccgcgggcag
0.468658404043431 tgcctctaatccgggcgaaaacgattgtactgccgagttatggctgcagcgtatggggacgctgctgtccgcggccggacagagcccatcagctacaacgcggaaggcctctgcacccccttgggggcgggaggaaagtactgccagtcctgcctgggggccgagggtaacaagcaccgagcctctcgctccacgcagggccagctgccca
0.7482172840344341 gctattaaccacccctagggcaccctcaggggccgcaaattttctcctggcgcctcctctgact
0.04880232518535986 ccgcattcaagaaattcatgttagagagaaggaaagcagctcagcagtcagctatgcacagtatgcaagatttaccaggcccagaaagactggagtaggggacttcagtcacttgactctcatgccccccactggggggagggcaattgtttaaactaggcattcattatgttcctgacctgatgcctcacccattatttttatgttcctg
0.9573936907175891 aaaggccagagaatcagacctggagaggcaaaaagctttagctggacacccaccaagcccctggcaacccaaacacttcgagcgatttacctcttgctgttacttcccaggcacctagccgcataagatcttgcaggacggggggaggggagggctatgcggtcctgtcccaagtaaggggaggggtgtagacagttaatgccagagccag
0.4163260569592406 atcagtgtgaccagagggaaggatgaaggaggatgacagactgtgagggtggaatagcaggatccagattgtcgggggtctgcttgtcatgctgatgcttggacaagatgcttaagcagcagggaggatgggtacatgatcagattcacctctgctcgttcccttcaggttacaaagagcagttaatgttggtaaagatacacactgagaa
0.2999627985809787 ttgacttttgtgatggactcggttagttttgtctgcctgctttctgggtccttttcttctactgtcagcactccccaggtagccactcatccccaactctcaggccatttgttttgtgaatgctgggcaacaccgcccccaccacccccatcgactccagtaga
0.2335181244994873 gaaggcctgggggtggggggaatgtttaactatgaaaacagacaagaacataaaaggccccttggtggtgccatttagcatggggattagcagccacatagagcacaatggctcctgagctcagccctgcattttataattactgacatgtggtgtgataatcctaaaccatgaaagggaaaaaaagagacactgccacacacagaccaac
1 gccgctgggcctgcaggtctctgtcgagcagcggacgccggtctctgttccgcaggatggtgagtggatgcctcggtctcggggctttagatgcatggaggttcccttttcttgcccgtatgccagcctagggcccgtctcgcgcgtcgcaggggccggatggcgttagattgctagctctgacttggtcgaggtgcagttcccagcgtgg
0.8437579272487797 ctgtctcaagtgaagggaaggagtatttcctggggcttgagctgtgctaactggagttgggggaggggtggcacaaacactcccttgattgccccagctggtgtctcactgggtcgtatgccccccacatccactggctcccagcccagcacagcaccaggacttgcccaggaattgcagtccttgtggcctagactgcttttcaagttta
0.2233219880210298 ccgtcctgacacttcctcactgcggtagcctggagagcaggcctttgtccacaggcgggcaagcgtgctgtttacagcctggccacaaaaaaacact
0.3681232488129174 ttaagaaccccttcttttagcttgtaaaatgtagccttttgatttgataattcctctacttttcacaatgaccgaataccgcagtagccacagcggcacccactcgtgcgcttgaatgtcaggaatgctttcctgaagagcttcttggaaacttgcttcagaaagcagttctaaaagaaacaacaacaaacaaaactccagcgtgttaaat
0.6248895211352281 agaacctgacgcctcacacattggtgcacacattgtaggcgcctagtgcgtatttactgaacaaaggccaggaccccaggactcattatcctcaatggcagccttcccaggggcctgctcttgtcttaa
1 aagcaacgagggattcatctctagggactacagaggcagcatgggcctgccttgcctccagaactgtgagagaatccatttctgttgttttaagtgatgcaagtttgtggtagtttgttaaagcagccacaggaaactaatacacatgataaagaaaaaaatttaaatactaaaatgccctttcaagatggaacaggaatctgtgttggaa
0.9527242994358728 ggggtggtgggctggaggcagcctgaatgaagagaggaggcagagacagaggctgagcggcaatggtggagctgctgtaagacgatgctgggggctggcaggtggtctaaaaagccctttcctggatccctgtgggtgtgagggattaaagcctacaggtaaagcaactacaggcccctgccacacctcctcaggtgcttaaagagttgcc
0.181887803057397 acgttatcaacagtacagacacataatactattctaacttgttcttttgtttttcagagtttcgtaaaaaggagcaacaaattaaacaatgcaagggcacagcaggacaagcactcattaaggaatgaggagggaacagaactccaggccattgtgagatagatacccatttaggtatctgtacctggaaaacatttccttctaagagcca
1 gtcggacggtgcggtggcaatcctgacatgcttgggctcccgggaggttaatgg
0.3959567633812963 acaggaaacccataaatatctaatttgcaccactgcatgataaaagcagcttgcttcttccactcattagcaacactcaaaaatatattctagctctttgcctgctgaaag
0.5181442604359 cccccacttctgtgttcctgagtgaaaggcatacaaggaatcaacatatgcaaggaaacaaataaggtgcagattaccatttgactaggctagtgctga
0.6789904910090824 taccctctatcccaaactcatttacctacacataaggaggcattaatgtctccgcgggaatgtattgtgattcgaataggaagattgaaggaacatttagtttggatttgtggagatatatttatgag
0.6951190877259404 atcaattagcaattaggtcacacattgggtggttgcaggcactcagcctttggccttgttcctcgcagcacactcaagcagggcaccagtatccaaacaatgcccaccctgttgtatcttgttccttaattgggacaacttagagatgctaatgtgcacaggcagactctgtcctccaattaggcctcattagtgactccgacagtggtga
0.2520196560839414 atcagttcagtctgcaccattaacctccagggattagtagctctctgtgcaattgaatgttcccagataagtccctgtggtgagccacctgccaggactcagca
0.7079344666654328 tacaacccaagaatgtctttctcaaaggcccaggagccatctctttcaagtgtaaacatcaagggaaatatatttgccccgccctcccagtttctgtgggaggataggag
0.09596489672992056 acagaacagcttctgtttccagtgcagcgaccctttgtgagagaacatgctcacctttgttttcctacctttccaatctggctcttcttcatcaagctgaacctctttgatccctgccagcaggcacagcttgagctgccaccttccagacatcccctagcactctgcatcattgtcctgtcctatggtaaagcagcaggtgtctaccaca
1 aaaaaatgtcccagagaagtggaaccctgtggctggcattgttattgcactctgttgtcaccacaggtgtgattggagacattatgtgggcaaagaatatttcagggctctaggccttggagcagtggaattccattatttccagc
0.4889651390456538 ttcacttcccgcgccactgtccccaccttctcctgaggctgccagtgtcctgcagccgctgcgcgcgctctcgtcccctctagggactctcctttctccgaggaccccctgcttccggcttctctttcttgtgtcccttgctccctctgcagctccctcggatggcctctcggcctcgtaatgggacagcaccggcttctgcccgtactcc
0.5386298844653896 taacagggatccaaggcagcaagaaatacagccaagcacacagcgtggaaacagtctggttcactttgctggctgccgccacccctggaacctcccatcatgaatgggttccaactgagataattgcactcagctggtatgttagggttcagtgaattctgaatgggttacagatgtggccatcagtgtgctgggaacttagtcccctgaa
0.8120367441878146 acaaatgacatgcccacaggttccttcgaggcctcttcccaccacagcagtagggctatttgagaacagcgggtgtctgctgaatgtcctcaacttttttaattgc
0.5328447406723218 aaaaataaccaggacactctgactttgatagctgtttctgtgatgctaattagcagaattgcagaagcgacccaggacaccaggtagggatagcaaagaggg
0.7178342966478188 acagaaaaagagtttaatagtcactgagcagccaaacaaagagatgggaggagccctacaatccatcctcctcaggggttctgacctagggtttttaaggtgattgttgtaggcaaggggataaagagttgggggt
1 ctacttgtctacttgcacccgtctgttagcctctcgctggtcggcgggagaggggaggaggccagcgcctgatcggccacaccgctggagtcctgggctggcagcggtaaccttatccttgtgcaaaaatctgcttcgtatggcagacgtggaaccagtggactcattgcgctgcctactctgaaaagtgtttttatttttatttttttaa
0.9128105952886515 ctggaaggcagaggactgacccttacaggcaccaattcctgaactcctatgtcactggactcccaactgtgctaaatcaacagaggctaaatgtctttcctcttgcactggcgtctccaacaggagccgcttgtcttttatggctccagcccccactgaacaagcctgttgtgatgccagcttctgcctgggaactcagtcctgagctacc
0.261878424873502 aggaaacccttggtcaactgtgaactggcttgcagatgtcttgttttgtttttacttaatcctcattaacaaaacagtggggtaagtattacactaattgtttcccctgtcttgtcattgagaaaagtaaggcagattgacccaaatcttacagcaaagggtttctgacttcaaagcttaaacactttcaaccactgacacaattagcaaa
0.3001342237337293 atcctgcattgtctacttgcaggaatgatttcccccacagagctgcctgtaattgtcaaagcagcactaattggagcttgttcatgccccctgcctgagacagcaaccaccttcaattcaaaggctggctacctggtgaacgccaattcagcacccagtcaaagccggttatacttgagttttccttgccagcagcatgttttcctgttta
0.2590369977432215 ccatccaaaaacaaaggagggcaatagtgctaatgatctgggaattgtgttaacagccagccagacacatacattagggaaggctagaagctgttccctcctcctttgcctaaaaaaaggtagccttggaacaagctatctttgttcagggaggaatcactgcagagctcccccttagttatgtaattacaggcaagcctcctactgctca
0.6125639109389915 gctgcaggttgaagggaaatctgcatgataaaagtttcctgctgagcgggagcttcccctgcacaaagctgctctgagcccagcctttgttccccgacaccccagccgtagcagggcccatctgtgcctctttcattcattccctggtgaacattaaactcactgcaggctggggtgtgcaggaggctgcagagcacagaccacgagacgac
1 aatatatccagccaaagctacgactgccttcgcgcttctgaagaaactatacaccgcagcatgccctactacaaaccagttgctttttcttccaggaagcacgtttaactttttgtttgtttgttcaaggcagtcatactaggcacgaaaagatgaacggagcaaagagtgacccttggccttctccgggttcaaggtaggagttccggct
0.855477476227242 gccgccgactggagccgccgtccggctccccggccccccaaacaaaggacccgccgggtcctagtgcccgcccgctccgtcaccttcgcgcctccgggtcctagcgcctgctcaccgctcgcagcccaccctgccaacctctgcctctgccagtcgctaatacctgcccccatataggcttgcctttatctttctccttgcctgctgcccc
0.3979182910355724 tgaggcttcaagttgggcggcgggcagcgaacttgacagaacctcgaaactctgcagatccgccgcccaacccagccgccagctccccgtgacttccgctttcggtctcaactcctctccctgaggagagtggtttaaacggtgaaggctgcggggcgtcgccggaagtgtcgtaaacgtcggatatccggttcttctgggcgctaaggga
1 actttacgtttaatcttcacagtaacccctttgagtgaggtactgtcattaccccatcttactgatgaggaagctgacgcacggaactggcccaagacccagggtcggctcaggccagccctaccgcggtgtggtggctgcccacgtggcgcccaggaagagaaaaaaatggcgaggcggggtcggcaggcggaggcggggccaggcgggg
0.6723433320898272 accagctcttcataccaagaaatatagagaacagcctttgtcaagccacacagtagggaaaaaatgtccagttatatcctcttctcaggatgatgggtgcctagctgcccacatttacgtaactgaaggagaccattcacacgattgttctaagaacaaagacttcctctaagaagattggctgcctcctcttgctagctggcaactttta
0.3856501965862968 gcagggcagaggagctattccctgacagtgctgagccatgcggcaggcccacaggctcccattcctgccgtctctcagcgtctccggccaaaccccagctcctggggttaatggaatgttgagcaatccttggaatttttcagtgagaaataagtactttcgaattccgttcaggcctcctgagtagggcgcgctgcctgcagcccaaagg
0.04135936008783103 gcctggaagttctgacagccggtcctcctcttcctcagctgcatcagacactgccacttctactcagaggccacttaggaaccttgtgtcctatttaaagcaaaagcaggcagccggggtgatcagcctccctgtggggggcaacaaagacaaggaaaacaccggggtccttcatgccttcccaccttgtgagttctcccagcagttcctg
0.3565714331966409 tcgcctttggcgaagcgctctaaggccgggacgctcctttgttattcaaaaggagccgggcgagcgccagccaggccctggaggatggagttgcggccaataggctcgataggccgatgggctccgcagaccggtggggggtgctcctcccagcccagccctggacgccgggctccgcgcccgccagcgctgctccctcccagcgcggaga
0.3588692777817074 aacctctgctctggctgccgcagcttatttagctttagctttgttcttgttggaatttttaagaccacttgtgactctccaggggctggctgagccaccagcgggtgggctgcttcagtgaatcaaacccaggtggattgtggagctcagccactttttccagccccaacctcaggtgaggaagatgcagattcagagtcaaacagctcct
0.733755615757416 cctcctctgagttgccaccacggaggtgtccatcctcactgaacctgcgggtgccggatgtcctctctcccttcctcttgccctcggccgccaggggccgctgcgtctcggctgtgcccatccgttcagccgagcgcctggcactgtcccgaaggaggcggcggcgcccacgcggggctggaggagcgggggtagcccggggcgaggcggc
1 aagcccaggtcttcccagctgtgctcctcgttagcatttgagaagctggacaatgcttaaaattcaccttctagggctgggtctacagttgttaccaaatgtctccatagcttccagtgtgaatcgcattcag
0.7568633895486244 cagaactcagggattggtttagccattattccccctcaggttcacccaggatttggtctcttgcattcttgtatgattccaaagcttccatccagcacaaccttcagctctagcagttaagctgtctgcagtcccgctttgtgctccctgacagcaggggaggataacccgccaagatgaaggcccagataaagagtcagtatctttaatt
0.07282910111278566 gcatgtggtactaacttttgcttctgaatacagcaacttcagaacccttgtgataagtggtggttaatctgcatcacaaaaccctcactccactaacaagattcaactattgaacagagattaaacggaaagt
0.5700618959775517 tgcatttgtgtacagcagtgctgctcaaaatgtggtcagtcctccactggcatcattaaaataccttaggagtgttaagaatgcaaattcttgggccccgggaattcctgggtaaggcccaggaagctgtggtttaacaagctcgccaggtgatttttatgttatgctaaactatgaaaagtactgctatgtgggattctctctctctctc
0.04095244416318809 caatcaatattctcaggaaaagatatgactattttaagttgaaagcaaaccacagacgaactcagttccctggtcaattatcctcccagtaggtggtgacagttaaaagcagctccttaagggccaaaagcagctccttaagggcccaaaacagctccttaagggccaaaccctgcagtgaggcctgtaaataacttagattcttcaggtg
0.08190832744154543 gcgctgccgtttaactccccgcggggagaccccagcatgaggtttctccttcccctctttgtccggctcctcctgcgccgccaccgcccgtactacgc
0.3222954363612676 tggctccctacggaggcccacctactcgaggcccaccgactcctactgcaatcagtactatgcgatcgtcctagagagtccattcagctgcacttccgcctcagtaggtgtcatggcgcggggcgggtgaatagttccggcgaggcggggccggccgggttgagggacggccgctcggcattccgttcgtcgggtctggcgacaacggcgg
0.6527560974514219 aggctcctgtgggctgggacattttcattctgcagcaggtcagcttccattccactagggggctttgaatgttaataggcatttctttccaggtacccttctcctttctctacagtgcaccagtccctgtgggaccttccattggcatcctacggagagattattactcttttcattgttttccttacaaattagtttctggatttaatgg
0.6177608917924091 ttcagctcactgggcctctcacggtggagcacccctcattcagatgcagatgtgc
1 tgatcaaaatacggcagcgcatccaccacaacctctccagccaccaaacctgtgcccgccattctgaggacctcaggtttgcctgcgttttctgcgtctgcgtaaactcagttatatttaattacgccggcgcctgacactgatgtaatcacgttccctccgtattgacgttagtgcatgctcagttgctaattttgaaggcgggtccgcc
1 gcaagcacacaagcagcttctaggggaccctccctccggcccctcccccctcctcgggggactcttaccttaataggcaagaactgagagagggtgcgggaggcggcgccctgagtcctgtgggctgccctcaacccagccggccagtggagggagtctgacttctcatgtcctgccgggttccactgatcggagggcttggaaggatccc
1 aggtgctctggctatgccgacttctccttgcccaatccagtttaatctgaccaccttaccctctatcccctggctgagtacctgcccccaggtgtcccagagccccagcaggctgtggtgggcttctgctgccacctataggccccatgtggcactgcctccccctgtccagcattgaggccggcattcccagctttcacctcctcaaagg
0.7921478888315669 cagagaaggtggattctaccttggaaggaaatgagtcgtttcctcccatcaggacaactgccacagcatggtgtcaactcactcttgcctttcgtaaattgagtttgtcagtgctcagcgacacagctgagtgaaatgttgtgtgatgcgggctgtctcctgggagagagaaactggcataaaccacatcctaatgggatccagaaacaaa
0.05897788037311998 aggctgattagctggcccctcagggcctttctcttggtgacacagcctctggctcagaacaaaggcccctcattttgctgaggcacagactcttgaacgtgagagtgctgccacctgctggtcacagcgctgcttccagaaggggagctggagcctcaggagggagactgggccatgagcccaggtctgtagcctctctgtgggccacagc
0.5419211783878916 aaaagtggcctctgacccaaggcagttttgttctgttctttctcagccagtcaagtgtaagtgaagaatgtggctgagattgggatctggcctggagtgcctcacagggggacacgacggtttaaatgcggctgaaccttctttggaatgctgcctgactggtgcttcaggtgttacttaaattcttagcaaagacaaaaggaatcgaaaa
0.7551443094495787 tcagccaaaggtgaatggcagtgacactgtggcagtcttttgttcctaatgaagcaccttagggttcat
0.3576809833611253 gtgtcctgctcctgagtcaacaccacctccaacatgaccatgcacacagtcaccagcaggggcccctctggccgtcttccccaacagctgcattacctctatcactgtggtgaatgaccacagggaggcaggcaccctgctgctgctaccattactgctgacatgtgtgaatgaggatggagcctgctgtcactgcactataaaatgcttt
1 gctagaagcagcaagcagctattcttctgtagggaaagcacttaatagttgacaaagtgttggtactaaccctttggattctagcaactctcattttgcatgacatatttgcctgtggtgcctgaggccaggctcagggccagtctttcatgtggcagaggagttatgattcaagtacgtcatgatgttctccctgctatacccagaactc
0.0712081201639634 gtctccccagtttgaagctctttggcacagggatgttgcctcatgctttgcctgtcccaccgagtgcttccagctgtgctgcacacagagcagttcaggagtccctccaggaatgtagccctccccctctctcttctacaaaactcagagggactcttcaggagccacatgctctcatcaagcagaaactttttaagaggtagacaacaac
1 aggttagcactgcttctagggccaggaggacccctagggctctgcttgcagtccccacgggggccacaagagtgcgccatggtgctttcccttggaactctgtaatgaagcaagatgcctgccggtttcagttcctgggagattgtggcaaatattagccctgcgtatccagaggttcctgacttttggtcacaccattccagggagcggc
0.8923733422537409 acaaaagcttggaaaaaaagcaatctactcttctttattgctacattctttagcaacaacattgatctcctacccactgtgcacacagcactgcactagggcagtgagaggctggacag
1 tgcgtgtaaggggtgaggcgtatggagctgtggcagggcggaggtgcgttcattcatacttatgtaacaggagaaaatacggccatgaagttggtgttttccgggggcggtttttccattgtactcagtatgtgctgactgactcctgttacttccacatgtggggaaactggactgtaatttgtggtggtggggaattgcgttcgcgctt
0.08898086313327097 tggctttgccagcaccgctctccagctgctgttgcagctgcagtcgcagacaattgttcccctgaatgctctgctccagctgccctctcagagctcgtacctctgccaccaggtggctcaggtcactgctcaaagggatttggtgacaggcatccaggctgtaagctgagagagaaggagtctggtaacattgacccaagtatttccaagc
0.388621552602541 agcctcggggatggaggatcagatttcaagatggcgccagcggcttcgcgtctgcggcctccacaaggctcttctgggagctgtagtccggtcagcgggcttccggctctgcgcatgcgaggtagccagcgcgaccctcgccccaaatccggttgcacacctggctcacggcgagtgcggagcagaaagcactactggcgcgggccacagc
0.5003517685028963 tcgcggggaggagaaagacgaatcccctccctgcattctcggacagtgccacgtcctccggctgccagcggggcagcgccgctaggtaccgctgcgcgccgcccccgcttcccgccagcagcctcacctttcccggccccgccccgcctgggttctaagggcctgaggctgcgaggcaggcgagggaaggcttggtaacggaggggcgggg
0.2897501389895222 agaaggtggaaggcagatcgcggaaccagtgttctgatagttgtggttctctgagggaagccaattctggggaccggtagtggaaagctcttgcgctgtttccggccacctcagcgggaagcggagacgcaagcagctggatctccggtaactgagacatagggtataactgttgtcgcggcggaggaagtgaggacggcgccaagggcct
1 aggctgccggcggggcggagagtgcaataactcatacttacctggcaggagagataccctggtcacgaaggtggtttttccagagcgagtcttatccattgcactccggatctgctgacccctgcagtttccccaaatgtgggaaacttgactgtataatttgtggcagtggtagactgcattcgcgctttcccctgtatttttgtcgttt
1 cgccgaatcctaaccactagaccaccagggaagctgctaacccttcccggttgcagctatatgattctactaagtgctgcggttcgtgcctgtaactgctaaacactgaagccaaagtggccagattgctggagctcctagttcgagaccagcctgggcaaagtggcaaacccgggctctatcaaaagcacaaaaaaattagccgggcgtg
0.5222225788238127 gcgccacagcgatctcactgattggtcgggctcctggtaaacaaggaccgggcagccaatgggagggatgtgcacgagggcagcacgagcctccgggccagcgctcgcgtggctcttctggcccgggctactatatagagacgtttccgcctcctgcttgaaactaacccctctttttctccaaaggagtgcttgtggagatcggatcttt
0.1306635905016921 atgctgtagggaattcagtcggcctgcctgaatgcagttggggaattttttgaaggttcttctataccccatcttacggctttcaaatgctcagcagggttgctatgatagcatgccttcttattcagttcctattctggacacgcagcttgcccgtgactgttgcatgtcaagtggctggaaccaatcagcttatctaaggcttcctcag
0.4841121666697943 cagactcttaatgtaggtacaggttacaggtactgtattgaagtatagcaccacgtggaggtgttctcattcattgctgaacttaagtacttctcttttgtagtgaatgtggtggaggcacttcaggaattctggcagatgaagcagtcccgtggtgctgacttaaagaatggggctctagtggtttatgagatggttccctccaacagcc
0.3226234920152837 cctcgggcgatgcgctccctcctccaagggccactgatgtgatggctgttctgcagatcaggccaccaataaagttattgaaattgaagccgcacccctcgctggcgaccagcgattcctcctaaaatggctacaaggccggcggcgcggagtccgcccagtgcgcgttccctgcggcctgcagcctcggcgcccgggacccgccggcctc
1 gcactgcaagatttcagcggaaagcactaacgcagttctccactgttattgtgcagccaaatttctcccatttgggttaatcgcaggatcagcacgtccacagtgcaatggaaaagcaacgccctgggaaaacaaccttcataacgtcctctgcgatgtcaggtaattaggagttcacacgtttccgtcttgctactgctccacacgcctc
0.19643195495998 cctccgcggagaggaggattggtagatcacaggaaacgggaggacggcgctgggctcccagcagg
0.6034131360928702 aagctggttaatgtggctgaagcacagtgaccaagggaaagttttacagagatcacggaggtgcttgagggctggattatgtaggccattaaggagcatcacaggccactgcagagattttgtcttttaaatgagatagagtgctcttggagaatgtgactggagaggccgatggtagcagtggag
0.6355700337031238 agtcgccttccgaggccttgacttcgtcctgggagtggctcgagccggttaatgggggtgggccgggaatggaccagtcgagacaccaattccagggttcggttgcgcttccgtcgctgtttcctttcgtcactttgtggggaaaagtggtagcaatcatacctcttcttgaagggctgcagagggggtagatcctgtttgaatctaaggg
1 gtgcccagcagctggtgttcccgtccgtacctccagaagagcccagcgcgtgcaccatccccaccccctagcttccctccccacctacggctttcacgcactcgcagtgattgttttgcccgctcccgccgccgccgccgccgccgccgccagaggagcagcagcgcttgtgcaaaccgggaagatggcggccggcggcggcggaggcagc
0.5041249482666411 ataaacaaggtatcctcccctcaggaaagttcagtaacaaagcagtgaaaccgaacagctgctcccttgcagcaggccagctgtctcccctccccccatttccaccaagggccggagacggtgggaactgctccaggcaacctaaaggatggcgttgtgagctgagaaaggcaggcctgatagatctgggcataggagcttcaggaataaa
0.1076309881625118 cagattccccgaccaactccagcagcggcaggacagccggccgcttcccgagaggctccggctcgtacccgtccagctcctcttcgggcgacatgatggcgtcagcggccggggcttccatctcctcaagcggcgccgcgcggcgggtgggcgcgaagaaaagcagcctcgcgggggtcgcggtgacgtcggggacctcggcgccaatggg
0.6348194219931386 taaatggattaagggctgtgcaggatgtgctttgttaaacaaatgcttgaaggcagcatgcttgttaagagtcatcatcactccctaatctcaagtacccagagacaatacgctgcggaaggccgcagggacctctgcctaggaaagccaggtattgtccaaggtttctccccatgtgatagtctgaaatatgctggccgggaaagacctg
0.409775858577752 ccggcccccagccaaactcataccgcctaccgagactgcgccgccacctgcagcccctcaccagctcggttttgggagctcgacgctcgacatcactacctgcgggtggccaccagcggcggaagtcgggcgtttacaggcagaagtaacagagtgtcgagagactcccagtcccaccctctaaaccctctttactcttcagcctctccta
0.9053849827246737 gttttgctccttttttctccccaatgagtgggctgatgccccgagaaggtcgggcgcatgcgcagtgctcggattttttgcttggctacccggagtgaagcggccgggttgggcgattaacaggccgtggttaggaaggacggagaaggggcgttcgctcctttgggacttttcatgcctcgtttttttttcagatgtggcttggtctggg
0.09033291520724603 tccccctccccacgtcgccggcccctacgtcatctcccacaacagcccatcctgaggcgcgcccccacctccttcccttccccctccattcaatccccggtttctgcaaagtggagcgggggtggggcggggtagcggaactcatgcgctgggcgtcagaaacccggcaggggaatggggtcccagattccgggcacgtgcacatgggtga
0.7054258095724847 gcgctcctggaaggacatttcctcttctgtccccacccccactacatgttttttgctgttcctccccagggaacaggccggtttgatggccctaatccttatatacagcttgctctggaatgcagagactttgcatcccagctgaggagctggtaagtggactttactctgtaggacccacacctagcttttgaaggcttggggaggggcg
0.6358653501010967 gcaatgtttagctttgtcaatagagggagctggaggaacactgaaggtgaaaggggcttctcttcctgcgcctactgtgccttccttcctgcttgcacctgcagtatgcagcagttagcaccatgcggggcacccccccagcagatttcagtagcacccctgggagtggatgcccagcagattccattggtatcctagaagttggcttccc
0.7866937855776305 agctgcagcagacagggaggtgtgaaacctgagagccctgcttactttctcagcaggaaggcttgtagccagaggcaaattctcagccctgctcacctgctgcctggaagtaaacccagtgctattagggaggcacagtgggagtgagtgagaccagtttttcaggctgcatgggagctgaatgaggcctgtaactgctggctttccccca
0.01086715561138367 tcggcttcctccccagagcccttaaaccccctagcaacaggcttctaattagcatcacacacatactcatttcctgccagctgtcctacagtcttggtagggtggaagggctgg
0.03951896336870507 actcagcaggctaaggaagttgctaatgaggccccctaaggtattcctccagga
1 ctgctcatcaagaacaacagcctgcctcgcaagagacagaggtgggacacggtccctgtctaccctccaggccatggcggtctgcagtgattgctgtcggtggtggtggtggtggtggtggtggtggtgatgggggtcagtgctgtcccagcctggtttgtgggcgacatctagtggtccgaagccacatggcatgcgagaccaccgtggc
0.2970849313985323 acttcaccccacccttgaagaatgagtggccggagaagtgatgattggcgtgcttaaaacccaatcataaacggaggaggggggatggtctagcgggggcgcgttaatgggtacctctgccagtcccagacacatccgggtcttcgacagcccattaagtgtcgggggtcaaaaaatcgcttcaggctgcaactttaccttagagacgttt
0.1284892717631471 aatttacatagggagaaaggagattgcctactggaagtccaggtgattgggtgtaggggaaaagctgtgtgtggcttcgcagcccaactgggaggaggggacaggggcgggaagtggcaggaaatggcgaaagcctcaggaatgtttccagcagggaaggctgggcaaacggggccaggaggaatgcccagacaagaactctggttagggg
1 ttgtggcactgccgcctagcccctagcacagcccttcaccaggcctgcacgacccagacggctggagtaggaaggggaaaaccccggcctggacggctccgggcccctccggaccaggatctgtccggcggggctgagaagaaaacccggagcagtgatcagcctcgcgacccaagggggtcagggacgataggaaaacccggagcggatt
0.8582311243930285 caaccaaagcgtacgttcccttcttccctccgcccctctccctcgcctccttttctttggaggcaggccgggcttccctgcgcctttgctaccctctggtggccaacaggagaaggacagaccaagaaggagggcacggaaggagacttaggggagcggcggcactagggccccgggggcagagacagggctgagccgcgaggaagctcgg
0.4669414284146626 aaggatgcaggtacctgccttagctataggcactaggttagccctgcaagtaattccggcttcccgatgtggatgggtcatgtgatgactaggagcgtcacatgacacaggaagtgaggcaatcacagccatatttctaaagggcaattggcttcctctcatctgttacagattatatgccctataaaactctggagggcatgtatgggtg
1 gagcgagcgagagagagcgagagagcgagagagcgagcgagagagagagagagagagagaggagccggcgcgagaactacgcatgcgtgtcggcgttttcccgccagcacactgttggtggatgggggcgattgaattcccacagtgagtccagcccaccgaagctcagaggattcctaaccttcctctttagagagcctcaggttaggga
0.7770649148394044 agagacccagaaagagattgaatagagccagagagggccccctcctgtttttttatctcttaccaagacctcctggggctcctcattccttcagaaagaaagctgcagggagtgggggagggtctggttgcaggggcaaaagtcagggagcttctgagtatgctctactgtggtaaataatgatgttgattcctccttaagagtgctgagt
0.4171123968549553 cccgttaggctcccgcaccgagccccagtccgggagcggcgctcagtggcccccaatagagcccagccccttccagcgctcaaactcttttgttttaaatgaactggatggagcagcatgaaactgacgggaggggggcgcgccgggggcgcccggggcatgccgggagttgtagtttcccgcccttgggggcgcggggacaaattccttg
0.9555558914330681 tctgctgaatttccttctgcctgctgcccgatttctatttgactggcaatagtctggtgtgtattgtgacagttcagggagcctgagactcacaagtgaggtggcgatttgggcctggttgggtgggggaggtggtttggaatgccgggaatggagctcctggggagactgtaggattttgctgttggattgggttccttgggatctgggt
1 aactctgggcagcatggcgtctttccggcttctccaaacccttgcgaaaaactttattggcaaagctatcagagaa
0.9998048976967312 cccatttccccctccctcccgctgagggctggacagaaaaggagaaaacaaacttagcttgtctgaggtgtgaaaggtcacttacgatcctgacctgcattcttctcgggagcctgcgacgatgggaattggggagaggggcgggccccggggctctggaggtctctcaggatcagccccctgcggaggtgtgggacaggctgttccgtgc
1 aacccgagaacaaattcttgcccagggccgattcccagaaaccccctccccaacatcctttataccagcgtggtgagcctcccgccaaccacagttccaaccaatctcaagcctgaggtaggcttgccagggctatgattggctgattgatcctcccagtcttggaatgttgggtccttaacaaaggaatgaggaaggaaggtgagtcacc
0.1709576385256803 cttgttccttttagcaggaagtgccatgtagagatcacaactgggacccacaggggattcattgttattgggttgtcactacttctgagccttttcagtggcatgagttcatgctgatagttccaattcagatgaaggatt
0.6438646350537746 ttagagagcacattccagctgaaattaaatcacattcctctctccctgcttcatgaggatggcattgctgacagcagctgtgacaccacagggtcaagtggcagcagctggttccccagggaggggctgagaagggggcagggagggaagtggaggaccagggcctgtctttggaggcaataaatgaattctgattctttgatctcaagag
0.3890849105749393 ttgccctacacacacccacacaaggcttaggctagcctcctcctcccaccccaggccaatgacctcatcctctgtgtgggggaccgattctcatgctaattgctgccattgtccaagccaccatctggagggtctgagaaggagaggattctggggaagtgggaattctcaggccgttcccatgggatgggctccctcctccttccccggt
0.9571509948133858 ggcttaagaacgtttgtccatccttcctacaagtcttctgtataactgcgaggttcaaacatccgctttaggaagttctgttcttggggaagggccccttctcccgcaccccctgccagggaatgttgggtagtggacgccctctggcggctttcagaagtggaagcagcaggaagaggccattcttttccttcctaacgactagcccaag
0.6646269555729705 gtgcgactggcccagccaggagaaacacctggttggactcagctcctcccctccccacctcccaccacacttgaagcctccagagatcattgggggaggggcaggggagcctcaagcggtggggaaccctgaagactgtcctcagagcctgctgccttttatcccccgccacaaaggggccggcagccacatgcccatccatcttgcgcct
1 ggaggggcctggggaaggggactaaccaaggaggatggagatgcctagaggcaaggagcaggggctaggaccctggaaccaggcaatggggaggagctgcagccttcatcagccactcagtcacaaacaactggctttaatttcccgctgggatcaataaggagaaggaatttcccagtgcctctggccttttaattatgacctaatctgc
0.50427819010593 tccaccattatataaccggcgggtgggcttggaagcgacagagaaagagccggagacctacaagccccctgcccccacctctgcccgctccgcgcggagcgctcgtgcccttcccggtgttatgcaacccaagcccgcagggggttagggggcggcgggccgcgctgctcacccgggccggccagtgtgggtagcccttcatcttggcgaa
0.2664388605361597 tcccggacccactcctcctcctccccccgccccccaacctcgcgctccctcccgcggcggtttgatgcgtgcagcttcttgacgcccagggcctgccacggcccaacgcccaacccggagccgcctgacggcgcgtggcggcacaggcataaggagccgatcgccgagcacgccgagcaggctttgtgtgcccgcggtcggtgggtgcccg
0.3623448325669671 aagctggctgaggtgggtgtgccgatcaggtggggcaggggcgtgggcgggccgagggagccgaccctgactacccaggcgtccgaccgctgagcgcccgcctccttcaggtcctgcgcgccttcgagctgacacacaccgaagtggtggagcgccgacgcctcctgctggaaaaagggacacaggagcgctcgcgatcggtgaggagcta
0.03634497854860233 aatgtcatgtgctgaaacttaatctccaatgtggcagtattgaaaggtgaaaactttcaataggttgggttgggtcatgagagcagagccctcatgaataggttaatgggtgtcagtaggtggtcagtaggaggcagagccctcatgaataggctaatgggtgttagtatgtggtttggtcatgagttcagagtcctcatgaatgggttaa
1 ttgtagtatgtgtggacagctttgtatttgtcaacagactcaagggaagtcctatgcagtctttgtgtacctaagtgccccttttctagtacattgttttacaaatgacagccaccacagcctccccaaactccctctctatctccttaactcagcatgcatgtcatgctctctttgagactctttgtcctccaacatagtagtctggaaa
0.5757125348092555 cccagatgtgtctcctcatccccatggaacaggaagctagggaacctggaatgcccatccaggccatcatctgaaataacagagaacacttgagagtaaacaaagatcaaatacatagccatctgcttatgttacggctggctcttacccttaagccccatctactgctccacaggtcaaattgcactgcctaatataaaaactgctaaaa
0.4504902536700733 tccagcagccttccctgggggactttcatgctgaaatgcaatccctagtgttggaggtggggcctgatgggaggtgtctggatcacggggggtggatccctcatgaatagcttagtgtcatcccgtttccctcatcaacatgcattcccagaaatgccatgaaaggaaagaccaagtcttgactgagaaacggaccgggcagatgagggac
0.7117544663149996 aaggaggtagaactaggccggcccgcgaggaggcaggggcaggcgccagtgacgcaatgactgcaacatgccgccagggtgcagcagagcccgaccccgggttgttccatccgcagcaaacaattcctaactcgctccaggtcttccttcttagctgagtgggttgaaccccgtggaagtaaccccccgcccattatgatgatccagccaa
0.9497801371230188 ctcactttgcacccacagtcccctgtgtgctgctgccacctggtgcccatctctgctttcacgtgggcacaactcagtcgtgccacaggccacttctgccctctactgcccattgagagacttcctgaactcttacccatcaatgaggccaaagaaactggacaagagacaagcatttttctgatagcccccttttgccagccagcatgac
1 ctgttgtgccacctcccacagccaggcagctttgttctctgcggtggccagagtcagaagcggataaacaatcagctacactccaccccaaagctggccaggcccctggggaaggaatcgagccaaagctctggaaatcatctgttgcgcaccccaccaccccggggcacccccgcaaaataaaacatactctttcctctagagggtgcta
1 ggcagctggggcttctggggcaagatccaggctctgccctggccattgggggcagaagatcccctcctccagtgcctgccaaccttccgggctagcccagcagatacagaaggtgcctgccccagttccttaacaaaagccttcatttgcacatggtatgcattcatttacatatatggctctctttctgtagggaggcactaaatcccca
0.5311647409407918 ccgttcgggacccgagtgtcagccccaccgcggattcccaggatcggggagggccgctgggcatctgaaggcgcagggctgggggagcggcgactccgggaagagcggggccgcagacaatggacgcggcggtaggaggggcggcggctgtgggaacagccgggaggcggcacccgggagctcgcgctcccccgccccctgcaccccccac
1 gaacaaagggatccagggaaggggcctgaatgccccaggaggcagagtcatgaagaagaagttctacagagggagccagtgagcagccttgacctcctgaggcctcacagactcactgcaagagcggcttctaggcagtgaagctaagctgcgtcctggagggggcgccacagtccatcatatgctctgggaacaaaatggggttatgatc
0.9980421082403677 cctcacggcgccgcatccgggctccagcagccgccgccgccgccgccgccgcggccgtgggggaggggacaggcgggcgggggtggctgcatcctgaacggcgcctcccggaacccggccggttagtggcggcttcgaggccatagtgagacatgagccggagtagccatagtaagtgagggcagcctggcagcggcattaatcggggagt
0.496164656677471 tggatgcgcaggcgctttgagagacggtgaagccggtggccggtggccgggcgggaccaacaaagatggcggcggcccctgcggcgggagcgatctgggcaacggctgcggctaaagctgcagccgggcccacgggggggctgcacgggggtagtagggggtggccctgaactggggcctggccctggctggcctctcccgccgcctcact
1 tggagcccgaatgcatgctgcttatatccggccaggaggagtgcaccaggtgagcaggtccccggcttccccaaatgtccagcccaggcctattttccctgtggccactggagggcagtgctggatgatggaaactccaaacctgtatcgctgggggagggggtgctgagagggctctccttagtgaaggctatgccacattcagtagcac
0.4755754126956168 agatgctccctctagtgtcttgtacgctcacaagtttttttccgaccttggagaggcctagtgatctaaagccttccacttaagtctaaggggccaccaatcaagtcctgcccgcctctgcagctccagggttgaagctcttgggccgtcagacctgccactcattttcttcctcccttcccattggcccatggtaaatagcgaggctttt
0.2631171270056261 aacttctggatctgaaaagaagaatggagaaaaatagtaacaaaggaattggaatctaaaatttcagccgtccctgggtgggctcgaaccaccaacctttcggttaacagccgaacgcgctaaccgattgcgccacagagactgacacgaatggcctgttcttgtagatcatatttatagatatttaggtaaacacatgacgatttcgcta
0.3152623828447237 tacagcctccgcttcacttttaccttccatgtgttgtataagggcttctgaatggccagacttaaattacaccaagcacctcactgcaggggagtcacggtcccttttacatttccaggctctgcagttcagaaaggcacttgagatggtaatgagtggatgttgacaccacctctacagacaacaaaggggttagtcctagaattttatt
0.07278826763194489 tataggagctgagttctttctgggactgacgggaaaagttcctggccccttagtgggattcaagcatttctgtaatccatcagcacctgctgagagcaacacctgtggatgcccctcctgtagctctcacagcctaagacagatcaccaagcccagcaggtgcagggattcaatgtgttacctttttattaaggcgttcacgtgctcagtg
0.3138533370337189 ccagagactgttttgccatccacagaacagcagggaactaggcagccatcagctgagtgacccatgaacaggcgatgtttggccagccaggggagccctgcttgg
1 actgaagtacaaagagatgaaagtgactagttcaaggctgtggatccaacaaaggatgggattggcattgcagcttgtcctgaactctcccaggccacattccagtctctcaaaccccagcttccctgttgagtaatgagtaaacagactattgtaaa
0.04262209864983989 gagtgggataccctgacgcaacttttctctttttcctcccctcccccagagtatttagtaggaggtcactggctgagtgtgtgccccggaatctggggccgctcctgctgctgcagttaatgctgctttgttccatgctaaatgaggcgagaactttcaccctggtcacattcataatcccgctcagcaggacgctcagctgtgcacaaga
0.755789647090931 cgaattggaggtgctgaggtttaaactttctgatcgttgtgatggtgatgctga
0.5650862919021379 cttccatctccagaccagctcagtgcaactttgaaggcctttgttcccttgaatggatcagcgtgggggagcaagctctcccggggtttggccactgcagtttcctttggttcctgatgcccatggcactttggatatagagttg
0.1964436522770424 gtgtatgtgaatacttaccaagtgccaggcactcagctggatgctaggaattcagagaagaaagagaaagctccctgccctcaagaccccaaaacacat
0.5994217837268809 gcggtgctcccacttcctgcagtccgaggttccgactcgacgccagctccgcgagcaatggttccgccctgcgccctgccccttccatgacaactccagtcccacctgcctggcgtctcttgagcccaaccggcatccgtcgcggttggacgtgggcttggcggaatggggcgggacttccagtaggaggcggcaagtttgaaaagtgatg
0.9954329031888361 ccccctgcctgtctgcaggtctcggagcagctctgctgtcggagatcgcagggagttggtggattcaagccatggggcttcttttatgagccaagtgcagaga
1 tagtccaaatttaccaccagtgtggatacatggatcaggggaagcactgctgatttgctgaacaaaagacagggtcaaatttcaagca
0.8764220372157661 ccagcgcaactggaaagggaggagccaaaaggggaacactttcttgattgtcccagcctcattaggagctaccacagggctctcctgcatgctccttgttttctttgtgctctggacttgctcacttgcactgcttgcttcttcccaatcgccgccgcccccctgtgcttcaggtaaacaagctgctctgtgggaagtgaataatggggcc
0.6319391998710873 tgtttgccgttaaacggttgtaaattaagggctgagtgtatgaagcgttaatgaaggctgccattggaaccagtccacgt
0.3859767294033015 tcccagtgagtcctgagtcatacatttggggccaagataaaccccttctccattgaagctgacctttcacagtgcttttagtgctcgttctgataaacacagccatctaagcctgtcacagctggagagcctgtttctgccacaacaggctacttcagctccctaacccctggtttccacatttgtaagatagagatcatagcagttcttt
0.37558588647746 aggcatggacgaaggctcacagcatggtctttctccatcaaagcaagttcgactaccatgatggctgagtgaattgccaatagaaaaggcccatgctg
0.8091082486313191 ctagactggcaccgacgccgcccccagcctgagcgctgagagggaaaacgagagctagaaaggaaagaaatcggactggtgactgcctggcaggggtgtaattcaaactgttgtgagcagacggcaggagggagttgccaaggtaacgggtgattcccacccgccgccctttcgctaaggctggggagagggaagcctccgcgtgctgggt
0.2242942193876064 gatccctgcaattttccctttgcagaaatagctttgtgaggagagaactgaccctcctgggctaataagcccaaaccgcgccaaacctggagggctgaaatggaagggacattgttgtgttaagtactttacaacaactgtttcttctcctcttgacacagcctgacttccttaaagaagatttgactggccagacagctgtgttgaccct
0.332737534047551 ttcagtgggagagaaacccaggcctccctcccaacaaagccacccacatccctcacttagcagcctaacaatgcattaaaatcactgcctaattgctcctttcaaagttaatgctccaaaatggggaaacgtgtgtgatgtttagtctcatctctgccgcccaagctgcaatttgaaagcccaatctttttaaaaatagaatgagataaac
0.7249094987664803 cgagtaacagaccaactctgacagcccgaagatcgcacttccgcttccggggcatagcaccggaaaggctcgtatcggagaacggtgtggccacgagagtctagaggaaaccaacccgcaactcactggagctgaagggctggtagtcaggccgaatctcgcgagaattggaactatttcagagccagaggaggatagtggcggcggcgaa
1 tccatgttggttttacatttttccctcctggtctggactactttagcgcaaggagcccagccagacacggcggctggcgctgctggacttctttattgatgaagttgatctcgtccgtagctcccggggttaggaatcggcctgctttaggtcctgaagtttctgttctgtgtgctccctggttgaaggcttttaaaaaaatttgtaattt
0.4688314015334911 gatttgcatttcaacaagtttccaggtaacactgaagctgctggtctccagaccacaagcagagaactacttgttgttcaaagtgt
0.2977833607616839 ctgtgaatcacatatctttggatatttctgaaaccactgaaagagccatccatagcgatttgtggatggtcagatgtatagggtggaaggaggggtgagtcatgctcagtgggaaggaatgcaatctagacaataacaactatgcctttgaagttagagcttcggtcaatggttgtgggcagtttgactaagaaataaagtgaaatactga
0.8898609723953737 ccctcctcctctgccggccgccgctgccgcctcctcgccgccgtgcccgaacccgagcgggtccgcggcggggcggcggggccggggcagagggagaggacaataaagacattttacatattcatagctgctgggccggcggggcgcagtagggcgcgggcgggcggccggggccgggcgggcgcggggtggggggcgtgaagggggatgg
0.4118742789773553 gccgcaggatgcacctgtgctcatgtgctcgttcccaggaactgtcctgttctctcctgagaatcagcagttttgctcccctcctcccccaagggcaacctgctgatttactgatgactaaattgccattacaagcttgactgctgaaataaagcttagtaaagctgcattttcactgaagcatttattatgcaaaataggaaggctttag
