svm_type c_svc
kernel_type wgkm
L 11
k 7
d 3
M 50
H 50
nr_class 2
total_sv 13190
rho 0.936125
label 1 -1
nr_sv 5644 7546
SV
0.6675876105825305 gttcttccaggagcgcgcatgagcggacgctgcctactggtggccgggcgggatgtaaccggctgctgagctggcagttctgtgtcgctaggcttctgcccggccgccgccg
0.2523087023170394 gccgctcccactgctgggagcccctcagctctcccttcctcagtcctggggacctaggcctcctctgctgtgctcagcccaggatttcctcagcagcttggaggacggggaggagggtgaggctgccccccaaccaaagccatgactcagcgcctgaagccccacccaggggaggggcacactgaacagaggccaggcggttcccctacacgggctcccctggcctccggcccactgcacctgggctgccactaggccctcccca
0.8318433397401309 ctggccaagtacccagcctccagcctcgccccagcactgcgccagccaccgctctggcccgcggaaccggctgggccccagggaaggcaccctcaggccacagtcaggtggaagggcgttccctgcctcctagcccgctgcgtcactctgcttggctccggcccaagggcgtgcaggtggctcacggtcctccggcctggtcagccagcaaagcccccgccctgcacacggctccccctgctctccccgccaacagtcaccactg
0.3859224631926769 ttgaacgggctgaccttgaactcctgggctctggtggccctcctgtgttgacctcccaaagcattgggattacaggcatgagccactgcacccagcctagaagctctgttcatatttatttgcgaagatcaatttgatgactaagcagtaaactaatttataaaataatattaaatattaaaaccaactttaaacaattatcttcacctatgtatgtgtgtgtgtgtatatatatacacacacacacacacatatatatatattt
0.6612121384798902 gtgttggagaatgtcctcgtttgtggaaaatacactctacaagggtggggggcgacagagcatcatgaaggcaacttactctcaaatccttcacgagaagtttttttgtgctgagcttgcaacttttatacaagtttgggattgtttcaaaaaatgttaaagaatgtatgtggtattacataaagtttatatatattattaaacttatataaaccttatataa
1 cagatgactcagatgcacggacacccagacgacgcggacgcacagacgacgcggacgcacagatgacgtggacgcacagatgacgtggacgcacggacgacgtggatgcatggacgacgtggacgcacagatgacctggacgcacggacgacgtggacgcacggatgactcagatccccagacgactcagatgcacggacacccagatgacatggatgcacggacgactcagatccacagatgactcaaacgcacagatgactgg
1 taccttggttcagcccagaaaggctggacaattccaggagagggctttcaggtcacaggtagagaagagaccggagggtgcattcttttgagtctttgttcagcctttcgctgactgcacaatttattatgcatgtgagacgcgggtagaggaatagtcgcttatgctttagtctggcttactgaatcttcatttctacgtaaacagtagagcaaaggaagcgatcagatatgcatttgtctaggtgagcagagggatggctttg
1 agtccccaccgtgagctgcttcaatgataagactcttcagtgtggagcaaataaatgcaccaactatctgcacctctttaccttccaggcatacgatgagtcagtccccagtccccttgtgacttgggaggccacgtggctacttctaacccgggagggggagaagtgacgtgtgccatttctgggccagagccgtaactgatggtacaagatcctccccaaggcctccccttcctactggcgcaacccagcaatattcaagatg
1 gagggttttcaggcaggtgacttttttgggggagatgggaacagctttattgaaatataattcacgtgccatacaattcatttaatgcaattatatggaattaagtgcaattcagcagttttcatgtattcagagctgtgcaaacattgccacaattttaggatatgttcatcaaccccagaaagaagccccatacccttcaactctcactccccattcccaccccctgcaaccaccaagctttctgtctctacggattcgccta
1 gatgtacaaataaatgaaatctcttctaagaagtcgtctggaaaaggtggcgagggggcacgtccggcgtggttgtgggggcaacgctgtgtggaagaacacttgaattatgatgaggtggcacttctgggctctggcccagctgagctgggcctcgtcctccatgtgatggcattactaggtttccctttttgtcccaaggtggcgctggctcctaaaaaggtggcagcttttctctcccatgtgggtcgggcaggtggcccgg
0.8261008113713703 aggaccagggtctcctccccggtgtctaaggctctaaggctcgggccgagactgccaaagcctcatggggcgcgcggggagagggggacgggagccgcgggacgggctcagtcgactcagcgcaaactggggcgcgggacgtaggggaattacggtagccgcgcgggcgctaccacctggaccggccgggatgtaccaacggcgccgcccggctgggaccggggagaggaggggtcccaggaagggccccgcgccggagccaggg
0.9594852289619792 ctgccttgggcccctgaaggaacttgtctgatgaagggacttgtcagggttggggcttgggatggaactggagctgggtccctacaactcctgctgattcatttggtgacgccaccccctcctgctgcctattgtgctctagtgggaagtggtggttcaagtggaggatgatggggatggcgattacatgtctgagcctgaggctgtgctgaccaggaggaagtcaaatgtaatccgaaagccctgtgcagctgagccagccctg
0.1365553312649077 ccaccgtgcccagcccccagggactattttaacttaaaatttaaaattaaataaaaattcagttcctcagatacgttagccaaatctgaagtggtgaggaaccacgtgtctcctggtggctgaatcgggcagtgctgacatagcacatttccatcatcgtggagaatccccttgggcggcactgctttggagtccctgcaaggcctgtggggatggcggcccagtggcatgccttccagtcctgccactcccagccaagacatca
0.1938085569204047 gcctcgtgtttgaactgggatttatctttaataaaaaccgtagaagcccaaactcaggcggactgggacccgcctaccatgactcggcagtgttttggggtttgggccaagtaactggaagaaaacctcttaacatgtgaccatgtttacaggctccggggagttcag
1 cctcaggtccagggatgtcctccattagcatttccctcattctgctgcccagcaaaaccagggttaaactaaggtttggttacagcatatgggtaagaagtttccatgctcaataaaatgccacgtcatctactttataaaagggtaacacatcccttccgagctggaagcctctctctccatgcttgctcctcttgtggccaacagcacaccctccaggcaactggggagcattgcaggtgtagaccgggcttccgtcaggcag
0.2480498207379012 aacttgggcaagagagctggaccttttttcctctaactcttattggtcagtcattgatatggcttgcctttggaaggaagagtaagcttggaaaaggcagttttcttcagctgagtcactctccaaacagggttgacagctaagggccatgttctggcagcattcccaggagcttgaggaataaggcttttcataactcattggggatctgggtagctcatcatggaaacttccttttgttctctctgttgttagtttatccttc
0.2272805781853788 tgcctccacctccaagaagacagtggtgagcaagtcagacaatacctctaatctcatggtatttataagtaaatgggccgttaaaattaccagatcagaagtgctgtgttcagcaaatagaggctcatgggaaactcctaagaagggcttctgagctggacttgggggtcaggaaaggcagaatgagggggctgactcatccagactggggcggggttgccgggggtgcctcccacttactatctgtctccttctagactgactt
0.1672787874102459 cctgtccctctgtgttatcaaatgtgacagagatatcaaggccaaagacagcctcaacagagtacaaagatggatattagcaaataaataactttgccaagtcaaaacaatctgctggagagaagaggagtaacctcctgcatatatttaactgcttagtcatgggggctcttgattcagaaccaagtgaaatcagatcaaaattcttactctataagccaatatagccaaccaagtttctccagaaatttgggatgaagtggct
0.3520217966314437 acacaatgccagctgcaattttatctccttcgttgcttggccagcctccacccgctccaatcctccctcccctccgacagccggaactgggagcctgcgtgattgatggcagctcttaatagcgtggtcagctagaaaatgcatctgcaagcaagatattaaagaggcagcgcatccctgtgagtgatcagcatttcacacatcctagagctgcctctgcttctgccaggaatattaatgccaaccacctctgacgtctaataaa
0.3739406416489434 gccggtaggttgctgtgtgccttatgtgagggacattaaaaccacatggtgtggaccatggggcttattcatgcctggggcacctgctgtgtaccaggcacctttcttcctgcaggattcactacagtcagcaaaataaagtctaatggagcttacagtgtaattaaggaagaagaaataaaaagcagatatataacatttcaggtgatgttaagtaccttgcagaaaataaagcagggtacggggtagagcattggccagggaa
0.2924643571180309 ctgaggatggctttctcgaaacttattcatgttgcctgtcctgcttcagacaggctccccaggaaaggacccagaggtctgcacttctgctgggctcacatctgccagtcaatgtcaggaatgtgctttgtttctgctgggtcaggaagtttagtcacagttggctttccttatttggggcctctgtgtctccagggtcaatgtggtaaaccgctcagtccagcctgcaatggaaatggctccaaccccagcccagcagcttcct
0.1044781509046213 gaggatttctgcctctgatttagtagaaaataatctttgaaatttacatacaaagtcccatgataagtcatttgggatcccccagaggaggaaggctgcttgcggttagactgggtgagtcaacgaaacaaacaaatgggcccgatgaggtcagctttttggaaaaggaacaaagaaaactgcacccaaatgagaggcagcttacaatggtgaagcagtggtcacagaaaatccatttccaaagcctctaatccagcagtttggg
0.4815804322893421 ctctcaataaggaagcccaatttgttgtgttggtgaagaaattgccaccagattaaaaatggcaaataaatgcaagaattcaaaatactgtacaaagggggaaattacttttaggtatttacttactgctttgctgactggacattttaaccgaatgtagctttcagcttctgtttattttccagaagtttattttcctaaaaccattccttggctcatgcctcaaagcaacctttttcccaattaaattgaggacagagagagg
1 cgcatgcgcagtgtgcgaggtagtgctcttcctacctgccgacctgcggagccttcttactgagcagggcttacgtcacgcaagcgccgcgggtgtgtgacgtcatctgagagcgccacgcgcggtcccgaaaacctgagcaccctctggctaaggcgttgctgtagagacggtgcgccagccccgcccccgaggcgggattggaggaaaactggacagctgacaagggtgacgtttcgaaagcgcgcgggaggccgtgctggga
0.7993285229604077 gtggtggctcatgcctgtaatcacagaactttgggaggcccaaaagttggccctcgccttcgcctcatgcacgtctcaggtttgtgtgtaaagtttcccccaccaaggcgtttgcaatctcagcagatctcagagccggtcacccaggttcagcccttgcccagcttctcggtcctgggtgggttagcttggtctcgggctccccctggcggacactgagccatagaaagccgcatctggaggcagctggcagctggaccaagtg
1 tttttccccacaaactgctaaaaataagaggaacagtttggcccatcctgtcttagcttctgcctgcaatcacaatggccttcactgttttgaatctatttttagttcatcaggaacgtgagggtgggaagtgctgcgtcatataacagattaggagaaagccctattttaatgtcgtttgtgaaataagaactgaaacagacaagaaaaactctaggaatgagatttcatgattagtatgtgtggctttgagttgtggtttagg
0.6116324216198417 attcctagttaattcatttaattgctttggagttttttcttcacctagaaggtgttgcataaatatgtaaattctaaggaattctgtcttgtgactgtcatacaccaaaaagagaatgtgctgccctaagcatattttgcgttaaaatgaattttctgaatagcttgtcccatagttattcttttttgaatcaggtgatagaatttttgagcttacaggtaataaaagaagatgcccttttcttttgtattagagtttccaggct
0.1534262770552309 cagtaaaatgccaatgtgtgtttggcttaattattttactttggggatgaggtaggtatcgtgaatgtccatagttgtattgttttgttttttaactcctacacataggggattaactttcctgagtcatcagttattcctagatccttgggtcatttcctgtaaatgtaggctctccattcctatcttatacttcctctcatttataagggaaacatttttgggtagcataatgaaacatggaagcataatgaaacatggaagc
0.8636718147625437 aatttattcccaaactctcctaatcttccgtacacaaccatttgatttgcataacccaaccccctctcataaaaactggctgctagtttaattaaaaaatgtaaatttgctgtcatctcggggcctggtgaattaggacgacatcggcattttttattgctaaagacgtccagattgatccagcccttggctgaactatggtgggggaaagggggtccacatggcccctgagggtcctgaggtccttctgtcccctcctgagaag
0.4072926420758542 ccagacattttgcagcttttataacatgtgtaggagtctttacaaacgacttttatacatatttatatatatatatagttatatattaacaaacctgattcgaatctcatctgaattattttttgcttactgggcagtttgtgcgtatctgtgtgttttttcccccaaagccaggagagatctagaacattttggtgctattctgagacctaatgtgcctaacccagcaagcgccgagacacggacccctcaccgcttctcacgt
0.7707810026787569 cccacccacctgctcccacacctcggtcagtgaaggatgccagggactggggcattggggcatctgggcttcaagggcaggacgatggagaccaagcggcgcccgagtgaggagtcgtttctgcttttctcagcaattcggcccaggcccactgtcgtgtgaggacagcaacaccgtccccctagcggcggcttccagaatcacaggctcagtgcaaagggagcagtaaccagccccgggatgtcaaacaggtgccctggcagcc
0.7116258481377249 atgcacacacacacagaggcaagattaacagggctctccaagggctctgctcaacaggacatttcccggaatagaacaaggcccactgccagtatcacttcccacccctgcccagaaataaacaccctgcatcagcagtgacatgggtgagtcagagctgggtgtgccctgaaggctgggtccagtgtggccttcagcacacgcttgggacttggtcccaatccctccccacggttttccaggtgggcggggcaagcttgccccc
1 agaaacgagtgtgagtctgaaaccaattttttgaggccttgcgtttcttagcagggcttattttaagtgttttaaaaacagatgcgattccgttaaatcgcgtgtggagctatgtaaagtgtattatagaacaaatgcgagttacggtttttcagcttttcgctttgttaaggtatgtgatatcaattgtattgcatttctgagcagttataatattaagatgttggggtggcttactgcttttgaccaagaagtagggtttgtt
1 caaatactagggaacaatgttttctctgagttttgagtgtgtttcttgtttcagagtaaatacgaaccgtcgtaatggctaagggcatctacttttaaaacgctcaaataagccttgctaaaaaatgcaagacctctaaaaaattggtttaaaactcagaattattcctctccacggaaatctttagtaaaaggcgaaagatttatgcgatatgaagagaaactagagtaagaacttcgatgagtggcactcagttctcaggtaa
0.5868837783258213 acgtaaaattaaatttataccactgagggagagaccctttctgaaagaagtatggccaaaagcactttaatgctgctgacattgttgtttttatgttcatttgctggagcgcaagacgtgctgacacagtgagttttctctgatgtatttaaggtgatgtatttgcttgagttactcctgtatcattgctcataatattggaaactaaaataaaacctagttggaaatcctttgtgagatctgtctttttgggttcttgtacaaa
1 acatatttatcttcacagtccattcagtcctttcaagaacactaggaggtgggtcctattactaacttaatagtgctaaatatatacacgtactatgtaccctcacacacacacacacacaaatagtgctgacaaggtcattatcacgcaattggcaaatggcagccctagaatcccaggcccagctcttctctataactatgttgcttttccttgcctgctaggggaccttaggcgagggttgcccctcctgggtgtcagtgct
1 aatgcttcaaaccactctgagcttccagattaatctgaaacagcatctgagttcacaactgggtcagagttgcagaatagcaagagaaacttgccagttcagcaggcgtgtgtcttgggttagttaagacagcaggacagtcctgaggcctgacttccttgcatgtgtttcaaccttgggtgctgagataattctgggtggctttagataactttgtttcttaactgaaaaaggagtgtctgttgcctgataagtgtttatccgt
0.8065126983807392 tgagccgtgattgtgccattccactccacactccagcctgggtgacagagcaagttcccatgtttaaaaaaaaaaaaaagagaagaagaaaaaaagcatggctataatcgtgacttggcatttctgcacatagaccagactgatgatcacctgagctatgtctaatattctctaagctgggaggtttcagcctgaggtttgcatgtaggttaagactttatgtaactcttggggaagcttctgggttgggtcagagggctgtgac
1 ttcattgtatgcaaatactgctactcagtgctctaaatgatgtttgtgtaaaagcggatttcactacatccctgcccgcatcctgttgactcattcactgcttatcaccgctctctccagaaccctctgtgtactaagccccattacttaacagcttgtctcttgacctctccatgaccctgaatgaggcaggccaggccaggctgagattatttgttgcagtgggaaaagatggagtgttgaagctgggaaacctgggttcaga
1 ggcagtaccatccaggtgtgctgtagggaaatagtagttccaggatcagttctctcaaaagcaaacaaatactgagattcagggtgcagagagaaaccatccataagatctaataccatgaaccaattggtgtctcccagtatttgggtaaatacggtataaagatttggcactataggatgtaagagaattacggtctcattgtaagtcttgaactactgtttggtttttggacaggaaagacaggagtattacaaggagatct
0.1251306890842621 tcatgatggtcccaaagtgctggcaattcagacatggcaaagagaagccataaagtgcttcctttaagcgaaaaggtgaaacttcttgacttaataaggagagaaagaaatcatatgctgaggttgctaaaatctacagtaagaatgaatcttccgaaattgcgaagtcatctgtggcggaaggtggaagggcaagacagtaggagagagagagagagacaaaagggggctgaactcaaccttttaaaggaactcacttccgtga
0.5970320377093046 ttccgtgtttactcagctatctgccctaaaaacacttgctcagcagcatgacgacatagattaaatccttgcaacaagcccagtggggaagagc
0.9543523616522559 ttccatacaggacactgttttgtgttgatggatgaagtcagatgacatatgctaaagacctagcaaagtccgtggctcacagtgtgagctaaagaaacagtggctgggacttttgctgatgtcatcattcacatagagtatcccattcctctatgatcatcttactctttttatcctttttatttcacactgtgctccatttccaaacctttgtccccatgtacccagttcttctagaatggacaaaaattagaagacagatttt
1 gatccatgagtaatctacgtaaaacacttaaagtgatgcctgtcacacagagctaataaatgttagctgttattattctccctccagacctttttgtagataggcatgtctagatttggggaagtcttgtcttaccacttagaatactgcaaagtcatctactttgacatgaactaaagaaagtaagaaagcctttgggcaagttgaaaccaacttgtattagtcagacatttttgagtttcaggtgacagaaattcaacccaaa
0.01119293819049209 agtgctgtttgtttgggctgtaagtagctcagttcctgttattcccccctggacaatcaggcaggaaattcttcactttggtttccttaagaggtcacatacttttctctcttgcagaagtaaataaagcccgtgtgctgagttggcagttttgcacacgagcccgcccgctggggtgagccagcagcccccttccctccagccttagctagccctacccagggggcccaagggcaccaggaaattcgggcagcctactgcccgg
0.03296695585618944 cttcatttgtaaactggggagaatgatggcattacctctcaggattgctttgaggaaaatttgagtgaaaacatgcaaggtgtagaataatacccaccccataggaatcactcaataaatgctgactacggctgttactgtggtgattgttatcatcggttatcattgctgttgtcattattagtgctggggaagccaccacctttcatcatgccaagtactgcctggcacctccatgaatgtcctcccccttaactaaccacag
0.3352015651963564 aacagtcattggggaaacggtggtctgctggctacatattctgtgattacaactagttggttctaagaactcaggaaaaaaagaatagagaataacagaaagttcagtaagcagggcccatcttttgtccactcagcagaagaggaagttgatggtaaaaggcattttctcttctaatacaagcaatattacgtcaagcgcccaaaagactaaaagaaaagggtaagctagcgtatgccccatattctctactcttgtacctaat
0.4431762049820263 gtcccagcatggatgcctcaggccgacagaaagttttccctttaggttgagttgtgtcaaactcttacgccccggaggagtatcagtcctccgccctcccctgcgctcccacaagatacatctacttcctcttccacatgatgactcagatgtgtgaaaacaggggcgcccgcaccctgtgtctgctcctccccgggcccaagcgcccttgttcctcaggtccctcacaggactagagcctggccctggctgcctcctgtggcct
0.03520197861607659 gcagcaacataggcaggagagataatgatgactcagagcagggcatataatgaaagtgatgaaaaacagttgaattccagacattttctaaagagaaaaccaacaagacttgccgacagattggatgtggggtgcaacagataagagaagccaaagatgacgcttacagtttttgccctgagtaactggaaggatggagctgtcatcaactgaaatggcaaagacgtgggtaggacaggtctgtgggaggagattaggggttcgt
0.2173362090801593 ggttttttcgctttctttcaaacgcttgcttcctggcgctccccaccccccagcgtccctttggctccatctttccagaaacttctctgagaaactcagcaaaaagcatccaatttcgccactgcttccccctccgcgcatgcgcgagacgccaagcggaaagcctttggcgcgccggagtgtgagagtggtgcgtgagcgcgcgcgcgctcgccgtgcgggggcggttctctctgacaatgaagggaaagaattccccctcccc
0.8093304975197991 tggcggccaggacccactttatgtgggaatcagcagagccgatctcagaatgcacagagggaggagggggcggaggattcgagctgccttggaaagcggcagtctggaggaacattactgtattaaaaacggcttagctggcagtttgctcacgactgcattcaaaggagtatcttacctattgcagagtaaaagcagatgctactgataaaagcaggttattttaaaactaagcagatcatgtgtccctgaaattcttttattt
0.02438963507248254 taaatttaaagagtttagatcgcttttcaataactttggctctaaagggcttcattgatgatttatacagttgagtcctgcaatgctttccccgtttcttttgtaatagttgcacagtcaccagttaggtctgactcattgccctgatgtcatctctgaggaagtttacctgggaaagacaggctgtgagaccccttgattgagcagagcattgtgggcaaaaagcagcaggtagcttactttgactggtttggaatcgcttatc
1 gcacggcctcaaccaacacctcggggagcaagcgactgcctgtccacccatccaactaagaaagactgactcaccgatgacttatgccactgggttttggggtgctgtgctgtgcagcaggagataactgagacggacggtaaaaccaggaagaaaaggaagtgattcagccaaaggttcaggatgacggttctctctggatgggggagggtaagcaggggacttctgagatcctagaagagttctctttctttacttggagtcc
0.2326361041620978 ggttctccctcaatgtacccagcagtgccctctccaggacccctgcctccaacagagcccccaagcccctgcaacagaccctgccatccccagggctggccagagagcctaccccagggccaggagctgagtcagggattccaaaggaactggtcacttcccgccccatttcctgacccatcctgcagcctgggcgccgctgcaccgcctggattcagatcctgatgcagccacatcctagctgtgtgacttcaggcaagcctct
0.06171641135771369 ctattttttttctgatcctgttctttttgtaactaaggtaaggaattgcaaaggtcaaaatctggagagcaaatgatgtcatggatgtcatgaagttgcatcaatacctgatgatgatttagcataacagtgcaacatattatgccaagaagcataatgatgagccaccaggatgttttactgcattaatttcatgactctttattagcaaattgatatgcaaagtagctctccaattttctaccacagagaagctgctggttca
0.6322383352249369 cctaagcgctttttgggggtgcttatgagctctggaagaggccgggaaattgaccctggcagcagtcagtgggtgtatctagctctacgggaatgttgaaacttggctttgaagttttttccgctggttcagcatttctctcaacggttgtttatgtttttccatttagcataattgagaatttgaaggattcgttcgttcagaggatatttagtagagttcttaatgtgacaaccatctttcttgagttttggcttaagaaagt
0.9416989632549415 ggaagtggccttgaagacaggcgggtgaggatgcacagccctctgccgctgggctctgcttcctactgaggaattgtttatcaatgcagcggtaactcccagagctgaccacacccattaaccgaagaagctggaaactgtcctactcagctctttctgtagtgagaggacgagctgagctgggttgtgttggggtcagctggcagagatcgtcttgggggaaacttcacaagtcctgggccacctgtgcctctgggtgagctgt
1 tactcccagctatttgggaggctgaggtgggaggattgcttgagctcaggaggttgaggctgcagtgagccatgatcatgccactgcattccagcctggatgacagagcaagatcttgtctcaaagagagagagagagagagagagaaatgaagactggtgactggtggctactggtgggaaggagatttttactaaatgcccaaaaggtttaaaattgtaacttttttatttcaaagtctgtgaagataaatgacacaaaagag
1 tgtgttagctaggatggtctcgatctcctgacctcgtgatccgcccacctcagcctcccaaagtgctgggattacaggcatgagtcagcacgcccggccaagccaccccttctttaagagcttcaccatagctcatgcctggaatcccagcactttcggaaagagctttaccgccccctga
1 aaaaaaaaaaaaaaaaagaaaagaaaaatgagggtcctcactcagctttggaagtaacagaacccttgtattactctaagcagagaagctgaatatataaaccagacccaaatgcagctgctcagcaggcctcaaggtggagacttgcaccctgcttcctgcactccctaccccatcctctagaggcacctcccagaaacccaggccctccaggatggaccttgcatgaaggtccctggatccctgaaacattaaggtctcttcg
1 gtggtttactgtaaggctgagggctatgcattctatggctatgttgttgtctcttatttttccaaacgtggaaacctctgttttgtaacttgtagtaataaggtagaaattaaaaagaaaaagtattttcctgtacttgcttggctgcaaggtcaggaacagatagtttctgaaaaaccacatcgctgagaaatgagttctggagactctcttaacagtctgttatccctaggaaggataagagcaagaaacagcaaatgctttt
0.1062094559408274 ggcctcccaaagtgctgggattacaggcatgagccaccacgcccggcctaggctaggggtttttcagatagtttggtgggcagggagccagggtagggaatgtgctgattggttgggttgaagatgaactcacagggaatgaaagctgttctcttgtgctgagtcacttcctgggtggggaccacagactagttggagggtccaggtggggccagctggttgtcagaaatgtaaaaacttgaaaagacatttgaaaagatcaatg
1 ttctccccagccctctgctgataaccctttcaaaatggttcatttcctctgaggggataagagaggggtgatgactcatccatttcagcatccccagtgccaggcaaggcccagaggaggtgctcaagaacctgctctaggccagaagcaaagggaggaaaggaaggctccttttgctggtcttttccctgctgccagcagagggcgcctccgcaccacgattctgcccaggtgggtccagcctccagtggggccacagccaacc
0.2350732145712225 tgtggatgacttccgtaaggtcacacagcaagccagccgcagaatcaaaagtcaacttctgactcctaaaggagaactgtttccattccacagtgctcaatgcagcttccccctgacctgcagcctgctgggcagaattgctgatatggcaaatcatttctatgtctgcagtcaggaaaccagagctgttggaaattatctacacacacacatacacacacacacacacacacatacacacacacacacacattatccttttcct
1 gtcccactatatttagcttcggctaataaaaaatatttctagtgccataacgggggcattacacaacacaggacaagggaacccgaaagcgaagtcctgaaatgcatgcgttttcccctcctctctttatggtatgacccgggagagagggcgtgaactctgtcgaccagtcagagtgacacaccaaagcttctgaaccaatcagcggggcggtcctgcggcagccttccaaagcggagcagagaggggctgaatagagccaatg
0.3871145582610839 cctgagcctgggaggttgaggctgcagtgagcactgttcacaccactgcactccagccagggtgacagagggagacagtctcgaaaaaaaaaaaaaaaattctgacttactatttttacactaatgtaacaactgctgacctcaacaaattcaacaaacattgtatcatgagtcttattttcaggtttttcttctatttctctagttatctctgggttaagaatacattcacttcaccatctagtactaaaccccaacacaaaaa
0.6951131134808969 cagtcacagaaatagcacgtgcccccactgattacagcaccgcggggagaccgttattaaattataccgtacggctccgctccggcccaggctaggaggatgagtgcgggcgagaaatgcaaactcatctgtgacttgacccaaggggcagccccgtgaacattcccttaagagggcgaatgcatctcactctcaaccatgtccggccacgccctcccgcagggaggccgctaaagttttgctcgagaggggaaactgaggtaga
0.2012142445231217 cgtgttactttgctgtgcctgtgctgagagaccatgtgcccgagcatctggttgaccggcatgaagtacatcagcctgtcttagcctgagctgctttgaagaccatggggtcttgtgtttccaacttcgaagtgctgatgtggacagtttgccaatgttctcttctattgcaagttcagccagactccatgactcatctgatcccttttatggccaaatcatccttcagagtagggaacactcagacattctgtgcatgttgttc
0.6413621039159186 cctcctaaaagactgctgttcaagtaatttataaaatacttagaagaacaaggaatctctttgatcataaaatatttacccagtccatcagggtcaagctaaattaaaccatctgtagggttgtcacatgctgaactaagcagtttttttcctctccaaaaggtggcacaatcccatactaaactgagccttctagaatagtttgcaataaaagtggacaatctagacaggcctaagaatggtctggaatcagcagagttcaaat
0.7622629071259366 tagactttcagagaggaagcaatcaatgcatttctgttcatcagccaataaatggatgtggtcaaaaatactaagtgccagaggcaccactgcctgcaagaagtacagtttgttatattgcttacaatgcagtattttatccagcctcttccagccaaggacctgtaaacgggagtctgttccaaaaccttcctcctcttccagttgtctgtgcaatgtattggcactgttctgctgggctgtcaaaaaaactggtttagagatg
0.1044215770890837 tttctctgtatagagaatggcataacaatctgtccctcactctcaaaactgggcacatacaccaacgtcctcagggtcgctcagaccaccggggccaagaaggactcacaggagaaccgctgtgtcagcagtcccatctggaaattctagaacaggagggaggcaagggagctgtgtaaggggcagtgggagcatttcagttcgtgagagtggcctctggaaagggcgggtacgggtggtaaagagacaacaggctgggctccac
0.06021077321891882 atgaaaatgcactacttgcatctccagctgcaggaggcctaacgaatcagcagccccagctgctacactccgaatggaggacttgatgacatttcccctggatctgcactagcccatgaggaggaaagcctcctatcaagtcctcccagcagaacacccatgatgactcatgaggatgttgaaagtgttttcctgtgtcaactgtgactttctttcttcaaagtctgttttgttcctgcacattaactgatttatatcaaataag
0.6278017718912048 agcactcactatgactcagctccctgagcacctgactgctttacccttttccatcaccttgagagggaggtatgac
0.6443016677843455 ccgccattcccaattttacagttgaggaaatccaggctcagtgaggtgaagtactgcccaaaccaagctctctgagtatagcggctaggcctgtctcattttctgctgaatctgcagtaactaaaaccatgcctggcctacagtacgtgttcagtggttactgtggctggatgaataaatgatgaacaaatgaccacagctctatcgctctgaggctctgtacagccaggagcttgggcatctaagattctatttcagcccacct
1 agcaactcaatgtgttttcaaaaccatttcacagaacctatacttccaggaaatgcagaatgttaaacagagggaggggttaggtggtgggatgaggggtgtgtgtgcatggatggggtagatatgggtctgcctcatcattccagggcctaactttatcacaccagaacgggggctccaaggtttgaaaagcatacatttcacagttcaaaataaaaaacctgaacaatgattctaccacatgatgtggtggtattcggcacag
1 ttgagcctagaccggttccgaacccctttcccgagccctcctgacgtcatgggaccttccggccttttcccgtgctagggtgggactacgtgtcccggcatgccctgcgtcctgccactgactgtgaggcatgctgggatttgtagtcttcgaggtgggagtgctcagtgcgccgcagactgtgcgggcgggggtccgaggtgccagggtggagtttctctggtgcgcaaggtcatgtttgctgttggctcccttctcaagactg
0.722494197116339 agtcctgggtcaccagagccagacttctgatgtgctttagtcctgtgtttacatgagtgtcagacggagcaggctccaggggaacacggaaatggcattaaataacgctgaatcacacagtaagaaagttccccttcccttctcctccgtgcctgctgattactcatggagaaagtctctgtttcctgccagcatgtctctaacacctctctgacagcccctaatctcccttttcaattgggaaaagcagacttcaagctcagaa
1 aatagatatttcagtacctatctatgatagaggactgctgtaaaataatgtctttcaactgaaagtgcttctaattctcccagaataactttttaaatctacgtaacctttaggatgagaaggcaaatactcttatctcatatgacagatgagcaaacaaagggacttctgagacctttttaggaagctagtaacagacaaacaaaactagaatccagcaatcccatctctatgtgtcaggttatttttcaccttgccaaagaaa
0.5591890669041084 ctcacggaccctcacctctgcggccccgaaccgcgctcccgccagcgaagggttccgccgctcagctgccagcgaccggcgcctcctctggctccgcgggactgacaatgaggggcggggccaaattgtgacgtcagcgttctggaaggcggggtctttgtgatgggcggggttgtctgtaggccccgccccctccgtcctttttttcccttcccaggacttagactccaccaagtttttattgcctccgtagctgggtcctgtg
1 caggagatctgggttgtggccttcattctgccattgaacttggttgccatccttggacagtgcctgaggtccctttaaacagaagctccacaacaaatcctgctcaccctgcactttgcagcccggccacaaagcaagcggccacacccagggttgggtttggaactgttccaggtcacgcccttgtaaaatgagtaagcagagggcaggcctgcccacggggctgggccccgggcatctggggattgacaggagcgggagctct
0.4659966660452995 tatctggccttaaaattaatttcagtaatatactttacctaatccaatatattcaaaacattatttcaacatgtgatgaacacagaaaaactattattcctacattattttttatacttagtcatcaaaatctcgtgtctttaattcagcacatctcagtttggactagatacatttcaaatgctctgtagccacacatagctagtggctaccaattgaaaaactctggtactccagatgtgtgccaccacacctggctaatttt
0.4489558561139583 gtcatgaaggaaatcacccagtgctgggttagagggggaaagggaaagtgggttaccttagcaggttcccagagcttcactgaagagttttatttgagctgcaactagaggatgagaaggagctgaccttgcaaaaagcagaggaaagagcacggcaggcggaaggaacagcatatgcaaaaagctgtgagggggaaaagggatggttgggaatcctttttatttttctaaacaagcaaatcaatatgaaactataattatttag
1 attgtgaagtgagcatcatgaagatgagaaaatgttgggagatcatttttgcaaagggcataatagtcggcattcagatatgagttaactgcagagggaaaattgcaagctgtcatgttggccttgttcctctcaaccttctggtaacctaacaagctcctacaggttgtatgtgaaattgcaagatgattatatagccctgttgaatttacaaccagatcttgctttcaaaccattattagccaagggtttgattccacacctg
0.03042778548156643 atatagatgctgtcactgacaaacactctttttgagcaaactttagttaggttcctctgtcttttcaattagaacttgaacttggctctgtcctgtctttggttggcccagcccagtcctagcaaaaaatcctgctaagtcatccccctaccctggatatctgataaagttcttcatcgcccacctttgatgtgtatgtcctgggcctgcctttagcaagaatcttgttaggtctgtttaacaagaatctccatattcttgacgt
0.2737249643572019 ggctttgcccctggagttttgctattcctgttctgtgatgtgtctctatctcctccaggagatagcttgctatcactgcattctgttcctataagaaacagagagacctgggaaattgaataaattgcacagtcatgcagctatgatggagcagttagtattctgtccccggtctgtctgttacacaagtcctctcttaaccacatgaggcaaagtagcagaggtaaggagcaatgtttgctcccagcagaatttcacaaagccc
1 agctctgactcccgggtggttgggggaccttaacaaggaaagaacacgtgttcacagctgtaatttagaccttagaccaggcatatggtctgtccccagctaactccagcagcaggtcatctgtaaaattgcaacgttaaaatagcgcagtcattacccactacagggccaaaaataactaggaccggaacagggctgtgcactcaggcctgtatttgcccaggggcctctgggagcacctcctgaagccgtgggctcctcccgg
0.5170931635063767 ttcataatgattaaaataatgaagcagttgagggacacctcaggctccagcctgtcctcaggggagcctcacatcctaatctggactgcgccactggctccctccccagcggggctcatttgcctgtctgtaaaatgatgataataatgctgacctttctcatgggaagaagaaggagaggagatatgtgggaggagttaaggctttggacaggagaagattagagatgaaaagcacgagtttcaggctggtttctgagcatgac
1 agcacttctcgttcctcaatctagaactacaattcccgatgtacagtgcgcgagattgcgcattacaactctaaaactacacctcccagagttctacgcgaccgtccagccccgcgtggtcgtgcgaaaccgcccaaggcctgggatgcggtgtgattcctccccctggtggcctgaagaggtgccgccgcgatttctgctctcgagcggagggttttgccttagtcccgtgcgtaaccctccgcctcaccctcctcaaatagtc
1 ttggtttgaagactttgtctaagcctcattatactgaagttgaagaaaccaaatgagctccaccctcactttgcctgccctgatatgatcacttgttgagtcactggagttcctttcattttggcactgatgctgttttctcttgtctgatttgaaacagtactggtaataatatggttgttgaaaatgtgatcacctttatctaaagtgggagaagatacatacacagtatggcaaatggataaaatattgtggcatcaactac
1 tgactccagttggagttttctctgacaacgaagctttatctttctcactgatgtaatgacacttggttgttttggtcttttctttaaattcaaatgttgctctctttgccaaccaatcatagacatcctgtaaagtgcagtgtaatgacagacggttggtttgtggttagataataactcccacttgagaaaacctacaaggctgccacacctcttgaaggccaagtgcgtcttttaaaggcagtactttcacctttgcaatcat
0.2651189978545223 aggacaaagcccctgcttttttccagtctgcagcacaaaccgcatcatcgtacatgtaacctcacttgccttatcaaggcatagctccgaggtccccgctgtggcacgaatgccttaaacacccccgcgtcatgactcatgctgtttcctgagccctggtgacacatgctccctcccggacacgccctcagtgcggcactaacccaccaccttctagaacacgaagcctcatgggctctggtggtggcacctacccatggggcca
0.5370044067680168 agctcactgtagccttgaactcctgggctgaagtgatccttctgcgttaactctccaagtaattgggactacaggcacatgccaccacacccaaaatgctcgccttataacctaaattgctggctcatcaactttctgctgtcaccttggagatttgtgaccaaatgttagctggtgtgcacacgtgtgtatgggcatgagcacctgctgatggtctccagagcacaggggcaggtctgtgtgcaagtgtaggtctaaatggagc
0.05283967539804151 gttgtttccaatcttttgctattacaagtaaaggtgcaatgaataattttttacatagagtatttcatatgtgtggcaatgtatttgtaggataaaattacttagaagaactgctgagtcaaagggtaagtacatttgcgactttgatagataaggtgccaaaatgcttctatggggccgggtgcggtggctcatgcctgtaatcccagcattttgggaggccaaagcgggtgagtcacctgggttcgggagtttgagaacagcc
0.915593018719959 atgggagtggctctgctcaccctcctttctgagaggaggctgaggcctagggtgagcctagagagggaagaaggccagggtgcctggaaggtgggtgtaaacacatgtgccctggtgttgacctctgagggtgtaatgagtgcctgagatgactcatcagctggggaggcctcagcagtgggatatctactgctgggaatggtaactattggaaacattaattactagtagttttgtactcatcagcttagaagaacatttgaag
0.9457547204128002 tagtcccccaccctccacacccctcattaggtcaagaccacacctggagctccataaggcctcagcttccgggcgatggcatctgcagtcgtctcctgggagatctgcactgtcagctctagggagggaacgtgaggcaagcagtggtcattagcacgttctttcaaccctatttcctacttctgttcccagcccgatgagggaggagccactcactcctgggcagggctagaaaaataatgcttaaagacagagacatagacaa
0.6578456977494315 ttaaaaaaagaaaaaaagaaaataaaagaaataaaatttttaaaattaaaaacaaaagaggtggagggtgtcattctaaaatttcagagactagtgaagatattaaagcataaattgtggtacttaaggaaaaatgcttatcaggcacattttaatcacagtaagatttctgtatgacagaaacaacaaaaggtgtctgtcttctatgtaatattgtttttaggacacatgactttgaaattaactggactatacaatatttttc
1 actctaggtggcagaagttcaactcatggaagcagacagcactgagttgaaatcccagttttgccgcttactagctgtgtgtctcaaagcctcagctgccacatctggagaatggccataattacacaatttcacaaagtcatcgtgacaattaaatgaatacataaggtgctgagcaaactacctcacactcctggtagtcactataattcttatactttcctctgccaaaaggagcacttcttttttttttttttttttaatt
0.5391215883665562 tgtgggcagtagacaggccagagctgggatgtgtgggcagggggagtggacgcgcccaagctggctcggcgggggcggccagtgcgccaagcctcccgcctcctgacccccgagcctgggagagataacaggcccgaatagtgctgacttgcggttcagaaatccaatatcctccccggtgcactgatcgactgactacctgagctcccggcccgcgcagagctgccccgattaatcctgtggctccagagccttaattagttta
0.7842160377781251 agatccccatcatttaccatgtgatcttaggcatgttgacctccagaccttagtttccttatctgtaaagtgggataatgttcccagggctctgcggagaacactgtaacaatgcatgtgggagggataatgatttgcttaatcagccatttacactttagtatgaatgtgtttcacatcctttcctgagactgtttagatcaggagaggtggggaaaagctcaagagcatctgggagggaaagtcaaggagtgagggtcagggg
1 aaaagaagttatatcccttgctctttttatctccctgcttctgccaccttcttcagttaaacaaggtcctaactttggctttcttcttcatcctgctctattaaccttcttgttctttccccttgcccaacagagtgacttagcaccagggttcctgtgtaaataagataaagctgcctcttcctcaagacatttgactgccatctgctggaaaatcactgtaatatataaatatacaaatctaagataactgtaacataattgg
0.5809312742391194 ccatagctttcaccttcaaagtcacttcaaggcataagatggctgcaggagcaccaaattccaggcaaggaaaaaaaaaggagggaagagcagaaggggattatagctgagtaagcttctttgaagcactatttccagatgacctatcaactctttcacttttaggagaccagaatattctacctccccacctccaaatatgcctcttttgcataaggactattctgagctgaaggcaattgagaagaagcagatacaacaaaag
1 gtgtccatcaccaagggaatgggtagaatgtagtggatgtacacagtggaggacccagcagacactgacattgttgaactagatgtacacactccaacatgattccattgcaaaaataatgctgaggcaggggaaatgagacacagaataaggtcaaattatgtgaactataacttttatgtaaatttaaaatggatacacacacagaataacactatacgttttacaagcatacctacatcaaggatatatatcgcctgcacta
0.3218318858296539 tgtggcttgctattctgtcctcaggtcccctgaggtggaggcccagtttgtggagtcagcaatccttatctcctatacagagctgttgggctttttctttggtgagggggagggaagctccaaaggggagtgctc
0.28745365924665 tgacaaggcctggcaccatgcctggcatcatgcctggcacgtagtaggcactcagtacatagctgttgaatcatattaaattgaaatgaatatccattcagacattagcacaagagctgtgtcactaaatagctgtcattgcaaaatttacagacaacaatgacacagacatgcttgcatagtttgtaagccacgatttcaacttcctgcattgcagacatctcaattaataatcccattccactcacatgatccttagaaagaa
0.6532649541392297 gatgatgaattgcccttcctgtgctctgtaagcatgttttctgaaattaatgtcctttataactcactagtgttattttctgggataatttggattagcacgcaatgcttttgcttatcaataagccacacctctgttttaaagagctgattcatgcttcttagtggtaacagaagtactatgtttaacaaagaggaggaggtcagtttttcttcaaagaagaaagtttcatttttatgtctttactcctcagtaatatgttaca
1 cccggcccaggacacttagtacttcatgttatcttttccagcaagcagcccagtttcagtccaggtggcctcagcaatgactcacttctatttgtcacttaagagactggccttgtttagtgcaccaccctttaccaagagttaaaagaaaccatgagtcagaactccttgtgtccacctgcttccagattgtccttctactagccctccaaagaagcctcaaattgctattgcccttttgaggttaaattgtctccagaaagct
0.770810995570292 ttcgtctcagcagccggtccgactgcgcggccctccccgactacttccggcaccgctccccgcctccaacccggaaacgcgcggctcttccggccggcgggcgcgcgcctcgcttgcgcaggcgcagactgccctccgacacgtggtggcgatattgagctgtgtgtaggtacaccctgcagcttgcgcttttaactgcttgtggttgagtggcagcatgagcgagctctgcgtattccaacccggcgttaagaatccttcacta
1 cctgctttggtgacagagaaagcaaaaagggcttctgtcgtgagtggcacacgtagggcaactcgattgctctgcgtgcggaatcgacatcaagagatttcggaagcataattttttggtatttgggcagctggtgatcgttggtcccggcgccctttctttactgttatatgttaggcgaaatattacgcgtttggagtaagtggtgctttttgtaactgaaaagagattctgtgtgtgtttttttttttttttagaggctgca
0.310330086377979 caagtactatctaaaatggatgaatcaagaaatagccacgtaagcatattctttagaattgtggagata
1 tgctgaaaggaaggcagtgcgtcatacacgtaatctacagcagtggcagtttaaatgaatctcctttgtgctta
0.5993174284528882 ggactacaggtgcccaccaccacgcccggctaatttttgtatctttttaagtagagacagggtttcaaacattctttacagagagaaatttcgttatcacacatttgggccaggtttctgtcatgtcagcacttgaggaggctgagactgaaggatcacttgaggccaggagttcgagaccagtcggggtaacatagtgacaaccaatctctgagccatgattgtgcctctgcactccagcctaggcaacagagactctgtaaca
0.02529008660281105 cttagctattcagtaagggcagtctccacctccttcctgccctctctttacatgtcagattcactcatcctatcgccaaaagccagctggacttcatttcttaggactgactcatctgtttcagccgccaactgttagcgatgcctaaagccagtttatgcttatgcaagggcgccctctggtggacaactgggcaccgcagggatgggaggtgggaaagacccaagacatggtctgggatgaagcctccttccccacgcacctg
0.9445826061234259 gattaagttctagcattttcgattgtggttgttagcgttgtacaaggtaaataggccactggagaaaccagacacagactcagatggacacagaaactccacatatgtgggggaggtgctgcaaagaggaggggagaggtggatgactcaacaaatagcgctaggaaattggctagatgttgagggggggtaaaattcacatcttacatagaaaataactgtataaagtgaaactctactgcagaaaaccaagaaaaaataaaac
0.9791583104399202 gccagtgtgtggctgagctgggattcagccccaggcgagtctcactcagaaagccgtgctccagtgctagggacatggctttgggtaactgtacaggtctgcagcaacctcaattcttgcctcctcagcaaaaagaattcaattcagaggcataggcagaaggagagactgaggcaagttttagagcaggagtgaaagtttactaaaaagctttagagtgggaaggagagaaagtatacttggaagaaggccaagggggtgactt
0.2482189326371235 tgtgacaggaagcagacgcaggcaggtctgagtttgcagcaacccaccgcagcatgtggatctaggctaattttgaggaagcccttccagactcatgagaaaactgttaaccacaggccctgagtcaccccaggaggaagtcgcttgggtctaggggagatgagtgtggccaggagtttgggagtagggtgggtctaggcaggacagtacaaggacactgaccctcagccaccccaggcagaggggcagccttggcccccgggca
1 aactcaaatgctggcctgggatgagcagaagcaggttctcagcttcttcaagggttggagggggctggggaggttgtgtcagggtgtgggcagcagttggtggtcagtgactttcccttgtggcaggaaggagaggtaggggaagcagctggagttgggagataggaggctgaggcagcaggacccacagataaggcaggaggtgagcaggggcgggtgtgcacatcccggcagctggagtgtagatgaaatctcagagagcccg
0.8605339930012539 tgttctggctcgattccaccctccccagtaagcctgaaagctggagacaatgtgtgtggtgccagagtgtgggtgtatttggggtaggaggaggccacactgtcactgtcatgtgaccatgactagtgacttgcattgcagtacgtgtctgggggtgtgtaagtgatgcatgaggataaacattcttggaaggacgcgtgtgttctgtgatatgtcttgattggctgggcggtcaggattgcgtatggttttgtcattgcatgct
0.3446603615338654 cgaaagttcatgatgtgggtctccacacactgttctgtctgtccaagtgggagctgcaatctggtcctgcctgccgtctgccatgatgttcttgaaaaccaacaagtgcttcttaaatgctgacgtatcattttcccatgtctgaggtatggaagcaagcaaaacagaccaaaatttctgtttccattgatttcattttctagtagagatgcacagataatttttaaatgtagactatatagtgtattaaaaggtgaaaaacact
0.4321355073783029 atgatgaggaagtagaatcatgtggtccccaggccctttgctgaaatgtctttctgctgggtaattaattacgtggtgttgaaatgctctgcgtcaactccctttggtttagtcatcatgcttgcttaatgttctgttaatgtccatgctgctttctaggaacttgcacatcagcatcgctgtccaggttaaaggaatttgcaatgtccccgtaggccctgaatttctaccctgaatgaaacaatgaaaagggggtgaccatact
1 attctcccagtgtggagagggtggctgccctggatcagtggctgtagggtggtcaagggaaggaatcccgctagagagacccagcaaaggggaaaatgaactcgggggctctgtaatgccaccagccaccaggaggggtcagcagagccccaaccaatgttggcccccactggcagttgggatgaagaaccactggccagaggtttgggattctctgcaatgaccagcctaaggagagcaggggctgccactcaggtcctgggga
0.6724761066526009 gactgaagacaggaggcacctcttctgtgcccatgtgcagggagggccagcagctccttgcactcgccagtgggaaaggtgggagggagccttcagtgatggttgagattaaattttttgccaactcataggaaagcgtttagagtgagtcagactggagttggtttaaagtgaatacagaaacagggtatttcttgtttgtgtgccaagcttcctccctactacacctgtctgtgtgtctcttaatacgctgcagagctgagac
0.9454593100595734 tgtgtgtgtgtgtgtgtgtgtgtgtgtgtggttgggggagtagcccaggatgttaggagaaacagagactcctaacccagcctgctggcagtcagggaaggcttcccattggaggcaatgcctgcgctgtgtcccacaatgactaagctttatccaacggaggcaggattggagttctaggctggggaacaggtatgtgcaaaggcacagaggcaaaagagatcctggcctcttctggaaactctcagtcactggtgtggctagg
1 aagaggagaatttacctggctgcccagtcctgcagggagctactccagacagacactccctgtataggaagggccttccatgagcctggcagaagcgctaggcagctcactactgtcctcttgtggtcagaacaggtcagagcttgatctagcaaaataccgctcacccagtctactctgaaagtcaaggtcatccccagaagtgtgacctctggctatccctgcagttaatgtgctgcacaccagcatcagtagcccagcaccc
1 gaatgctgagcaggcaaaacaacagatgatccagggattcaggcattgacactggtaattataagccagtgtgataa
0.3815481657774423 gtcttctgcccacaaaggaactgcaaagtaaggcaactccaccaaaccacacagactgagagagtcagaggaagagtagttccccaagggaaaaatcagtgttcttatgaggaggaagaatagatgctgagcaggcaaatttagtagtccaccactacaaggtgggctggagccacaggtaataggtgggtcacattcatggcagtccatacaagtggacttacctcccccgctttttttgagacaaggtctcactctgtcgccc
1 aaaaaaaaaaaaaaaaaaattacttggacatgatggcatgggcctgtggtcccagctgtgtgggaggctgaggtaggaagattgcctcacaaggtctaggctgcagggagttgattgcactactgcattccagcctgtatgacagagcaaaaacctgtctcaaaaacaaaacaaaacaaaaaagcaaagtgctgaaagaaaaaccgtcaagcaagaattctatatctggccaggcagcatgggcgtggtggctcacccctgtaat
0.593218004354806 ctgggattacaggcatgagccaccgcacctggccagcacatagtaggtgtttaagggaggtggggcactccctccccctgcaaatgatgcaccaaagggagggctgtccacacccaaattatgcccactcagcaccttggtgggccagtgaaccacccattccctcacacttgtggtgtggctttgcaaatcagcctgtttcctgtatacagtgtgaggagtgtgagaactcaggcaggctggactctgagcggggccatgggat
1 ggcccagagaagatgcagaaaatacagatcatatccaccatcaatgccactttccagcctggaagcatatgggccattcccttggaggatgggggagggcagttctactctgtgtaataaaatctcctgtgtcagcacagtggctcatgcctatagtcccagcgaggtgggaggattgcttgaggtcaggagttcaaggctgcagtgagctatgatctcaccactgcacttcagcttgggtcacagagtgagacacccctctcaa
0.8457462816027583 acctcaaccaatgttaaaccgaaccttcgccgagggcggggctctcacgggaaaggggtcaacccgggactgaggcggcgtgggaagcgggcgaccttatctctgctcagctggaaaaaggcccagggtaacaccggaagtgggcttatttgcgcatcagctactttcgcttctacttaaaaacggaggatctgggtaaaagaaccgaaaggctgtacgaacctaagacttgtctccgatgtccttctcaaccatcaatttcata
0.9114562744824038 agcatatttaaacagtcaaatacataatgcattacctaattattctggattttaggtaaatagataatggttttatcctgttctgaacctggcttttctaacaatggaacaaacctatactttacaaatctgctgactaaaccattttcaaaatatcctatcttggctaaagacggtggctcacacctgtaattccagaactttgggaggcttgtaatccccattactcaggaggctgaggcaggagaatcacttgaacctggga
0.9531872243006934 gccaccaccgccaccgccacgactccggaaccgatcccgagacatgtctgtggtcaaggggcggtcgaggcaaaagcgaagaagacgctcaggaaacgtggaggccaccttgcttctcacaaaatggcggatgacacaggcggcgcgccgcctttgtcctcgtcttatataggccagctggcacggccccgcctactccacgatcgacagctccaatagccaattgcaattactatgcttgatgacactaagttgcgaacctctg
0.3771970010678667 ttcattgctcatatataccaaatgtaagagcagatttaaccatttctctgctccttattcatagcatgcttacctctgcagagccactggtagtcagaccacctaattcgttggagtcattcactttagaatgctgtgtcactataggtgtaactacgtcactgggactacctctcttctgaagcttcctgattaagctctgctggtcactggaagatacagcaggtctgagtgcagctctgggtgggctctgcctccaagatgc
0.7211335035562523 cagagtcattcagattagacagataaataaatattcaggttacagttattgcctaaggaagaaaactccacattcagtctgcagcttcagaaaaggcctaaatcttcctatctcactttcactttcacttttcatttttcaaatagtgctgaataatcctccctgggagacacgtttcctgtttgaaagcttctgaaatgccaaaatcctttaataggatttaaagaacaaaatgctactgtcaaatactttacaagtgtttcag
0.6847959418651347 tttttctgataaaagtcatcttaatgggtgtctcactatggttttgattggcatttctctattaatgatattaaatagctttcatattcttgccttttttaccctgttctccaccaaagcattataatttgcttactaggcatatatgagactcaaatccactgcaagattctcagaaaaggtgcaaagcccttaagatgatcagttattttgattttatcaaaaggccaggccttcccaaattcccagcaatctgagacttact
1 gctagacaagagccctctgcattcccaggacagaggacagctgaggtgaaagctgcagttggccagccggtctgtcggtctgggctcctccctgccggctgcccttggctgcccacagaaacctgagtcacactcacagccagccacccaaccccaccctgcctgctgtcaagcagggcggttctagagagagtggaggtggagcctttccctgcctgtccaacagcctccgagattttgcctctctctgcctgggattcctcct
1 ctcctagcctcaagtgatccttctaccttggccttcctaagtgttggattgcaggccagacccattgcacccagcctcagcctcttttttttttttttttttgtgagacagttttgctttgtcacctagtctggagtacagtggtgcaatcatgactcactgcagccttgacctcctgggcccaagcgattctcagcctcccgagtagctaggactacaggcatgctttatttttttgtagagacagtctcattttatggcccag
0.6544136142374507 gaaccagggtgctgtcaagccagaaagctgcaggtgagcagggagggagagaggtcatgcttccctcagaatgaggcatttcaggggctgccgagcggggcctctctggagaaaagggctgagtcagaggtgggttactgagatatccctccaccagccaacaggcagcatcccccacccttccctgacacaaacactctgggcgccacccctgatgcacttaatactcacatgtagatgcttctaccagggatacctacagacc
0.8113919866832449 gtttcggtccctttctcctcctcctccagcaaccacgccctccatgaatcagcttcttgcaccagcagatgagccctttaaaggga
1 gacctgggtaactgcccgggtccgaatcaaactcagcgtcctccacgcgaccctcagcatggtgacctctaacccccgcggggcccgcgccgcggccgccgttcgctttgcggcacggaccgggttacatgggcgccgccatgctggcccaggatcgaccaatcgaggcagttgcaataccggagcagacgaagaccgagagaatggattaggtggcgtgactctgatgacgcaacgcacggggcggagctcagagaccgggttc
0.5731429680317044 gagttgcctggtttgatctcttatttattacagagaatattctctgttatggtgagtgtagcgggagggagttccagcggcctcagtttttcctgctgactttgcagccagccttttggggacctctagcacctctagtggccaccctggtactgcattcagtctcccactcatcaaacgtattgagcacccatcacgtgccagatcccaagccaggtataggagaggccagaagaacaaacatgaaaactgccaaatagactga
1 catcactcacagccttccctttggtctctcacagcgtgggaggagggagcggaagggagtgaagtggggggagggcggcttttaaagaaggctctggagaaaaaaaaggctgaaaacgccaagtcattggatctcaaattgcctctccagagaagtctctctttgcactttgttaggatttagagaaaaaaaaggaccagatcaggggctggggctggagcccagagggagaaggcagagggctccgctggaaaggggtggggag
1 ggggttgtcacccaggagtgagtgaaggtctggccagcactgagggctctggggtgcagagaagttaggagatccatcaaagcagccagaccacctggtgggaggcggcacacactctgccagtccggacacgggttagggagtggcatcacattccgccgagtcattgcctgcgaagactaacgtcacctctgatgtcagggctccaaggggcttcgttccagctccaggctccaggaaagggcgtcgcagggcccagaggtta
0.3764851613638964 agcaaaacatccaaagaataatatatctagtagggtataatccaggagtgcagagagttcacactgaaatatccattaatagaattcatcataccgacaggtcaaaaaggaaaaaatttggtcatattgaaaatgcttaataagcattttataaaattaacatccatttctgatttttagaaaaagttcaatgaagcattatatggcctagggattaaaggcacagggctttgaggtcagacagacctgggttccaaaaccaatc
0.6644299860006158 ggcatcattttgtaatggtgaagagggaaaagatggcgagagaccaagaagtgatgaaaaagggcctcaacagtcagcagaaaacaggacccacagcagttcttcagagagcctgagggggcgccctggggcacacagggaaggcttgcatagattgagcggttgctgagaatgcataatagtgtttccctatggacagtctcacagcacagggctgattgagcggaaaaacgctgccaggccagggccacatgggacaacgacc
1 taggctggcaaggactaaatatgaccagtttagctttcaaggaggaagactacagtgcaattactttacggcaacaggttggttagtggtgataggcccctggagagatgacttgaatttttccttctcaggcttcccttcagtgggccttctgtgaactgtctgtggtctggtgataaagctaaaagagaagtgggcaagagcaaaccaggaagcggggagggcaacacagagatgcagagcatgctcaaagaggaagggggca
1 cccttagtcgcggcttctcaattcagaccaccaacacggccggaagcaactcctgccgcccagcgcgcctgagtccccacgttgcgcatcaggctgcaccaaagttccgcgagtgccggaagtgccccgggacttaagaaaacaggagcaccacaaggaaggccagtccatgttatggagatggcaacagtgccacctgctggtgggaggtgtggtggagcgatgccgagaggttcgcagatgcctccagggggcataggaaaac
0.5424658840901945 tcactcaccctagaggtccccacacactcttctttatctcatgcttagggcacccctgctgttttttcactctgcaagggttttcaaaaggaggccctgggtggctactgacaggcctctcatggtttcctgtgagtgctgaatcactctctgatgcctgtaaccataggccctccttccccctagtgagaacacagcctttttcctctgggtatattgctcactcttacctactggctgcctagagctcttgcaggcctcaagg
0.8122796277963422 ccagactctaaatttagctcccttaccacagttgcctccctgttactatgttttccctttgtagtattttataaacccttggattaagttggtagtaattttagtacaactggcaactgcttgcttagtgccgagtcattgttgcctctctctgtccttaataggccaagaaacctactacagcagtgcttgtgacctgtctggtgctggcagggtccctctcatccttgggcagagcccagttgtggggaggggagggaacagg
0.02579240966480634 ttcccactcatcctggaagctggggacccctgtccccatctcctcactccctttgaggaccctgcccagggaggccagctgccctggactcttcctgtcttctcccactgcctctgtctggggaagtcttggtttgtctgactcagcgtttccgctgtaaatcacatctaataataccgagagtgagagctgagacggaggtgctgtgggtgaaggggcaccggggaggaggggcacgccgcctaggtgccaatgggtgttgttc
1 cttgcaagtgcaccgctgatgtgatgttttcctaatgaaggcgtgcatactgacagtgttgttcttctttgagggtactttattgttgtaacacagcaagtttcaataaacctttcccctctaaattgcaacatatgcaaaaaagcaccaaaacagaagtcatagttctatttgctctatgagggtataaaagttactctttttccatcaagatggaaagtaaaaacaaagaaaaactgcaaaactgtgagtggctgaatgggag
0.08063411638746888 gctagttatccttgcctatgtaatgcagtcatattttccattttagcctatttcactttttatcttttgaaggcacacgatcagatctatgtcatctttgaaagtactagctgcaactcactaaacggatttcatgactcactactgagtctcagtcagcagttcaaaagattctggcctaatggaaagcatatagatcttggtgcaagaaaaacctcgggtccagtctcagctctgccactttttacttgtgtaaccacaggtg
0.3288074358024772 ttcaaagatattatctgtagtaaaccctataattccccatataatcaccggtagcattttaacacatttccttcgagctttttttgtgcatatgtcttgtacatagttgaagtcttagtaatgcacaattttgcatcataagcattttcctgaatcattaaaaactttttctatgcaaagaaaaaagttaatggataaataatattccactctataaaaatactataaatttcctaaatcatttatttaattcactgttggatat
0.9151871238352749 cacaggaatttaggcagggagtgaaactaaggttgtgaaaatagtaatgtaataaagcaggcaaatcaagaaatgtgaaggggtaacatccatgtgttttgatgactaattgtatgtggtatatgagggggagagggaagaacctaggatgacttggaggtttctggcttgagtatttgtgtgggtgggtcgtgtcatgaactaaaatagagaatataagaggaggaaggttattttctgtgaagtggtggcagtgatggtccac
0.1375821415842843 actaagtccctaaatccaaactccaatttgctcaaaggaggacaaattttcttcttcctgaaataatttgtggactacatgaaaactgcatccaaactagggtaaaattgggaaaggatggggttactctgcatcgtcagcagattccagacaggggccagagtaccatcagtctatgagagttttctaagatctccagggaaaacctgccaatggcctcccctaggccacttcaacagatagatgataacccactagccacctg
0.7400021538687396 gcacaactcctaggtcagcagatcagactcttatttagagtgagacccgtcttcaaaaaaacaaacaaaaaactcaaaaactagtgcagcatgctctgatattctgcccagtcatcagccctgtgtgcataaggttattcatcacaggatggtttgtgatagcgtcagtctggaaacaattcaaatgtctattactaaggaagggactggtgaaattaactacagaacatcctcaccatggaatactaggcagctgacaaacgaa
0.7939473360132641 ttgggtgagctctgctgccaatcactttccccaccccccgcctcattgtttgcaatctgttgcattttgttccaggccatgtggcctgtgagtgaactagaagctcacaaacaggttcaggttaaagggtaggttagaaaatgattcagcaggcttccctacatcccaaacctttaattttcagtgttaagcctcgtggctcaggaagattctatctaagaaagaaataatttaagacaccattctccctttcagagagtagtgt
1 accagagcctgtacacagagaatggacagagactatattgtcttccttactttatcttgtgagctgcttatctcttccacagggaggacaatgtgttaaattgagataattctggcatgctgtcatctttgggggaatcataattgctgttgtcattttaggcagcttcaagggagttgagttcattcagcttcagttacctgaactgaattcagttgcctgaattgacgcttttgtgaaatggaatctttccaagtcaaagctt
0.9632479781885349 tagaaattaagaaggctttgcagttaggaagtgacatgtctgaagtggtgttttaggaagactagacagaaagaatatgtattatgtttaggacaagagattgtagccagcaagaggacaaaggacaggacttgctgaccgggcaaaaacagaggaggatgtacagagataccttcaagaggctcataaggcttctagcttgggagactggaagaatagtggtgctctgctgctaattagaagaaagaatgggtggagggacaag
0.8247605063968501 tgtgtgagataccatgcttaggagttatgaacctcttgatcagaaatttaattatcaggcatattcgtgtattttaaaatgccaggtaaacagcaatattaagagctaattaaaagaatgttagtatttgctgaaactgcataattggagaaagttaagtttaatttgagacattggtagagaaagttaaactttgcttgtttaggccagtgcaggagcatgtttaccaacaatccctgtggtaacttagaaggcatggagataa
1 aggaaagccagaaccctaggccggaacccagcgtcaagacgtgggggaagaatgttgatgcaacacagctcagccgggcccggaactcggcgtttgggtccccgccctctttgggccggaagtgaggaaggtggggctggggcttttcctgtagaaactaggagggactagggagagtctgcaaggggaagagtgtgtctgtgacactgccagcagcgcgcagagggagggatgggggcgggtatcggcgtaggggccctcggaa
0.8076238867081476 ttttccggcagatataacattgcgtgcttctaaaggatcttgactgttgctgaaacaattattagtcccaggaagtaatgtaacaactcagtcatagtttatatacttagggggtatgactaggcaaattggctcctgtattgaatatgtatttgactgttggctgctgccaggagcaacttatcgtttggttactcagaaaataagttcccaccctgtcaattctgggaagtcttaggtatggtgtatccacattgagtatatc
0.4968351589859996 ttaaagcagcctctcatcaccctgcctcgggatgatgaataggttccacaagtcctgtttaaagaatataaaaataattttgcacctgtcagcaattcctcactgaaaaatgtttctggtactggaacactttgctctattaagtaagaagctgttggtcc
0.5934965037048552 ctttggctacccctcccccaaatttcacagatgggaagcctgaggttcaggtgccgagagagctgggactagatcaggcccacagactcccagtctgctgtcatgctcttttcactcccctcccaatcccccatctagctgagaggtgattcagcagagattaagttccatgacctcagagggaggagaaagctcttgcaatctcagagacgatccctccactggcttcatacatgtccatacgatccctccactggcttcatac
0.4280660455469112 caggtaacagaagagcattcacaccaggaattgatcagtgacagaaacatacaaaggattcctttgaagttactgtatatactaaagcatgtgaccaaatttgctgggtaagcagtttacactgagatcgtgactcacttgactaggggcctcattaaaggctagcttctactccagctcagtgactctcaaacttggactgg
0.3145283968639864 acatgtggaaaaggattaggcctcaattctattccacacatatctatggaactcctattatgtgccaggaactgggaatgcaaataaatgtaaagtacaatccgtgtctttaaggatctcagtctacaagggaccatgacaatgcaaaaaaggctattacagaggactttgcaatgtcctctgtaatatggagaaggcagaggagggttcattgagcccagagatactggggaagacttcaccaagaaggtgacatttgagtgga
0.2644349163790819 tgacgccccctcaccccctccactcctgtgactgtggctcagatgactcagtaaattacagttgctgcttcttgccgcaggaatgagcatgtgatgaagcagagccaatcagagtccttccctgagatttttatctacaaatgttgggcaggaaaatgctgatctttcctctggggtccagaatgacgtaaacttggagctttgtgtggtcatggcccagatttgtcctgccaggaaggacgtctatctgcaggggaaagaatca
0.4149823369386716 caggcatgagccgtcacattcagccaaacaaacctttatttgatgaacattcaggttatttgttgaattggattgaattaacaagtgaatcggttaaacaatgtgcaacaatgcctatttatgctgaggttgtaaaaatgaagtatttctttccctctctcctaaatctatataactctgacttcacatttcagcaagtgaaaaagtagttaaatgaccccagaattattagtcagaaaaatgcatcgcagccctctccaccttc
1 ttctgtattttgttttagttgcacattgagaatcctgattcaaaaagaagagttgcaaagagtaacatgttttccatatctgtcttaccccatatattaaagatgaacaaaagcttaaacttctacacaaaagaaaaatacctgacatgacacatttttaagagtctccaattggttaaaatcaagtacatgatagaattaagcattcatgtgtactgatttttaattttttttaattatttcaaattcatttaaaaatccaatc
0.0508040111053612 ggtacgcacctctagtcccagccacttgtggcgctaaggcaggaggatcgcttgagccctgcagttgggaggttgcaatgagctctcatggagtcactatactccagcctgggtgacacagcaagatcttgtctcaaaaaaataaaaattcctacccaaagacccagtcatcttcaaattattagcgttcaattcagaacagagttctctaagtctgtgttctaaaaacagttcctcttattgcactctaagtttgagtcccact
0.3524764220175098 gcccacccacaggtctgtatgattaattggctcaagaaacaagtatagtcacaaactcagggacagatacccaccaagacatataaaatgagtctgacctggaaatgaggttgtgttactgtttgtctcttaggagcaggatgattcagcattccttcccttacatttagagctaaaacgttggtagctaaatggcaaattctaggtcagattctttaaatcaaagtgttcttggatccttttacaagggctgagagtggggtgg
0.1009040635977466 ttggggattcctattagtctttgttattgattcccaatttaattttcagtcagagaacatactcttctgaaaggaaaataaaatcttggcacttcaaattcactatgccaaaagggaaaaattaaccttggaagctgagtcatgaaaaaaagcaaaacgcttgctttttcttttgttcttaaactgatagctatagctagaaggccacatgtgggagcctccctcaccctgacaatgtaaattaacagcttatcttcacaggcaa
0.8638211202959647 gcctcattaggaggcagctgggaaaggcgaacccagtgagtacttcatccgaggaacctccctacaacccgtcctggccacaaaaacagaactcccaccagttggccctgagtcattcattcccctcccgcccccagggaaggggtgatttcctgcaggcagctcaggctcctcccaggggctgtgcatcctcttatctcacccaaggccctctcctagggcagggcaggcaaaccagaagctggctgcagtggggctgtccttg
0.3709403439667328 tcattctccttagccagcccactctcggtccctgtacccgaagcttgccagccgctagtacgcccaacgcaactctcacctgcattgcggcggccgaggcggctgccacgatttcacttccggttttccagtcagcaaacgcctacgagaaggcttcgtccaccaatcagaaaactggaactcggccctcccaccaacttccggttcctgctgggtgccgaggtagcgaggtcaggggtcaagagtggaacaccctcactggccc
0.8133091761649183 tgccagcctcggcctcccaaagtgctaggattacaggcgtgagccaccgtgcccagtgtgggtcattttttttttgagggccatgtgaactgttggttataatgctgaccacacagataattacagggcttatccagcactcaaggaggctatcacaagacactccttttggagaatggccaagtctgttactggaatatctgtttatgacttagataagcattggcccagtttcccctcatctgcttttaactacccttaactc
0.9950029533154917 cctaatccagccccatgtaagccattcgaaggttttcgtggcggagtgacataaccccatttgcggctgcagcgcagagataagatgggggaggggcagagcagatgtagagagatcagtgaggaggcgctgcagaggtccagataagagttaatggtggcttggaccagtgaggcatcagcagagttgaagagaaaggtacagattagagaggtgctctggaggtaaaatgaacaggattctggcttgcctatagatggacagt
0.9262243578342655 caccactggagcatctgggggtggggttgcacaaggctttgtgtttctgggagcttccagaaaggttcatcaccccagactagatcaagttgaccagtccacatcatgcctcaaatgtaataaaacgcctcactcagcaatatctgctcgttctcccatcggacggcagctccgtgaggacaatgtctgcctccctgccctctctcccctctgagaacagtacctggtacctagtaggtgctcaagaaatcagctgggtgtggtg
0.4068321017723371 gctcacacacacgccccttaacatcctctcttctgatctaccagggtatccaaagaagaaccctgtcagaatgaagcttccttagttactagccataggaagacacagaagacacaaatgtgctgactgggctgcctgtgttagaagagacggggctcagcagggaccagctgccctatgcacctcagaggctgtgtctagagacaagcactgaatggaggtggcttcagtcccaaactggaacccaagaatagagtggagtact
0.675861712656168 aaaagctgcccagccccacacacatcccacacctaccctgtctgtaatcaccctgaaactccccaggaatcctggccttttcagcatattttcttccagcaatctccccagacacattgtggccctggtgccctctggtgacaaaagccatacatggcagttacagctgcatccccagcacacattgggccagacaaggtgctgccccttgtctgattattttgtgtcatcacatcaagttttcaaagtaggaattttctgtgtt
0.03974790047020028 aagctgggaaatactgattccactgatccccttcattcactcagagcagaccgaagactgtgagacttcctccccacagtgagctaaaaggacgcttttgtcagagtggggaaataaaagggctttatgggaaggaagataagaacagatgagtcagaggtttctgcttaatggtgagtatttttgtcttaaaatgtgtgtttttcttctttggagaaggtactgcactctttttgtgttttgagctggagactttctttgatat
1 atcgtagagggaaaatgccagaaagcaggcagtgcaccaatgaaaacaggctcgcgggagaaccaaagggtggcaagctcagcacggccagtagctttcaccctcggttgccagtcggcttcgtttcctacaacaccgaccggaagtgtttctgtcggccgcgttccgaatgagcaccgccggaagtttctgccgcggctttgcggggacgggggagtggtagtgggggctgcagctgccggacccaggtgcggaagtgcgaggg
0.3567573286934616 atcttcaggacatggtgaggaatggggcaagagtccatggaacagggaccagaagaggtagggtagggtagttgggaggtaggtgtggagaacagtgcaaggagaaggaaccatgcatggtaagggtgacacagcaggatccttgggtgtgtccacgttctagaacctcaactgttgccacatctgtctgtccagacatcctggcagcagtaatgccctgagagcaaagtgccagtgcctaggcctgcttgacacaggactgcca
0.7007582522089459 agaatgagagggaaagagtcaaaacatcttagtatcattatcaaaatagttttgggtgtgtggactcccagataagtctcagggatcttcacatatccctaacctacactttgagatctgctgatatggcagaatgagtttaccattcttcctatgtactaaaataagtaacttagaaattatttatgtgttgaaggtagaactcatctgtaaattatttgaaactgatggtttttggaatggtatatctttgcttatcatttcc
0.1899679216338729 ggcctgctttatttaagatgctggggtaattacatgggagttagcatatgcaggcagagatatgattcattcttccagccacaagcatgacacagctgtttgcgggataaaataggggaaccgtgttgttacaaaatgttccccttattatacctc
1 tagtgagccgcgaccacaccactccgctacaacctgggtgacatttgtggagctaccccaacctcccaaagcatgaaacaccccacccacacgtctctctttagtaacagaacattcagccttgcctaggcaagacttcaaaaaatttaaccataaactcatagttgtttttctccacggaaatctttagtaaaaggcgaaagatttattcgttatgaagagaaaccagagatctgcctgttagccttttgcctggcttcccagc
1 tagccccagctacttgagagactgaagcaggaaaatcccttgaagccggcaggcaaagattgctcactacagtctagtctaaaaccccacttccaaaaaaataaaaaacgcacactcacaccattacaacagcccaaaataaatgttcaaacaaaatgttgtctcacacctcgcaacaaacacacaactttctatctgatttttaaacaccgttgatgaaccccaccaacatagggcttcaaaaaatttgcttgaaactcaaaac
0.07940629389596666 tctgtttttgtctcagacgattgtgtgaaaggagcttcgttattatggtaaaggaaaagagggggaaaaaagggagaatctccttttaaagtaggacgtggtctgtgtgcagtgcattgtgggtatgtaaatgacgctgagtcaccaccccctcggtttccagaaataccttaaatagttcgttactttttctaggcgttaggccaccaccagggggcagagcggaagccagatttacagaactgtagatgcctggtccaactag
0.2773631801721811 ttcctaagttccgttcattctggtggctttaattaccatttataagccaacgattcccaaaataacatcttcggtgcagatcccttataaggatgaccagtcattaatattcagcttcctatctgttagtcccactcaacatgacttagcaagatctcaaaatgaacgtgtccagaacagctcctaccttagcctaccccatctcagtaaatggccccaatatttatccgattgatcaagtgacaatcttaggaatccttgacac
0.1828820936445417 ggaaactgtggtctggctcatgatggtgcatcactgctgtgtctgtttgcagtcgttgtgcactctgtgccccacacccccacaccctcctgtctggaggagggctgaaaaaaagctgagtttgcagctggtggaggaggagccaaaagaagcttccctgcccccaagactcaggctggggaggagaggggaaggtgggatcaaccttgcttctattagcccagatgcccctcagtaatcaagcatagtcatctcctctgagacc
0.9627004317390452 aaccgctcccagcgatctccacgccgcctctgactgacagcccaatggcgcaggcgcgcgatggccgagaaactcgatggaacgcgcagagcagacccatggagaagagaagaccgccgagcgatggatgacggaggggaagcacactcagcggagaggagggaaggcgggccggagggggcggggccaccgaggagcattcgacacgtgtgtccctctgtccattaacacattaccaacgccttttgagtattcctcccagtgc
1 aggtgagcacctagaggcgaccctgcccggggaacagctggcgcgaccgcggacagagcttcccaccacgcccttccccgcctttggccagcctttgccgtatgttctggactaagcgcaccccagctctcactgtattggactgtgtactcccacactcaaccatattacttatctctgtgccaccctaacccagccgaccaaacccaagattggtgattgctacctgatcaatctccctctctccatttccttgtgactacca
1 atgagtgggacttgcgccaagcctccggatacccagactgtcagatgagaacaaattcctcatgtcaccgtaagatacatttacagcggagttttcttttgggcctttgttgttgcgtcgctacagcaaactttacggtgaaaaaaggtaggggtcctacgggcagcagccagggcagccctggagctgtcgctggagtccgatcatgtgatcttcaacatggcgacgctcttggttccctacagaaaggggcggagcctggact
1 tgtttctgtctctttcatagaatgtgaacaccttaaagggattagaccatcttgttgttctaggtattgctatgtgttagtggtgaatgaataaacccaagtgcaaactcaggtttccaagatgtaaatgtcactgtacagatgaaacagaccaaagatgatgattcactttgcaagggatcagagggaagataaggagcagcctgcacttggcttggggccaccccttatatctctacccagagaaatctgaatccctacagtt
1 cagccaagatttctgggaggaaaatatataccctctatcttgaataacaaactgaaattaaacaaagaatgaatttataagtagtttaacaaaaattttaaatcacattgctcaaaactgccatgcaagcgaaaaaaaaaaaaaaaaacaagtctcctgacaaaggcagaactattaatacatatacatacagtgactttaaatatggccaaaaagctttttcttaatccaggaagttcaaaagagaactaatatccacaaactc
1 ggtggaactacctttctctagaagagacacgtacatgcacacccccaccgtgtagcttgccgggaaactgagtcttcctgatttcgtgtggctgtctccaaggaggaaacgaactacgcatcccaagatgcatcgcgcataggcaatatggtcccgctactggacccatttcctacctgggaaatggagtcgaagctgactcaaaacgtaacggcccaattgtccttgagacttcattccccagcaagctcagcgtgtaacgtgc
0.2166104109673046 aggagagagaggagggggatgtggcccgagccccgcccggcgcgccccgccggaatgactcggcgctttccctcgttggggcgggtgcggaaaaatactaataccccaccctgttgcggatggctga
0.8524495392452498 gagcgcaggcgtcactcccccgcccaagcgaagggcgggattccggcgagagcctgcgcttgcgacagtgccgtttctcctacctgaagtctcattgggtatcgcactactggaaggggcggcgctgccatgacagagaaggcaataaaactgaaggcctagctcgactaaaagcgcttactattaaggaagacttcgctgtggctccatccggcacggaaagctaaaccgtgtaatggctggcaaccaggaagctagactacct
1 cttctgcaggatggtgctgcttgcgcctgttaaaatcacaagagcacaccaaacaaaggagggaaggagtttttaatcctaatgcagttcctgtttttgtgtccttcccctattgactggggttggactgcacaatctaagctgatcctgattggctaagacttaaacttttccaaatatggtaaacgcacaatttgcaaaaagaagaagaaggggggcaggtaggattgatttacaacttttacaacttacgagcggaaagttg
0.3881933376239484 aggaagcaaggaaacatgggtactaatataggctttgccactaacaaattatgtgtggctttaaaacaggagctcccacttctggacctgaattgccatacttgtaaaatgaagggattggctacctgatctctatgcttagtcatctccccaaacagttaaagttccatggtacctcttgtacacagagctgggcaagtctttgtagggagtgtgcagtaggaggcaaagtactgcttagcatttgtagtaaagaaaacaggta
0.1406505518900566 aaagtaacacaattttaaataactgtagttttttttatgaggagccctatgcttgcttgattaaggacctgataagtcagcataaagcacagaaaatttttctagcaagacacaaaatatttgctaactaggcgtattacatagcaaaagaatatactttaatattgtaggtaatggatggcagtaaacagtaaaccaaggacatggactcaccaaaactgaataaattatttgctaaaattttaaccagttttagcttttcaga
0.3039450755448712 attttttgcaactttgatccaaatcatttattaaaatggggccaagaaataaccctgtggagacatctcactcgctgtttataacttcatgtattatagcattctatgagagaaaatgtgcactgttagcaaaaaagaaatgctgatttctcacttgtttattgagcctgtgacaacagagttatctcagtgtggtgctttagctttgattcttaaatggatttagatatttaaaccttggctctgggagcagtagctcaggcct
0.9508976464585702 ttcaaattcaaattccctttgttttaactaatttgagttgcattttctgttatcaaaactgaaagtatcctcatatccaccacatcaagttacacatgtactcttaaacaccatagaaaatgtactagaaaatacagcctagtcagcatcctctctctaaattaaggttgctagatttagcaaataaaaatataggacacacagttaaatttgaatttcaaataaacaatgaataatactgcatggtccatactgcatatatttt
1 tgtacagctgttctctcccccatgggacagtaggcatcttaagaaagtcctacaacctagtgtgtagcatatagcaggtgctggtacatttagtgactgattaacaaactgcagaagaaagataagctaaaaagatcatgagtcagagaaacagaactgggatggagggagaatcacaaatcattatcaaaaaagaatggttgacaaggttgaagactaagttgtcatcttaataacaatagattacagccaggcacagtggcta
0.9085932066911824 cccagccaccccgagaaaagcatggagtattttctgttcggtacctttcttcccaaaaaagatagccattccaatatgataagaagtcttactaacctttggaaggaaatgtcctgggctgatggtaactgcagttatggggaagctggagatgctggggtcagcatattatgctacttgatgattctttctttaggttatgttttctttgtttgtataattctgctttctctatccccacctgctgccccctgcccctcatctt
1 tgtgcctggctggattcagtgccagggtggggcgaaggcgctgaggtctccgagtgctctttcaggtccaactccagaatcgcccagccccacgcaatccagggccagaggttgtgtgcgcagcactcgaatacatccacagacggtgctgcgcggcttttctgagtgttacggcgccctcctcccgcccccgcgccgcgcgggcggggacccaccggttttgctccgctttagcagcggcgaagggaggacccccgggagccgg
0.4940356709336339 ttgtgatctgcccgcctaggcctcccaaattgctgggattacaggcatgagccaccgcgcccggccccttgtgtcaagtactcacttcagccatccactggctgatatcctgcctgcccagtcatccttttgactttcaagcctcagctcaagtgtgccacctcctggacgtctgtccttacgacctctgctggccggttcagaaatgatgcctgtctcctacgctcccacagcatgggtatcgcccttgcaacattagccttgc
0.9556891484751663 gaagccctgggtattatgagaataaaccacgtgggatctgatccagcctgagatgtgtgtatgtgtgtgtcagggaatgcttcctggaggaagtaacattgaagctgaaaactgcattgtcacctgagccaaggaatgagtgtgtttcaaggagggtgaagctgacaactctaaatgctgctgatttactcttgaggagatcactgggatgatataggcacaagccagactttgttgggtgggggagtgagtgaaaggtgaagaa
0.1979283172287815 agctgggcgtggtggttcatgcctgtggtcccagctactcaggaggctgaggtgccatttttgaggctacaaaataccaagcactatgataatggattatctctctactcttcacaacagcttctttctaagattgctaagtcattttgcaaacaaggaaattctaagacaggcagggattgggaaatggcagataaagttttgaagccagttcttactccagagtctctttaacctgtgcaccatgaagcctcctagacctggt
1 taatggaagtgaaggattaagcttctgttgccaccactaatgactccaagcccggccccctggggctctcctcccccagctccttccaggccggggaggctgcgtggccctcacccatgtctcccgctgcgggaaactgccacctcagcctgggatcctttccaagaagagtctggagatttcacaaagacctctgaacaacaaaagttgcagaagcgatatttcctcctggggttgaccgccccgtggctcctttatcttggca
1 gataaaaaaaagtggccagattttggttatattttgaaataaaagcctaaagatcttgctgatggagtcagtgtgggtgtgatagaatgaaaggagtcaaggatgacttgcaggtttttggcctgaacaacccgaaggacagagatactacttatgaagaggaggaaggctgtaggtagggtagactttggaggatggataatcagagtttggttttggacatgttggtttgggataatttaacagactggcaaggagggatgtc
0.05524142656394013 tttccccttgggctcctctagcccagaatgtcaaagttttcagggaattgttagccaaaaattccactggactttgctgacttggcctgaactcagagaaaaaaggaactgctgagacctctgtccatggtgctgatgtaaatcccccatttccacctctagaacgcacacttgcattcctgtctcagctctcaggactggcacagaatcaacaatcccagcatcaccccacatatggccagaggctcagaggccttgggcctgg
1 tggtgcgttatcagccttctccaggagcgcgcctgagccactccgtggctgccagtctgagattaggcccccggagggtcattaagcgccaccctggcccgggcccagcctcctttccctccccgatctggccaggctggcaggtgggaatgagcgataaggattgggggtctcagcagttctggggccagcagctccctgctcccagcactcccctctggatcagggcaggaacatggggtgagggtgaagggctgtaaggtca
0.1267156884708842 gctggctgctggcctggctttgccctctggtctaatcaaggaagacttcccagaagaggaggaaccttggttgggtcaagaaaaaacaatgcgcagagtttaaactggcagaggtggggtgaaaaggcatgagtcacaggcagccacgtaagcaaaagcctagagtagaaatcacaagccacagttcattaagccgaagcccagagaggggaggtgacttgtctcaagacacgcagaaaagcaaggataggcctggagcaaagcc
0.5788271231110487 aaaggaatacgatagcctccttgggtcatgtttcccactatcttcatcaagaacatctggcacaaagaaagacattacagagaataaaggcgacccatgaatgcaattctggtttggaagaaaaaaaaattcacatgtcagcattaactgtcgttccctaggggaaaaaagagcaataaatgatccaaagagccaaataatacaagctgatttgcccagtccccatagtaacagactgagaaaaatggaagacaggtggcaagct
0.9177951691794763 ttatatttgttgttttggcccaaatgaaattatgtcaatgtaacctaaatttatatttgaaaataaccaccattttacatgcattagttggaagaaatatttaaacctctcttttaaagattgtgaacattttgcttacataaacaaattatgactaaagcttataaccatgccaaattgctttctgtagcacccagaaaacttttttttttttttttgagagagggtctcactctgttgcccaggctgaagtacagtggtgtga
0.3700673339840571 acatggatagatttgactacattaaaattcaaatgtttatatgcatcaaaagacaaagacactacaaacaatgtaaaaagagaagttacagactaggagaggatatatgcaacacatttcacaaaaaagtgatgagtatgcagaatacataaaaagacctacaaatcaattagatatgcaaagaacctacagaaaaatagccaaaatatgccaagagtcaattcacagaagagaaaacctgaatggccaatacatatttgaaatg
0.80503705930466 taattcagtgccctaactataaggaaaaagaaatagtagcttataataaaataatatgtaatttggtttgtccacacttgggtacatcaacacttgtagacataatgtaatagtcaaagcttgtacctaactgttgagtcaccctgaaagtgacagctaaaataccaaggagtacagctgtgtgtctctctgacacccggaatacacaggcattgttgttagtaaggtggcactcaaaaatagtgaacaactcttggtaaagttc
0.6349049533830396 aatggtgtttggcaggggctggaaagaggagcaaatgggttgatgtttgtcaaagggcacacattttcagtgatgcaagataagtaagatttcgaacaatgtaactatagttagcaatgctgtattgtatacttgaaatttgctgagagggtagttcttatgtgtttttattcacccaaaagaaaaagataactatgtgaggggattgattgaggtgatttacatgttagttagcttgattgtgatgattattccatagtatata
0.4164365207109588 atattcaaggaaagggaaatattcaacatttctctaaattattactattattttctacagagcattccatgagactaattttccacagaagcactttgggaaatagtgctttaaaatatgctgtgtgggcaattttgctaagctaaacactgagatgcaaacaggaaacaaaaatgttgcagtcatagtttccataatgtctttgcatttacccactttaaagagttactctaccctctcattatttatgatatccaacctcttc
0.1223858089593695 acgtccggagtcattaaccaggaatgtatgtgtgtctgtgtgtctctctgtggagtcgtcagaattcttcataggggttaagctaaaaaagcgaggcgaggagcccctctccaatggctcagttttgctgaataatcacgtgtgaatcgaggggcgggcttttggcaggcagatcttactagtatttactaccaagctctactccagattaaccatcccagtccttctgtcagtctccgatgccatcatgcagcctggttaggag
0.09616141679204178 aaatggcactttacattcgtgatcttcctttaaaaaatttataaccccagtctaatcatgagaaaaacattagacaaattctaatagagaggcatcctacaatataacctgaccagtactcttcaaaactgccaaggtcatcaaaaacaaagtcggagaaaatgtcacagccaacaggggcctacggagacaatagaactagatgtaatgtgggatcctggatgggattatggaacagaaaaaggacattaggtaaagcttaaga
0.2864127278015135 tgagcttcagatctttcccttgaatcctgcttcttcctcagtctcattcttcaaagtaaacaattccagtctttcatttccttatggttaaaccttggtataacatttgactttactctttcacacctgaatttgacctgtcagcaaaatcttactaagctctacctttaaaatatggtacagaggcatacctcaaagatattgtgggttcagttccagaccatcacaataaagtgaatatagcaataaagtgagtcacacaaat
1 gatccacctgttgaatgaacgtctatcaggagcactgtcatccttcttgcttccttcttttgcatatgttgtttgagctgctcattcaaccaaggagagagcatactctaccttgggcagtgtgccagccttgcacagagggacagatgattcagcttgatcaggctgtgacagagaaaagctcagggtctgagagcacacaggatgcgactaacccagactggagggtcaggagagtctccccaggggaaatgaagttgcatcc
0.1070933706274412 atgtccactgtgcaccgagccctgaggcggtgtctccacctgacctgatcttctggcacagaaagccactggcccatgaagagttaaccagtcaccatctcctggccccagatgctgctcttaaccatgactcatcagagcatgtggctgccattagagctgtcccttcacaaaggaggggacagaagtaaggaaggactgtagctcccctggagcaactatgacctccaggacgtcagaagaggaagcagaaggggacagcctg
0.3817059694140692 atttgctgtgatttactgaaatcaagttgcaactttgtgagaggactatataattgaaaggaggattgttcttttggtggaaacacagtatgttttcccttcccattaattactgtagattacctttgacaatgtgctgaagtcagcaaatccacctccaaatgattcattcccaaaaacagaagcaaaggggtctgtggctaaaatgaataaagaaaataaatgaaacaggacagtaagacattttttttttttgagacagagt
0.4218830840114077 gaggtttctgagacatgcttctttgaacaccgaatggcattatttagcaacacagctcttctttcctgtctggcttgtggaggaagagaggaagcagaggctcttatcgctcagaaagctgatgacaattgctagaaaggcaataaaacaccctgactctgcttatcttaggaactgtcagaagccttgagctagattacagtaataactatagaaagctgatgagaaagtcttcgtttttaatttaaacaatttgaaagttaca
0.7643686457252468 tctgtttttccagtttagttaaaagattaagtttactgtaaacatatactgtacaaagcattctagacagtccaatcctagcaaagaagcaaaagggaaaacctttctttcaagtggtacaacatgggaaaaatcatgcactcagcaaaaaagaaaaacatggcctaatccttcaaatttggaataagaggaagtataaggattgggaaacctgcctgtagaattcttcagaactccttttctttgcctacttcctgatcagcat
0.5176631931724659 cacattacaggttcattggttactacctaaacacataggagaagatattagctcaccaaagtgttctaaagtacaccctgtgctgataactacactaatgtgatacagctaagtgagaatggaaaaagccatccaaagtgccaagtcactcatcaagcaagatgatcaaagagtgtttctggtgtgtctcagtaaaattggcttttgttgttattgtcggactatgaacatgatcactttttaggcagggaaaaaaaaatcacat
0.6693213028516219 ctctaagttgttctgatgtgaccgtttttatactctgccttatctgtaagcgttagttgagggtttgtctccacctcactgcactgtaaaatccttgaggacaaggggctgactcactgctttatctccctcatagtttagcctaccacagaggcctcaataaatgtatttgcccgaattggtcttaatttcttagtcacgatggcttcccattacaacaaaccacaactctatcaggcctacacccattaccattatcatagca
0.9716847838288285 agtgctgcagtcatctgaaaggcttgactggagcaggaagatcagcttccacgatgactcacatggctgttgtcagaaagtggcagttccttgctggctgttggaaggtggcctcattcctcaccaggtagcctctccattgagctgcttaagtgtcatcatgacagagcagctggctgtgatccaagtgagagcaaagaggaagcctcaatcccttttatgacctagtcagagaccaccacttctgccttattctgttcattag
0.2213529333210571 agagggttagaaactgaattagtaagttacctgggctactcaagatattccttgtaaaaggagtcgttagagaaatcatatgttctttgctgttacacactgtctggaagagacttgtaatgactttgcattttaaaaccactgctagtcaaaacacatttaagtgttatttggcagtctttagcaatgtttagtagatgataaaaaaatctaccatctaattattagattttagatttttgaatagcttaaatgtatatatttc
0.7885746924675451 aagtatctcagaagaaaagtgttggctgattgccagcactacatagtccaacagtgcttttgttaggtggtgtgctgtagtaggtgttttcttctttaagagattgctttcttggatgttgagtcatgatcatgttgttggcaggaaggaggtggaaaaaaaaaactttgccattttgcttggttatattggccacttttcattattttatttattccagtatagtgattacgaagttttaagtgctttttgctagtgcgtgctt
0.04092531175526216 agtgctccgcgtgtcaaagaaaaatattcccctaatgagaaaactgagaaacgagtgcagagaattaattccaaagttttaaattttcccattcgtgtcatagtttgggtaccctactcctcagacccggggcgagccttcggctgtgactcagcacataaaaaaccagaacgccggaagtattttcctacacccgccggatggacgctgctcccgagcgccgcaaatactaattggctcttctctaccctacagtcggcccgac
0.6091541775361131 tctaccaccatacgaacgtgctgctacttctcaaatcttaaaaaaacaaaaacctcttctgattcacttccccattcaccttcagctaccaccccaattgtctccttttctttagagcaaacatccttcaaagtgctgtgtcatacttggtgtctccaatttctcttctgccatttttaccaggctttcacccctcctactccaccaaaacaacttgtatcaaggttatcaatgtactctatgttgctaaatacagcagtcaatc
0.623582582856848 ggggagcactggtaaaacacagtatttatttttttacctcctttaagaggacttggaggtaagttgcattcattcactcaagtttccctcttgctgtctaatagaagcttactttttgctatatcagcatttgttacagccaatatttaaggacaaaatttagaaaatatatcatttcctggcccatcatcaaactaatacagcttaaccttgcagctaccaacttttgtgtcaagctagatatctttatttgatatctaaggtg
0.0232183225215442 gaaaaccttccaatgccacattgatgcctgttttatttttctggcccctcaagtggctcagcccagagagcagaggcgagtttggtttgctgatgggatcttgcccaatggagaagttgctgatgcagccaaattaacaatgaatggaacttcctctgcaggaaccctggctgtgtcacacgacccagtcaagccagtaactaccagtcctctaccagcagaggtaagaaaacaaaacagcaactaaaattgcatagctacttta
0.8988631898949726 ttagaaaagagaagtaggaagggggccaccagacttctcttctgaaaagaaggtgaatgacagacagcccagcagttaggagctcatctgaaaaaaagatctgggtaggagcccagactgcttagtcacgaaaagcgacctaagacacgtccctccctgggcgcaatttacgtccgtaaaatggggtaataacctctgctccgccttccctgtagtggttcctacactatagctcaaagaacgaaacaagtagagtgctttacaa
0.8418417789372561 ttaaaaaaatcatctaggaggtcaggggatctcaggatgtaatgtagactgtgacaaaataatctaactatattataaatgtatgaaacaacttcacatgagggagtggggggaaaggtgctgacctaagtaaatttgaaaatgagtggaatcgataagacttaagggcaaaagaaaccatacataagcacggtactctagttaataaagttgtttcccacaggggtattggttaacagttctgatactgctatacatatgtact
1 atgaggtatttagaatagataaatacatagagacaaagtaccatagaggttacccaggctggaggggaagggggaatgggagtcactgtctgaacaggctgagtttgtttggtatgataaagaagttctgggaatggatagcggtgacattgcacaatattgtgaatgtacttaatgccactctgaattgtacacttaaaaatggttaaaacggtaaattttgtgttacttatatttcaccacaatttcgttttttttttttttt
1 aaaataactagctgcaaaacccttcggtgttttaagagaagttactatttacacaaacgtggcctcggcttaatcaaatgctttaatttaaagtcacaaacatcccttttctggcttgagaaagctggtggaagcagctcagtgctctgtgttcgatttgttaggtcttgctcagtgtgcagaactctgctggcagctgagaggggaagccggaaagaggcaagttcctggtgcaaaggtggctctgcagcataatttaggcatt
0.1702381830147839 gttgtttccagttgttattagaaataatgctgcagtgagcaccctcgttcatgtatcttagagtagttttgccagcagagccattgggtaagttcctagcagtggaattgctgagtcaaacgtttttttttttaaacaacactctgttgggagtacagaggaggagctggtgggatggcggtagggagtccagctggaggccactgcggggatcctggggcaagtggtggtgatggcttggcgtgatcctgagcaggctgaagcc
1 ccctcattagggactcttaagaccagataccggcgaaataggggaaggctcccccattttcagactgtttttagagagcggatctctttaaatgtgataaaacactgtcggcactgtctctttaaaagagtcaagcagaaaaagctgtgtaagcgctgattggctgcctgtttggatacatctttaggggagccttgaaactgttagcctaggttgattttttttttttttttttttttttttttaactgcgctgttccaataaa
0.3883540483562928 taattaaattggcctgctcatacccttgccctggacttccttctattttgaatgggctaggaatggccagggatggcttgtcaacagactgactcacaagaagcctgactcatcttgtgtctgcaaggcccacaaattaggagtatcggtttggtcctggctaaaaaaaggaagacactgcccttctccggccctgctatgacccaggactcaaccagattggccatgcccttatcaacttcatggctgcaacacaagcatatct
0.5842331997404216 caaaacctgaaagtctaatcatcttgacctcttctagtctactgctgacattctggcttatctgcattcacttcctcatctgcatgaaggcctctgggctagagaatcagccctctgaaactacttcccaagccccacaatgacaccgcagaaagtgatttgcagccacagcaactagattggaaccttttctctgctacgtacagcttgtatataatcttaaaggccttttcttgtattaagatttcgctttccgttgctaaaa
0.016860362261142 atgttacatggctaataataaggcacaggccttgattaaatacccaatccataattcaataaagaggttgtgctgacataatccgcaaagagggacccttatgaatatccaactaaggccaaaacctgaaatgcacgcgtcagcatttaccccacagaggcatattatttgtaaagtgtgcaaaacatttttcttccagtacccacttcaagaattttataattagcaaagtttcattagcagaataagacactttgtattccaa
0.3173849502486706 gatttgtgatttcctatgctacccacgatgtctcgatctgtgcaaacactcaatatatgtttgtgaaattaaattggctaatttccctagatattatgttatcatctatgccaatatcatgccataacccaaaatgctcaatcagcatttatatcttctagaacctgctgtctctctcttgcctggcattaataagttggcaaagttttttgttttgttttttagaaagtagaagaattaaaaacaaaaggtactatcttgggtg
0.4136285078896947 agataagaaagaaaataaacaattaagaacgtttgtatccaactgctcaatgtagtcaaaagctactcctctaatatgggactctaaaattacttcttggttgtagagtatttaaataaagaagtgcagtgtcagcgatgtttgcacttcccatttgggtgaatggtattgctacccccacataccctagtcagaccagaggaagcctttgaaccacttcttctccttcatccccacactcaagcagtcaccagttcctttccat
0.8424406133903186 agccccaccccaaaatgctttattgtccctctgctatttctacatatggtcaaaatcatctcaccttccgggttgctgacatcggcaaattcagtttggcaaactgggctctgctcccagtaaccctttgttcaagaagtgttatt
0.05551527045074386 cttgtaggatcatgtcttatggtgaaaggtaaatgtagataaagggccagcacagagcaggtatcagtaaatatcaactccctcctacattgggaagggatggagggaagagaagtgaacttcatctcttttgctgagcaagcacttatttttcagagtgaatatatcaggattagggtaggggaaagcaaagaggatcaagagatggaaaaatttcacttttctcctctactacaattaagactggaacaatgtcagcctaaat
1 aaagatatccagagattgccaagaggtccatcctagtgttagaagcaaccaggtcaaaccccatcagaagatgcctagtcagactgggagggacattccaggcaaaggcacagcttgtattccagaagctcaaaaatgggcaggagcacagtgacctggaacagagagataaagggacgctcatgagagatttacactgtaggatgatagatcagcattttatgttgtaagtgagaggcaagtacagggaaatatcatcatgtga
1 cttgtcacttctggcccagattaagtactttttcctgtgagttcctgaagtcctcctcctcatcaaccttttatctgattccccagctgctctatgggtaggagatggagggcaatgactagacaatctgaatgagctggaatggttatcagtttcagcctgatttagggcattcccattacaggcatacttactaattgagaccctggacttccaagaccaacagacctgtgcttgagtctcagcttttccacttactaactta
1 aatgaccaagaacagcaataacaaacattcccattctttgcaaaagattatctgaggtgttgaaaagtcctagagacagacataggttaatgctgaatgggaggtctaaattaggtccaaaccagaggataaggtagaatttgaagaatttgcacacccagcaattttgggaaacagagaaagggccctggtgttaatctccaatgttctcaaaattgagaaagaaaaggcttccttgtgggtccgggggaacccatcaaggtag
1 tgatcagcattctgtaaatttaagaattctttgccatgtgctaatcgagtgctaagcacagcactaggtcctataaaacaaaaacataagtgagtcatcatttcttctcttaagaatgtcacagtctaggacaaggttctgtgcccttttttggagtcatgagatcttttgttaatctgctaaggtaaacactttgagacctctttccatagaaaaaaagcgacttcatgtcagtagaatagaacccaagtctctactccagggt
1 agaaagcagccttatcctcatgaagctgggaagctatgctttctccacaaaatacttttaatgattttcgccccagagataccgggatccgagaccttcacaggctctcctggcctgaggaatcacaaaacttgcaaactctgcagtttttcccttgagttcactttaaaaacacaggcaccttgagcacaaaacaattaaggtggtggtttccccgagacaacaaaccaggcacaaacacacaccttagtctgcactggcacta
1 gaggtggcgccattgcactccagcttgggcaacagagcaagactctgtctcagaaaaaaaaaaaaaaaaaaaaaaaaattcaggccaggcatagtggctcacatttgcaagctcagcactttgggaggccaaggtgggtggattgcttgagcccaggggttcaagaccagtctgaacaacatggtgaaacctcatctctaagaaaaatagcaacaagttagccaggtgtgatagtgctcacctatagttccagttactcgggagg
0.5998981666012122 ggaggactgaacttggacggttaaaacctcacctctctggaactcggaatagattataattgcattgacttacactggtctagcttatccagttttggggctgctttagtagcccacaaacgctgactaatgcagatgactgtacacactgagaaagttctcttccattttagtttcctccttactctcttcctgttccccgaatggttgtcatcatgatatagcaccaagtcacattttatagacttttcaataactttctaaa
0.1209691690840538 gggagggcacttgtcacaagagggtgttatgacctgtgttgggggaaggtcagaaaatcctttctggcttcagggaagaagggcgagaagggtggaaggtcagaaggatctctctgcttctgctgtttcttaacatgctgaggtggcatattttggggtagtgtgtcctaaaccccatcgctggcagcctagaatcaaatatttcaaaaatgaaggcaaactcaagacatttttagacagcagatgcacactgaagaaaatacta
0.699114405809286 catctctacaaaataattaaaagttagccaggcatggtggcacaaacctgtactccagctacttacaggactgaggtgggaggattgcttgagcctgggaggcagaggctgaagtgagccgtgatcatgccactgcactccagcctgagtgactaagcaagaccttatctcaaaaaccaaaaaacaaacacttaaaataaaggttttctgacacaagcaaaaagataaaagatacattttcaggatagtccccataaattatctc
0.8918583606118231 tgcctcctcgctcgtgctccctccctcgcggcctccgccagtccgggctccggacctgggaggctggggctggcggccggagccaggaacgagccctgccgtaatgttccttagaggcgcgcaacgagaaaccgctcctcccccagcgcgtcaatcccggcgggaaccccggctgcggaaggcggctgcggccggcgggagccgaggggaagaatggagcgctgaggaagcgaggcgccagccccagccgcttcgctgccgcgga
0.7132116347289491 gcaaacttcacacagatagtggctctggctgggaattgattttttttcttcatgaacattataatcacacaatgttgaacaaaatgacattatttgggaacctgctgtaatgtgcttattctgcagtttcttgattagtccactgtagacattctttgttattttttagttatagtacttgaggatttaactctcttcccataccctttcacctggtttctcttctcctagccatactcccactacagttataacatagattttg
0.4430956737526469 gtgtacaaaaaggtattgacgcaatataaaatagtctttatggcacaggactaaagtgggctatgaatctgcttcgaagagcaaagtctaaatagggattctgagcaaaagcctagatacaaatcaaaaccccatttcataaagctcagatgacacagcaaagcagttaagagcacgggctggagtcattgcaacctgggtttgaattctggcgtctccaccgactagctattgtaatcttaggcaagttagttaatatccctaa
0.2526001624918019 tgtcttgatgaccctctggaaagttctggaacaaagattactcattagaaaagccccacattaggcaaaaacggccaggccctagtatccctaccatgcttagtcattggctgggggatgcccaagaagagcatgacctcagctcaatagctaacaaatggaggctatcggctaactgcactgcttgcagctgagcagcaacttctttcttaaaggaagatctgagtgatgcacctctgtggttgccacaagtcccaagataatg
0.4712063373127373 caagtgaaatttttacaaaaatgctttctgaatatccatgactactatctaagtaccctggttggggaagggcagaagaaggggtaaagaggagaagattcctcttgtgggctctcaagtcttcccaaaagttgctgatgtcattgtttttgtaagataaaagagagtaatgtctgattcttctggaaaatgtggttttccttgccaaaccaacagttcttcacgtttgttttgccctgacttccttttgcagttaatctaataa
0.2865837410825222 ctgatgttatattttaacagtctcacctctaagttctgagagtttttgtactagttaaacaacagatccaggagcaagcatcccttacttagccagacagataatactgaaataatgcagagtcattcttgtttatcatctaacttccaagaagctagaaatcaactattttctgatcttcagcaccttctgtctgggcagcagtaacctgtaaccctggcattttataattcttgtgacttggtcataaccaacatttgcaggg
0.3723620975046746 ggttctgttccttgcctttagttatatcttggaaatctgtcacatggttagtgactagtgaaaggccaaaaaaatttgcagaatcagctatttaaagctttgttcttgatagttcaagtgttacg
0.6630406152751169 ttaattatcatctgtggtctttagcaggtctgaatgtgagagtccagtaggtagcaggtgctatccaacatgtttttgaaatttttcttgctgagttcagcctattttgtacactttgcattttactcctccagagggctctagagctcagctgagcagactggcttgttaccctcattagacaaagaaactagccaataagatttgagcttttatttgttggaggaactaatgttatgttatcttttagagcttcctgttcttt
0.7611170192492703 attgttgagttacaatggcatttcactgtgatccctctcaagctcagatcagttctataacccaatgacaacctgtctctttggtttactgtcctgtgaaatgtcagctcaagtttcccagaagtcgtgtgtttatgatgagtcagagtgcttttcctcggtgggacagttgctggccctcttaattttggtgtatgtgcttccaagtatctaaacctccagtctgatctgtatatgctatcctaactgttaattgtattattga
0.7047411005906511 ggatttttctttttcttgaaatagataatgtgagcagattctctccctgttttacacattaggaaactggatcagattatatgactcttaaggttgtagcatctgggattactcagcagaagcagaaactatagcaggcctatcacatgggagctagaaccacaaagaaaatagagctgctgtaggagaagctccctgagatagtgagggatggggaaaaatactctggcatttcccagcctcacactctcctgtctctggggcg
0.4626388503392025 gagaggttagtaaattgcctaaggttaatcaagtagtaaatggtaaatccagagtgaaaatccagcctgtggatttaaccatgttgttctactgaaaaaagctgtaatagatgaaaataaactggggcatgagtataaagatgactaagcgtttctgtctgtgagtattagagaaacagtcagagccaagagaacacttgaacatttttttcttttttaaaaatttgagttaaaatatgcatatataatgtaccatttttaccat
1 gggcctcagaattctcccctgcaaaatggagataaaaatagttgtgagaattacatgagatgatagatttagggactatagaatagtgcctgccataaagttattcatatctctgtcagaagagtaggaatatgtatcctgtcaatatagctgacatttgcagtttaccaggcattctgattctatttcctgccccctcctatctgctgcttttggattatcacactttcagggaatctagcaagaggcctcaagcctatctagt
1 gttgcttagtggaaaggtatcacaaataaaaagtgggccacaatgagtaggtcaattaaataaatgcaaaaaatatattgatttattaattacaatataatactgtgctaaatgcttagcttgcattatctcatttaattcttaccaaaactctttgaggtgattattgtatacactcccatttacagatgaaaaactgaggtttaaggaaaagatgtgtatgcccaaatttcttaatgactaaatggcagcagaccaggactgt
0.4310835307728239 gatttctttctgtttaattgtaaggatggaagtgaaaagcaaagaaagtttttgtcagttggtggtagttgatttttggtttattttaaaaagctgtctgcagttttcttgatcatttaagaaatttgttgacatggcacttttaatagattatcctgcttttaaagaatgctggcatgggtaatgacctcactggtgggcacagaacaataataaagatagaatttttttttttgtattttcagaaatttaaagttatgaaaca
0.5039957598943465 ttaaccttattttggaaaattaagtttgtttacaattttttcattgttatgaacaataagggaacatcctttaagccaaatattttatatatctatgaacatttcaataaggatgcattcttagatgtataattgctgagttgcaaaatattacacctgcttttacagattgtgatatgtaaagtgctctccataaaggctgtaccaatttgtacttccaccagaagtgtgttagaggatttccatgagtccactccaacactgt
0.06531930568627509 gcctctcccatccacaagaaggttctgaggatactggggctgcctgggacttcctatcctggttggaccaagacctatgcagagcaacttggcttccggggaacttcagcagccctggtcttccatgggctgagtcattgtagcttagcctaacgttcttagctggaacagtcataggaaagtgtctggaaactcccccatgtcttatcggcaaagaatttattgaagacagttcagccacattcctcagctttcccaaacctca
1 ataaagatgagctcaaaatgagatcactggggactgtcacttcagcccacagctgccatagtataggagggggggcaaggacttctagaagtgcaaagtcaccccattgactcattgaggggactccctgaggtgttagacatctgttactggtggccctggattgggctgctggctgcagtgtaagggaacaatgtggcaggacaaagggagaattctggtttctgaatgcagcaaggaagatcttaatctataaggaaagtgg
0.3213839117324804 tgtccattctaatgtgtaactacaatctaactgtgtagctaaatgcagtttttacttccagtcatgaggcccaactttgaagataatcactgagaaaacattctaggtatactcagcaatcaggcaaaatgatgtaacgtatctgagtcagaaagtatgacaaatgaatatttttgcatactggaagcccaagcttatctcagagaaaatccccaaaatacttgggcaaataactttctgatgaagtcaaatatagcatgcagta
0.9156462425235617 aaaatgtgtaactaccatttgcagttttaaaggtctgctttccacctacaagttgccattatctcaaaggtgaaattttagcatatgactaaaaacttcctatagttacagcttcatgattcagcatctaacatcaataattcacagtgagatcataggaggctctctgtggaaggtaacgacatacatacgttaggaaaggaagcttagggcatatcgagagcattttgaatttagacttgtgggctgtgtgggtgtcagatgg
1 ttcccccaaaccttcctgggagtcattgcaggaccaacttcagaacacacaggggaggggaaagagaaaaacccaaccaaatgttatctgcctgttgcaggactttccaacaaatagcccaggcaggctgtgtactgagagatcagcccagaagatgagcctgcagaatcgtaaggcccctcatacagcacccattctccttggaggatagtctcaggtgaaatggggcagtggcaagttcagtgagtgtgcaatgcttgaagat
0.1336685267840939 acagccccagactgagaatttttatccacaacttgttcccctctcctgatctcccttctcccttttggagacctcaaggctggagagaaatgaaaagcaacagctctgcctgacaaataaggtaaggactctgcctctcaggtgctgagtcactggttaggaactgtcccatctacagactctcccagaaatttacacaaaaacacaaagttgggctccaaaccttgggcactctcagaaaggctatgattcaccagggtgtgct
0.2865483362583038 cctttaaacccacagacttggagctgagcaggaactaaattgcttcaacctttaaagatattgaaaaagatgcacttaacaaaagtttcttgtgagagccactactccagtcttcaggataatctgtcacatcagcatttagccttaggccccaaccttcctcaaggttttctctccattacttcagagctggagactatgatcctctgagagtactttgcaccctgactttgtgacgtttgctcagtcatctgtaacccactcc
0.3052180063633161 ccccagcgactgaaaagtgggcgactcctctagatgaagcaagaattttaagcaggaatatagggttaggggagagagatttgaatcagcaaaagtttggaggccctgcctatcccagataacaaaaagcaaactcatgtatttttcattgctatgatgacacttcccttctgagttgatcttcatataacctctgtttgtgtacagttccctaggtgtctttcatttttcaaagcaatttcaatgtacattcaatagcttctca
0.5097376575808101 taaaaaaaataaaataaaataaataaattagaaggtgtaaaaacataagaacatttacttaaaagtggtttcagctccttcagaaatttcactggcagattttaagcaaaaatactgtgactgcaaaataatattgcttatatagcaaatttaaagtcagaagataccatgatttctgagtacaatgtactctccaacccctccaaaaaaaaggatatccattttgagatttatttttcaaacagatttcacagattccttttgc
0.1707425863422022 atctagacctagaaccagaactagaaaccaggcttctggtgcctaattcattatttagctgtaaaaagattgctttcataaaaaaattaattgttattctgtacagagaatacagacagatttgtcacttcagcaaaattctgaggaaatgggtacagctgcacgttatctactgtcattatttacttgctggtcttttgggtgtgagccatcatttctagtccggggcctgctatatcacactaacaacaaaaataaacggttt
1 ttatgatttcctgaaaatgatcagttgctgaagactcaaattgcacttaaaaaaaagtttgttttcctttgcatttaagaattttttctgtttttctaatttatattcaacctgaacaccaaaatatagcttacctcatcatattcaccatcagattcttctctttctatatattcaacattttctctttcattaaaaccaccaccatatccttaaaaaagagggcacaaattgttaccctatgacaattgatttaaataataaa
0.7154536008882693 taacattaatgatcagaatattctacaagacccgttgttatttaaatgattatttaaaatattttatttgtaagattgagtatttgtgagtattagacaatgcaaagaggcattttagagttaacccattaataattcagtgtcagcaaattcttgatttatatgcagtaatgaaagaatattttggcagagatgttataaaagaaaagctataaaaattatagcatgtttgttttgaagatagacatagtacttacattctgaa
0.6531635821403726 agtgatgcctgctgcattttagattggaattgcgttaaatctatagatcaatttgaagaaaattgacatcttaaaaatattcaatattctgacctttaagccaactgtatctctctataaggttgtcttagtctgtttctgctgacataacaaaatactacagactaatttataaagaacataaatatatttctcccagaacaaaaatatagttctggagattgagaagttcatgatcaagattcctccaggttcagtgtttgtt
0.9413282460559449 attttaacaactctgtagtattccactcatattcataatatgaaattccatcattattttttcattctaatgatgatagatatttaaactatttctgtaataagaatatgctactctcagcattttttacatgtctcttggtgtgttctatctatgtgcttctgggtattttatttaggaatgcaataggaagatttccaaagagaaaaagtgacccataattctggagtcacatctcctggtttcattctcattctggatcata
0.02892505265645848 atgtagtctaatcaaaatctcaatgaattatttgcagtgtaagatgaaaggagtttaaatgtccctggaagaagaatcaaaccatagaagcaaaaatgaagagggcaggaaaagaaaagtgctgacggtggattaattgatcagacaattaaaacgttataatgccttgagaactgaaacagtgaagaattggtataaaaatatatcaatgcaccatttaaacagaatagaaagttctaatacagatcataatatgtgttagatt
0.1975781075653605 tgagctggggtgataaagcatcagtagctgcatgatgtttttcctgggaaattcatttacaactccaaaaagagggaaccctttcaggaaggagaaacagacagttgaaagaagaatccaaaaaaagcttcagtcagcaattattctttaccaaacaaatatttcgctattcctagattttaaaagaatcacatatttctcaatggatagactgtcatgaaagattcttagcacttaatactcagactatgacttaccaaagtcc
0.144042775025263 attaatattacaaaaatggctcaaataggattttagcatattttttgaataagtcccagtattgtaatgtaataggcctcgcactgggaacttaagagtgggggctccgccttgctgagctagcaatttgctctgccatgcctcaaaccactcaaccgctcatgagccttaatttccttatctgactcacattttccttgcttacgtcacagagttattctgagaattaaataagataaacatactctgacaattagagtgttac
0.7271168528021406 aaatagcatatgatgtgaaaccaatgtaggtgtaaatatggatccattttatcccttttatccatgtaaatcaattagtcttgtattattattcttgatatgcattcactctcagctttaggagttaccatgaatgtgaattatgctgattatgctttttcttatgacagtttcatgtatacttatctagagtgcttgaatgaaaattttctaatgtaatgatagctatatgcatctaattggagacttcagcagggccaagaaa
1 ggttctattgtttcttaggcgactaagtatgtgcctacactgtacttggtatttaaataaatcaatgataaggatctttccctggaagaatttatagtctaattgaaaagtagacactctacccttcacaaacaaaactgccctatcagcgtttcttggctttttatcaccatgaaaatcataggaatttcgcctggccatacactccaatgaataaacactgtgggtgatgtacaactcctgtttattcactaaaaaacattgc
1 atggcaagtgataccatcggtaaaatcatagacaaagacacagattcaaagaagttataacacagaagaaaggcagagagtagtatctacaatatatagagatctcttataaatttgctaagtaggcataaaaattctatttgaaaaattaagctgacaatgtggagagtaatttatagatgagtaaatcaaaatggctggtaaacatataaagtttcccaagcacatcagtagtccaaaacgggcaaaaaagtattaataagat
0.6955466205376352 tttcccatttcttaattttattgaaataccgggacttttgattattcaaaaaatatttatttaaaaataaatagtatatatacatatatagctttgataccttatattgctgatgaggcaaaagttctgtattatcacagtgatctgaataattaagacacttgatatcatcgactgcatctagtaaatactagtcagtatgtaaacaatatataaatttcagtaacacagaactaaaatttacttagcattagaagaaagtaat
0.8288237966368871 tctttcttctgctctctttaaattaattctattttgtaaaataatttctcatgaatgcttagctcagcaatatt
1 agtaaaaaaaattttaaaataaaagtaaaataaactttttttaaagatatagcttcaaatccatctcagctgataaggcttcttagaccacaagagcttgctgtgaaatcgtgaatcattttcaattccaaatgatgaggtggcacttttcttctaatgaactgttatgttagatctcttggaactctaaagttctgttactctgactttctttaataagtttgtatgtgctaaggcatcaactctgtttcttattcccctctta
0.4552010690862806 acactggcttctgatttctctctgaacttctagcatgaaaaggggcagagcaacacagaagagaatacaggttgaacaaaaaaactagaatgtcttcctctttggcataaagatatgccagaaaatttctgacttgattttgcagtctcagcaagtttaggaaataattgatacaatacatgggaagaaactcatgaaacatattatatacatatatataaaaatctaaagaaacctatcaaaatggatttcaggggtttttttc
0.3914156831257841 tattaacaattttctgtgcgattattgtaattattcactaatatgatatatttttgtgtattttttggttctctaagtattgatggcagtttatatttgtgatcatcagtttaaggacactattttgctgaagcagctatttttttctggcaagaagagaataatggctcaacaaagttcttaacaggctcaaatttgggttgtcttccatttcactgcattttctagagtatcaccagagttacatttctaagaaatcaaactg
1 agagaatgggactgcatcgggagggggactggcaggagatagctcagctccgatgctatcaaatatcctgaaaaaaaatcacaatgcttctgccacttaggcttttcacatgataataaattgcaagtcatatttgcccggagatttgaatgccttctggctctcttcccctttttggtatgattatctgtcctggcaataaagtccatgtctgaagtcctgtgattatctcaacctccagctggcacgttgtgaaagtcactgt
0.5599663640241516 catgtcccaatcttgacattcaaagaaatcatgaaagccttagtcaagggtctgctgaagatgcattatgtctacagaattctcctgatccaccaaagagaaaatggtcaccttttagctgagtggacaattttaactgtcccacaaatcaagttacctcatcattcaaaataaaacaactcaaggtgttcttttacgtcttggaaaagccttgtgagtgcaaccatcctttaagatccagctcagatgtcaccctctctgggaa
0.8794207828260862 ttagggacatttctagccattctgaatttctagccattcgagatggtcttacgtcagcaaaggatccttgcactcaacattcagccaaaacaaggctagcgttcttatcatagcacaccacacccgcatagagacaagaaacattaaccacaggacgctcaactctcctaaagccaccagccaagcccaaatcatgactcagaactccagatctcagtcatttcttctgctcatgaaggcattccttttttgaactgaaaacaaa
1 gattaaaatgtatatacgttaaaacatataggtagaggtcagtatatggtttggccacagcttaggaactatgttctacaggtgcatttaaacactggttattaaaaccttaaatatatttcgccacataagcattattttcagtgtctactgtgtattctctcatacggctttggtataattaacttgtccctggtttttgaacattcaaattcttgctaatttgctttttaaattatgttttattgttataataaatgaatat
0.2831756552747486 taaaatgaagataatggtagtactcacctcacaggtttgttgtgaggataaactgagtgaatatgtaaatcatttagaatagtgcctagtatatagtaaacatattagctattaatattccttactcagcagaatacggttgcaaatgattctcaattcctattagcaactctatactttaaaactcccactataggtctgaggcaagcagccttcttggaccaagtaagtcaagtccacagtatgccactactaatgcttctgt
1 aaaatggtgagaacccaggaggcggagcttgcagtgagccaagatcgtgccactgcactccagcctgggcaacagagggagactccacctcaaaaaaaaaaaaaaaaaaaaaaaagtgcaaagtaagcaatttaaaccaggtttctcttaatgtttgtttgaactttcctgttttacgtccttgtcatttgcacacttttgtttccagtcaacttccttctataatgtagcaattatttacacagagttcttaagaaaaactagg
0.0410038780745433 ctattaatattttaaatacttgggcatttaccccacttggtgttacgagactgctgtgttgtaccttgtcatgggaggagatgaggtttttgagtgtcagggagcaagacgttattactcaatgtcagcatttattcttagcctaaaaacatggcatgtgaaatcaaatagatctggacacaaatcctccctcagtatgcaaccatagtctctctctctctctctgtttttttacctgtaaactggataataactgaccattaga
1 atgtttagagtattcatcaaattgtttcccagacccattatcttactacagttttgggtcagaagctctggaatggcagttgtatgtctctcttctcctttggtttctgtgtattattttatgatgatgtcagcttctttccttgaattctgatttttgtgttccagaaatactgtgcttctcctttacctcactgatcctgcttctctatcctttttcaatcttccttatctaataaaccttccttatctattttatagagggg
0.4196043871648214 ggaatattgtttaatttccttacttggtaacataattttaatattgctgacgttacattttcttctgtttttttgtgtttttttttttgtcttttc
1 gctgggttctagtgggagaggcaggaattggggattttgttggtgcttgtggcttagaccaacttccacatccccatttgctcttgctagcagccatgcttttcatgtcaccatagcaactacagagcgggggggaaaaaagtgacagtcattgtgggctgctggaagaggtggtggcaatataggtcatcctcccagtagtgtgaggttttgaaggtctatgactgccccaatggcatatgcacttgtgctaagcccttcattc
0.4539751165934006 aagctccatgtttcacattaaacacaggagactaaaagttgatgatagatcaggatagcttagccatgtttatgtggtgaagaagttgatgtgtataatagattgtacaatgatttgtggtcagtgtaattttgctaactcacgcttacaatatgtccagttgctggttgttttattttccctcgtgttactagttttactcttgagaaataatttccacctgtacagatatgtttatggtttcttcttaggaagtaatattttg
0.6785342121992661 ttcagctcattgtgtacatgcattctaaatagatatgttttcaatggcaactatttgaacccactgactagcaagtttaaaatcatttggaaaccaggtttgtgatccaagggaatttaaagttgctgacacagaggatttttcagaactgagaaatgtcaccgttcatcttttggaaactggtatggcttcatgtccttcacattttccaccatgctggcctggttgtttatttattaatgatttccatcatgaaaccattgtt
0.1118169411804897 atgtcaaagctggatatggcactaagaagacaccccccctcccaccccaacccaccctgtgtcaaaggtggacacagggatctctgagccttatttttaccattaaaagtaaaacccaaaatgcaaaatcagcactttaaagttcttttggaacttcacattttaaattcttttaatattcactgcctagtctctgcacccaagagaatgggtttaatctgaaaagattttgaccaactgagaagaaagatttctggaaaatgca
0.9429290555833484 gtgggggatgaagcttgctcagtgcagtctgagccgtggtgataaacatatcactttatggtccactgacctcaccaaggaacctcctttccctactgctcctctctccacggcatggcccggtgactcatactcaactggtggctggagtcaagtttcaggggttccgaaggtgttaccaaggagttaacagtttttactgcaccagacacaaggtcctttaagttggcttcccctacccagtgtgcacaggctgaaccagtta
0.5708850461482038 ctgacaagcctttgaaggtgggaagtctcctgcattgtaatctaaaatcttaaatctaagaaggacaaatgtggaaaatcaaattatgattttaaagatgaaattggggtgaatggttaatgctgacagagctaaaagcgccatcatctggtccagagtaggggatttcacacgttgcttcttggcagtaaacagtagaatctcagaggtgcggaagccaaaaacctctgcagaacaactataacctcttcctgaacagccacct
0.09413661044266472 ctcagaagtgaatgtagcaaggaaggtgaataaaggagcaaataaataaagaatgtttccctcctatcccaggcctctgagatggctgtctggcctgggatacaagacttttcttttgaccagtcagcactttgcacagttgccactatagttctgaaacccacctgatatgaggctggggttaggattttgcagcatcaaaatattctaccggctgcagaataacgagatctactttttgcacaaagatatttttgcctctggt
1 taggttgtgccattatttaaagaaatttcaattaacaattttattgcaactcaatccttgtataagaaaactaagctacatccttgataatgtacctctcccctcttatattccatccgtcagcaaattctattggtttttcccttacaaatggtccttgaatctgtcctctcctatttcctccatcaccaccctagtctaggctaccttcacctggggagtgggggtggagggattactgacctagtcttcttgtggtttaccc
0.880339924680498 ttttacacatttacctgtttcccactagggtttctaaaggcagcagtcattttgttggtaaccatgataagcagagaagacagagagactggggatttgaattgaatttatagctgactcataggcagtgttaacaaagacattgccactgggatccacccatttaacaccctttcagttccaccttatacacttgttaggtagtagggagctgggaatgtggaggattaggaatgctgaaaccaaagcctttttgtcttaggta
0.5990001604175406 cctcagggagagggttttccagacgaattatttgcgcccaactacacaatttcgtccggggagaataactcatgagggaactgtttgcttttaagtgtaatccagatgccaacacgacacacatttctgcagactcatccatggacacggttcaatcaatgcggtttgctaagatgaggattctaagaactcgggagggccctatacttgctggcagtcctctggaagtctgaaggtgtttagtaacataaatcctattcttaag
0.2334204357053715 tacaaaatccaaaattgtcaaaaaagatacagggaaaagtaaacatccatgttattcctatagtccagccttgcaattctctccacaagccattagtggtaatggtttcttggaaatattttcagatttattttatgcccatatcagcatttttaacatcttttgtcataaatatgtcgtaaataacaatgttattgatacatatccttttaaaaacacaatggtagtatgctatactggcttgttttacttatgaatatatgta
0.5473302558790625 ggtcttaaatatagtatacttcatgattttttttttatttttaaagttaatattaactagagagaaatttttagaatttttttaaagaaacggttttgctgtgtcacctaggctggtatgcagtagtgtgatcacagctcacagccacaccctcaaacttctgggttcacatgatcttcctgccttagccttctgagtagctgagtcagactacaggtgtgcaccattgcgcccagcctaaaatggtttttaaaatttaattaag
0.8990551293901831 ccaaccacaggaagatgagcaaagttgaagacaatttggtttaaaatcaactcgtagaattgaggagtatcagtcactgttacctactggtaatttaggcaaatcatggactaagtaattttgcaatgtttgcacttttgagtctcctgtaaccttgctactcaagctgtggctcatggaccagcatcatctattgttagaaatacagaatcccatgcactatcccagacccactaaatttgaatctacaatttaataagattct
0.06169262801678047 tgggacaccattaaaacgtgatcataggtgtataatatgctgaggtttgcattttcgacaattactctggcaatagaatacagtgatt
1 gatatcagtaaaggtgtcctacacattgatctccattcattctgactagcagacaaccttcaaaacagtactcatacagtgtgattgttatgtgaattttgagaaaatccaatattaaaaaagctgacaggtgtgaaacagagagtacacttcaccaaaaaaatcaacatactggctaactaaatgacgaactaaaactcacttctccaacctaacaaaaccatctcttaaaaggtctttgttttcaataagctgatagatcaaa
0.145111179976625 ataaataatatgaacaaccaatggagtaagattcctgtggatgaggttgtagaagggtgtagcataataaccacaggaccagccaaactggtaacaaatgtcaagttgccttttaggtataacaaaaccaaaaactgcaagtcatgcagcccaggcatatgttgggagaaaagctgagtgttggcagaagctgaggcagggcttgcatgtctgacataatgtaaaagagtcttggaatatgtccagggtccaggatctaaaacct
0.6521966097550256 tggactaatataccattaataacactaagagagttttatccctagctttgcttgattttgtttcatcataaatggatctttttttttttccaatccttttcctgcatctattggtgtgatcttaggtttttgatacatcagcatatttttccaattttaaattgatcttcaatcccaacttggttataatgtgttgtattttacaaacattgttgaatttgattgtaaatattttgactgagactggtgcatctaaattataaat
0.04386560742613216 gatttttattttagccaattttgggttaaattttaataggaaacttaatagtaatcataattgctatcactgtttcctgtgtgacaggcactgagctaatttagcaatttatctaaactgtctactcagcataactattgtaggtggctatttattattattcccattataaatatgagtaaagtgaggcagagagattcattaaattgttcaaggccacatggatttttagtggcagagctgagctttgagcaaacctgggaaa
0.2628432931248091 ggacacagagtttctgggcaatctggagcttctccaggaatgctaaccttctctgaagggggttgctctgaagaggcgaaatgcttgcctttcaaaaatacatccttagggaggctatcagctgcttcatttttgcacagtcagggaaattttatcctctggtaagggatttgagaacagttggctgtggttgcctaaaagactccacaaggacaaatgtccagagcacagtcacccccattacccagaggccaaggtctctttg
0.2159397620862145 accagaactatcctagttctgtccctccagagaaccctaatataaggatccagaagcaaaataaatgcacacgatcccaactatctaatgttacacatttgaaaccagaggatgtatgccatggagcaaaacatttgaacatgtcagcaatttgcacttgtatccagtttctagatttatatgaatttgtattcttatgtacctttacaactccttttttaaccagcagttcccagggcgctcaatttgaagcatctaaaagggt
0.2550344148028812 gaagtactgctctatataactccatgaagtaggaggaattattcctatttgataaatatgaaggctaaggaatgtttacagtactctctaactagtaagtagtagcactgggattttgtcttctgattccaagtagaagtatcattgcaaagtcatcaaaaatgtcagttagctgtgttctgtttagtcacagattaagtctttgataccagtatttctttctacaacatatgctactagaataggggctgattagcaaatgtga
0.7650342477313199 tttaaaaataatggtttttaaaataagaataacctttttctcaatacattcagaaaaaccatggttattacatgcacgttaaaactacttttgtgtctgaggagtgaacttctggatgactcctaaggaaaaatgaattctcatttttgctgtttcagcatatatactgtaatttttttttctttttttttttttaaatcgagttttgctcttgttgcccaggctggagtgcaatggcgcaatctcggctcactgcaacctctgc
0.1666753701567004 ataagaattaataagctgtactcttgtgggaagaaactttatcaactggaatacaggcttatgtgtaggtcttttttacttcagtcttacgtattctatgtattaccaaagttgtttaggtcagcacttttcccccaattcactttactgagtttgtttacatacctgtaatacagtaaggttttcatgtcatatggaacatctcttcctgggatccccgacctcctatattattttaaaattttgcataaagttaatttttttg
0.5917120130489897 ttgaaaatgaatccacctagattactaaaacaacaaaacaaaacaaaaattcccaagaggtacttgtctcactctcaaagtgtttttaaaagtaatcatactgttggatgacagtattgctgtttttcaaattaaaatgcagtatcagcaaaagcatattcacttgtaaggaaatattattgatcataacattttggaagacaaaaccaaatgcatgagagaatcagtggtgctctaaaaacaaaactcacagttgtgctaattt
0.1918565176793449 gggaatgaaagataattagattaattttagtcatatttaattataatatttagtagaataaccaatatttgaaattaaaatttcaaataaacagatatgtttttatggtctttaaaaaaatgatgagttggcagtaataagttggaaatcatcaacatatattggcaaataaagccaagctagagcaagaaaagtgcctggtaggaaggcacatatgggctgaaaatggaaaacagttcaaaggaaagctcaagatatatcaaaa
0.2026141012794978 aaacaaaatgcagaggaccgtctacctcagctgagatcatgaaagttgggtgactccagctttttgccattttgtgcatgtctggaaatgactgtaagcaccacaatcattgatgtaaggattaaaaataaattgtgctgagttgtcaaatttgcaaatgtgaaatctgattattatgagaatcaactgcatatggaacatacagagccagcatgtgagcatatagctacttgtcctttctcccactggccatgtctgtactatg
0.4752832388190606 tgtgctttaattagatttatttctgtgctgccaattttgctaataagtagcaaagtatgtaggaggtgttcaataaatgcttgtggaatgaatgaactcaagaatgcatgaattagccaattcagcaataatgcatccggacattctaatcagtttcaactttgagctattggtgtttatcaaaccatcgatgccaggtttcgattcagaaaacatggggaataaatgttacagggtaaccagtatttgttccacaatcaaaaga
1 tccagcctggttgacagagcaagactccgtctcaaaaaatcaaaatacaaaatacaaaatacgccgggtgtggtggtgcacgcctgtaatcccagctactccggatgctgaggcagcagagtcgcttagaacctgggaggcggaagttgcggttagccgagatctcaccactgcactccagcctgggcgagagaaggaggctgtgtctcaaaaagtaccttaaaatttgtgtgtaacttcaaaggaactcacaaactgccctagg
0.2839106490507578 atattcatatagcaaagtctatatgtattatttgtagttcagagctaggaaaactcaatgcagtccttcctgatcttgactcaggaaatcagtagttccaaggatgattcagtcttgtctagttccacaaatggaaggagggtgtctgcataaaaagataaggggaatcagtcaggaagcccattttgaatagcttcatgaatcccttaaattgttgctcacttcagcagaactcattaaagctatcacaatttttatggcttac
1 acccaagggtcatctcaacattcacaaaccctcacagcacacagctcaaaagtacaattacttctgatttctctctcagaacccactcagaggcctctggccttccttagtgggacattcataatcctgtatatttgcagaatggtttttagcttacaaagcatttttccattcctcatcttatttaatcaacacatcaatgttgtaaatgtagtaaagtatattttattatcccacttttacaaaggaggaaattggagctcta
0.4459255679399549 agatctaattggcttttgttggcacttcatgaatcaggcagcatcccatctatgaaatagaaaggctcttcaatgagctgagcagagaggatgggctttacaggcagaaaaggctgaagtaagcagaaataaggaacaaggaacaataagcagattggttgtttcaaagtgacttcaagcagaggggatttccttatcatgcctgatcaagttgactgggccccattaggttggttgctatgaatttcctgttttttggaaaact
0.9069534274570581 ctgaagtacaatccagcaacattctggtgaagttaaagatgcgccaactggatgatccagctgtttcactcctgttgtgctcccagttatatactgctgatacccaccaaactagaagaaatgcttgttcatgtacactgagagacgtttccaagaatatctgtagtgtgcttatcatagcaaaaaaattggaagcaacccaaatatctgtcactaataaaatggatgatttcctagtccactctacagtctgttatttttgaga
1 gcgggccagccccagccctacgcccgcaggggcacgcagaaaagacttagttaccacggccaagtacgaagccttcgagatagcgttcttcttaccctacgtaaacacgcagtttcccgagctcgacaatcggctagccactcctgatagcgttcggcgctcgcctctcggcccttgctcctgcgtactacggcttcttccagtcacctcggcccggatcgggaagtgtcaagcgggcgctcccccatctccgccgctattacca
0.2357096902763907 gaaggagaagaagagctagagaatcaggatcttggtggtagaggccaggaatgtgtgtttttaacatgatctccaggcagttttgatcagacaaacataggcctcagaggtctagagctggtgcacccaggccctattgagtcagcagtcctaagggagtgggaggagggagggagggaggagcccagctgcctttcccaggcttcagtgtgaccagctggagaacaatgggaaacgtcctcttccctcagccctcctcttcaca
0.5307011143522747 gaagatgagaggctaggctaatgcaagtgaaacctaggactcctccataatttctgctgcatccctccctctctagccacctactgcttatcaagccagaacatgtctgaggtctagcagatctgcccagtcatgatagctaagggctgggagttcctgatcccagcttcctggatattactggagcagatctgccctagaggcaaggagaaatattggatgatctgcagtggacttcccttccagcctaagcaggctccagtgt
0.3421992941133186 taataatcagtcaacccaaattttatttccagctctacaaaacgctgcgtgaaattgggcagcacaacctgacatcattaccgaagtgcgggggctagaatgacaatctttccagtctctctaagctttaaaattctatgactcatcaataatttagccactcagtttgcttttcaactgctatgtatctgggtttttgttgttttcgagatcagctccctgctccacaataagccagtgttcaaaggagaggggcaacagcaac
1 tagcactatctgttaaaactctctctttcacaagtaagtccttttgccaaactcactacccacgcccctcctctctttccatcccccacaaaagagctatcttttttttaacttccctatatgttttcctggaaaccttagtcatactccccatcaactacctcaccctaaaataaagtttctgttgaccatcccttgaacatatcttggattttcctacttccttcgtgccgttacagatctccctaaaaatcacctccacttt
0.1192481402023825 agtgacccttggccttctccgggttcaaggtaggagttccggctcctcacgccttctttaccaagcaccagccggagcttctcgcttccgcaccgagttaggacccaggggtgactcagcggtaggacaagtgccgccgatgtggtctagcttggggaaggacggcgggcgcctgaggagggcataacatccccaggtccggccagtctcgggttcctggggagccccatgacacggcagaacccaggccgcgcggccaggtccc
0.7963800299045237 agagtgggctgtagtggttatgaaagtgggcctctcagatttcctgctatgggagaatagttcattgatgaccccgactgctgaccttctggatcaaccaatgtgtttgcagctgaggccatgcttcttaggaactatttttagccagtgactaagcatggtggggtactaatacaggctcattgggacttctctaatgagtcactttggttcaaagctcagagggaaatttagagaaagaagcagcaaatttaatgcaaagaaa
0.7145086415669074 gctaagggagcaggtgcttctagggaggttccatgaacagtggaaaaaaaggaccgagccaggcaggaaagatgactccatgagctgtcccttccttgggtaaggcaatgaggagtgggtggagctgagggcttgctgagtaatgtcctcacggagaatggccaaaaataaggaggatgtgtgacccttgggtggctcaagggcctgtgaggtcatgctcctggcctccgcttctccattttctcaagataacagggtgccctcc
0.5810652824816617 gccacaagcctcggtgaccctggacagtgagcctcccctcctggtgttcctcctcccctcggcagaggcagattgcccttcctggtgactcaccccagaagggtcagctctaagcagaaagtcattgttgacaggaagaggggtcagactttcccttttccggccagcttcctgggtaccaaaatagcaacgcggcacaacaaagagttggggcggtggaggcctcccaaatgggctggaggacacaccgaccccaccccatgct
0.5492058987483999 gcagagacaagaaaggcttctgagtaagcaaatattgatttgagctccaaagatgagtaagaattgaaagcagtaaggctagaagaacattctggaacaggaaaagctatgcacaaagccctaaggtaaacaaacaggaaagtgcacattcagggacccaaagggttatcagcatggccagagcatgggaagtgaaggagggggaggagagaagtcaggagccagatcacatgtggttttagagatgtgggattttgtcttaagg
0.3346253464509027 atggagagctatcaacctgtcttgcatgaggaagaggaggtcaaaaaaggtccaggatgccagtggccaagttagtagcagagtgaagatttgagcccacatctctgcccagttttcctgcttcctcacaccatgcagcctcgccatgagtcagctatcacgagttccagacacaggacctcagatcctctagggccaaaaggtgcctccttatcctggtccttgtttacagtcattataactgcccccactacttacatttttg
0.5322205480813708 tcctaccaggctgttgtctgtacttggtcctcttcctgttggcacatactctcagcagttagaacacagggtgtgttgagcttgtgtttgttcttggctctatgcaattctaaagagcagaattgacttcagagtagaaaagctgaggtcagcattgcacacggatgctacctgcctccttctctggttcctacaaagtatgttcccccagtgctgggaacaggagtctttcttatccaaacttttctctttttttgagttaagc
0.5058532020039519 gcccattggaggaaactaaagagcaaagttgatccctaacctccatgttgagttgtggaaggtagccacagttaagtgcagtttggtcacgcaggtttcctggaaactgatattggtggctttttgcatagaaccatgagtcatgcatctaagagtcatagactttgactgtgggaggggtgtcggttcctctagatggtagttggaaggggtgggaggcttaatcactgcccagtaacagtgaaaaggggaaggggaaacggag
0.3978226466862692 ttcttttttttttgttttgtttttgtctttagaaaagacaaaactataaaaagaggcacaaagaactgaatacaactatttggacatatcccaaatgcagtttatatgactctaagttagtagtggaaatctcttattgctgactatacatttcagatatgtcagatgtgtaatccagagagtaaattcactcactgtattttcagtgatattttaaaattcatttatcagtaggatcattctgttctagacaagttggctatat
0.4443398104104466 ccctgacctcttagcctcctgggattgttgtgagaagaaaccagggcaaccagcaggaagtgcaaagggcagttaccaccagatggggaggaagaacgtgaagtcatccttttgagggactccgaggcctccctttcactgagtcatctgaagagggaagaggaactgcctgcctggggctggaggggaagatgcagttgggaaccagatcccaccatcctggacttccagccctgagccccacagaggttgtgtggggtcagct
0.4132245913448354 acacagtagtgaaaataggaagcggcaatatgaagtcaatatatagtccctctactgttgcacaatttacattcagagtgatattttctaatgcatcctcaaattttgaaatttagcactcatgcacaggaatatgctgacactggtaattttttcttaatgtcacaaattctttgaaaaaggctttttataaaccaggggcctaatacatacttaaatgtatacaatgtatacttatacgtatcacaaatacttatatgtatta
1 gggccttactctgtggccctccagatagtgatttgaatgattaagtaaacctctttttagataagtgttctagtccagtctaacatcagcttgttggtctttttggcactgtcattgtccagtaccagcacattcttggctccttgccacatctctggcctcaatgtgggaggcaaagacagtgagcatttccagagtggtgagatgggtgcagcacataatgaggcgatgaccacacagcatctctgaacagcatgtccacaca
1 gaggaatgagctctgaagacacagcacccagccttctcgcaccagccaagccttaactgcctgcctgaccctgaaccagaacccagctgaactgcccctccaagggacaggaaggctgggggagggagtttacaacccaagccattccaccccctcccctgctggggagaatgacacatcaagctgctaacaattgggggaaggggaaggaagaaaactctgaaaacaaaatcttgttctatgcaaaagccttgataatgtctcc
0.6678462176924729 gaggtggcagaccctctggactcagccttacttcctctcctctccccatccagacactccaagcaccctgtaatcacccaacctttgtctcaaatcactttctgctcaaagtacctccagtggttcctatgtcctgcactgaactctgctgactcatacaatttttttttttttttttttttttgatacagagtcttactctgtcacccaggctggagtgcagtggcacaatctcggttcactgcagcctccgcctcctgggttc
0.05134707093646214 tgtcctaatgggcagccctaaagcttaagtttcattaacttcatggtaaatttgcctctgcctgtatcgtattcattattatgtgcgacccctggcaccacgcctggcacatagtagttgcttaataaatatatgctgagtaaggaaaagtgttgcttggcctcattacccaggaaatagtctcttcccccagtagatctcatcccttttttgaaagctggtgctcagaatagttaatagacttattggaggcactgggagggga
0.0270657842738462 agagacaaagtgtcgttgcccaggctggtctcaaactcctgggctgcagcaatcctcctgtccggctctcccaaagtgccgggattacaggtgtgagtcacacatgcttggccatgagttggcatttttactaatcaagttagcaaagtgttttggttttgtttagttgtttttaatgatgattttctgcaggaagagatattgtgaaatggataaccttacaataccagtggcattataaattgttgcaatcctttttgaaaga
0.4077200761175686 atgttttttgcttccttgtcgacgatggaatgtgagtggtgtctgagccacacagtgatttcctttcatgtttgcaaataataccacaaatgatattatatccttgctctggctcataagagacttaaaaggctgagttgacaaaacaggaaagttaggatgtaaacaaccagattttcaccatcaacactatcttcaaaatgctagaataaaaaaggagttcatagaaaccataaatgttggtcttttgatcagagacaaaaaa
1 ggcaaatttagctggacttcctctagcatcctctagctgtctgacttctaggcggccgaaggtggctgggagagataaggtagttctcagtacaggggttcccatattggcgttatcttctagcaacaagggagcccgtctactcttggcacatgctgtgtcacacctgttccttcaagtgggttctatatgcattcagataggggaggggaagcaaaagactttgaggaatttagttgttggtagcatgtttgcatttgtttgt
0.4338180920485082 ttacgccggcgcctgacactgatgtaatcacgttccctccgtattgacgttagtgcatgctcagttgctaattttgaaggcgggtccgcccggtatctagaaattgccgggctggtttgttttgggcggacgtgacgtaacgtcttggcttgtctgcgtcagcgaaaggcctcaatttcctgtcctctgcttactgcccctttttttgcctgcgaatggcggcgatttgaagttggggcttttcgtttcctccaaaacattgata
1 gctcagcgccccctctccagcgccgccataagcagcacggcccggtacgtaggaataaatctcgcttctctcgcgagagttgcgggctccgggcgcgtgcacgagaaggggcggagtgaagcgtactctcaacacgcttgcgcagcagggctaagtgacgccaagcagtttgctgcacttaaccacaaccaacatggtggctgcattacattacattccttcttgggtgtgctgcgggaagcaatctcggtgtttactgactcct
1 gcctgccactgcagaagacgcccttcaccagccactgggtctcaacagtgtggctccggcaggcctctcagtgggtttgtgtcacccaaaggctgatgaagaacaggggggtggggtggcagtgagaaagcacttgggaattcagtgataacaaggtcacccattctctctctgtcagcaactgatagtgacagttgtaatagtgacaggcagacctggatggaaatcctggttccaccactgactagcaatgtaaccttaacca
0.2017214264435299 gggtgagacgcagcaggcaatgcgcttagcacagggcctggaacatagtaaatgctcagtggtaatagtgcatagtcttccttaaacttgcagtgacatttatttcaccatgattagcagctgaggctgtggggtgacatcagggtgatgagtcactttgtctggctgggtcttacatccggggcgatgttctgttgcatccaccaccctcccctgccccagctcagggccctaacagtctagcagggctgggactttctgaaag
0.68511176816085 aaacacccggtgaaagagggtgtggtcatattcatgtcctagaatgcgcctagcacagtgtagtttttcataaatgcaacattgtagacatagatgaatccagagtattcagcagttttcctccgtctcagaagactaaagctccagtagacaatgcgcaatgaggtctcacagccactggagggcaccattaccatccatctgacatcgcatttccatagaaatggccaaagaaagaaggtcctggggtttttcatagaaagct
