svm_type c_svc
kernel_type wgkm
L 11
k 7
d 3
M 50
H 50
nr_class 2
total_sv 15846
rho 0.804487
label 1 -1
nr_sv 6812 9034
SV
1 gtgagggccgtgggcgcgggcggggtgggcaggaggccctgctgggctgggtcacacgcatgacacctggctgtcgcaacacagatatcatcacgcccgggcacccgtgagtcactggcccagagcaggggctgcccccagcctcccaaacaaagaccctttgtccccaggcctctggtgccaggcccacctgtacagcagtcagatgcgcaggcggacagacacgccggtggctcggcaggcacaggcagggccagggcg
0.321819162307726 ctcacagctgcaagcggcatggtccgctggaaagacgggtaggccatcctcctcagagcccactcccaccaggacagcctgacagtggggctgcctggggagagaagagttaaggcatgacatcaccagagaagcctcggcgggagaatccccggaagacaggaggcagatggatcgggcacgtgaccaccccctccgggagcaggcaacagggaaacagggccaggatcccggcagccctccacacaatcggctcactgg
0.3868637101789891 ccgctgccgccgccgccgccgccggtcccggagccagagaagaaacagcaaccggcgcgcgccaaaagtatcgtcacttcctgtattggcgcgtaatgatgatataatagccgacctccggcccagaactcgagacaaggacaggggctcgctctgtgcggcacttcctgtgtctgcgcgggatgatgacgcataaaacagcgcttgctcaggtccaggacgccagaagaaacagcccggtgagcgcacttccgacttcgg
0.08019772194827929 aagaaacagcaaccggcgctcgccagaagtatcctcacttcctgtgttgacgcctaatgatgatataatagccgacctctggcccagaactcaagacgacaggggctcgctctgtgcggcacttcctgtgtctgcgcgggatgatgacgcataaaacagcgcttgctcaggtccaggactccaaaagaaactgcgccgtgagctgcacttccgacttcggcgcgggccggggcgccgagcagagcgacgccgacttttgga
1 tctgcttaattcaaaatgggaatggtgttatctatatcacagagctaaaatgaaaattaaatcagacaaccaatctgaaagtgctctgtcagtctcacagtgattaaactatgacgtgtacctttgactaacaatctcaaggacaacaggcaccatgctcaccaaagtgcacacatgtggtcccaccaccaagcagcaacagggcagtcctgagtcacctggtcaccagctagccgcacacccctgagcctcctgtgcagc
0.6537846475999515 gctgctggtcagagcttctcctgtggcaggaattctcatgggccgggtcatcagctggggtaggaatgtgctctcagggtgctacgggccaccttggcctcaaccagagatgagggtgacgcaactgctcacaggcccgctgaggggcagcgacctgaggacaactcctgtgggctgcctgtctctgctgcctcctgcacgcgggtagaatctgctcgggtcaggggcgggcactccatgcgttctctggacccccgagct
0.09964697411391114 tgggtaaaggttgtattgctatctgggtgatgattcatccgtctgtgaaccgggacaaggaggtaataggaaggcgcgatggccaggggcaacgttggaacgcaaacttatcaga
0.05139650644735495 gcccagtgccttcctgctgaacccacccccttggccccgcacaaaggtcctcctgagataaggccaagttctttgatctccatcgatctccaggcagaggtgactcagaggccctgctcacacagcccagctgctgctgtggcaggaagagcttctgagctacacctgctcagctggggctccagccaagtcctct
1 attactatcatgattaccaccgtcatcatcaccatcatcattacatcattgtcaccatcaccaccaccaccaccattatcatcaccaccattcttactatcatcactgtgatcaccatcatcattaccaccatcaccatcaccatcatcattacatcatcatcatcatcaccaccaccactaccacaccaccaccatcacaccattatcattatcatcaccaccaccaccaccaccacaccaccaccatcaccattatcat
1 cgtgactttgatgtttgcctgtcttcactcgctgtctttgttcttaacggaagctgcttctctcacttctcttgtggtttttagaaagaccttgaagcaaagatcagaagagctggttcctggtaaaccattaactgggcatttattatgtgagcaggttgttgctgagtcaggccagccttcctgagaggcatgtgaggcagtgtttggggtttgctgggttaatattctggctctctgtctctgagcctgtcttctcat
0.7193029528020701 tttaaaaagttttcccagcatggtggcacgtacctgtagtcctagctatttgggagggagaggcaggagagtcccttgagcccaggagctggagattacagtgagctgtgattgcatcactgcactccagcctggctgacacaaccagaccctgtttctaaaataagtaaataaacacacagacaaacacacacacacacatttccaaatagccagaagagaagaattgtaatgttcccaacacaaagaaacggcaggtat
0.1496138171349402 gggcggggcgccgcggctctcgaggggcgggatgggcggggagacgtctgcaccgcccccttaacccctctgtgccgggcgccaccgccccccgcgagcgcgggctcgcctgtcccccgcgcggcgcccgcccccggctccgcaggctgagtcaccgctgtccgcggccggctccctccctccgcccttctgcgtctccccgctgacgcccgggccggggacagcgagtgacaagtgccaggtccgagggcggcctcgccg
0.2989559287475406 tccctccccttcagttgccctttttgcctcttcacgtttgggggttccctgtgaccaaacttaagggcagtgagctgtctggcctctgaactgacaccaccagtggccaactagtaccacctccagtgacgtcagaggagtccagacctattcacaattcaaagccctaaaaacactgaggggttggccgttggtttccagttgtccaagcctgtgagtggctatgcgtcctggttgggtgctcaaagcaaggaggtgaaa
0.3157092211092321 gctcctggcaagcattggtaccccttggcttgcagctatgtcactctgatctcggcctgtgtctttgcagggccttctccctgggtgcctctagtgtgtctctccagctattgcatctaggaccactctaccgcagcatgacatcatcgttttttgggtttttttgggtttgttcttgttgttttgagacagagtctcgctctgttgcccgggctggagtgcagtggcgccatcttggctcagtacaagctctgtctcctg
0.5097871133667399 aaaagtggtgcatttttaaaggccaactcattggcatttagaaaagaacgtgtgttgggggaatcctgggtattatgtaggatggtgttcttgcttttgaaagctgtgatagcggatgactcatatttccttgcttcttttcaagaaagtcccaacagccctattgacttccatttcacagttcacatcctccttcttcttcttctggaaatcggcagctacagccatcttcctcttgagtagtttgtactggtctcataa
1 tgtggcaaagatgaacatttgtgtctgtgtttgcagctccattcctcagaggctcttaaacatgtccagaacataatggaccatttgtaggtggtgaaatagaggcaacagagaaaataatttatcttcaaactgtcaaataaaaaataaatgacgtaatttattcaataattcagaatgctttctagctaagtattttaaaaaatggtaaactaacaaaaaacccattccctcaactaccataatccagtctttcaactc
0.7552697351091735 tagggggccctcggcttcccaggtttgtgtttactcaggcgacctgagctggccccgacgtcttttggctttggagaggccacggatgcccaaggacaaagccccagcgggcctgtgggaggaggtttctcggggcgccagtgatgcaacttaggcttatagtttaaccgtaaaataaataatacaaatgataacaaaccaagagtgactaaagtcagaaaaaaagcaaacagacggaaaccctctagttttaactagaac
0.04770224489622184 cgtgcaccaccacacctggcctggtgtttttttttctatattgaaaggcattgcttttgaagttatctattttctttcatatcctcaagtaatctgacataacccatttgtgatgactcatgaacccagagaagatgtggcaattttactgttctatgtatcttctgttctttctggcttgctcttacacttgtaatgcatttatgcattccacaaatacgtattaaaagcctattccattccaggtgcttttctgggtac
0.4118727024837052 ttaagagtctggaactcagtgactggctgggtgcttgaccctttgttcagtagccttggcaagtgctctcattttcttcctttttaggtttccccactgcgagcccttcgagaacaatgtcatgttgatcgatggcagtgactcacaccagatctttccatgcctcctctgcaaggactcaagagagtcgagagcaaaaccgtgccatagttccataaggagggcaaagagctttatccacgctgaggaacaggcggatca
0.4034182252599353 tgcgttggttggtaggatgtcagtctataaccacatcaatttcaggtaataacaagtgtgtgagctttctgaagctttttgtttacttatttgttttagggttgttcaagtgtgactcatgtagtagcactgcattcttgagaattcacagagatcgaaacacagatatgaaacagggccagaaagaataaggcgttcccaatatatgagagtaaaaaaaaagcacaagaaagcgaaagcattcaatgtctgcatcctgta
0.9840532388414188 gaaagctatttctggagttcacactgtcaagttcaaaaatgaactggaaacaaccacagaatccaccttgggtaggctgaggccaacatttataaatctgatgactcaagttgtccttggccagaatgtgctgcaccctgtggaagcaggacacctgatgcctttcctacatgcattccagggacctaagggaacttcaaacaagtcagaggtgttgcgtttgttgactgtcctggccgtgatgttttgagctactatgct
0.1622565636305484 tatacatgcagtataatgatcaaaatcaggaaatccaacataaacagaatgcccttatccagcccacaatccacacttgaatttcatcacccgtccctgcagctttcctggcgggcctgggccctgatccaggatggccgagtgctgagtcatgcacccctcttcacccgaagctcctccgcccacaccttgtacaggcgccttcttatctcccaggtccgagtctaaccgcagctccccacctgctcatccttacggggg
1 tgaatcactttttaaacaagcatgaaaacaacaatttctcttgttcccagtacagctttgagccacaaaaattaattacatcacctaggaaattagccctgcgttttgcatccaaa
1 atgacttcggcttgtttgggttcgcatttcaagtgctctgactgggctttatggaatgtcctgtcaagcttttgattgtgaaaataaagttacagagacacaggggaacaataatcacagacgcgatttgtagcacagacacggcctttcatttcattcctcttttctgtgtttacaaattgcgactgttagagaaacgttggccaagctggctctttaacctggccacatatttattttggccactcttagcttttattt
0.5235935492901962 atatgttcatccttgtgtgaacatgatagagtgtagttacacaagcctagatgataccctatagcctactgctcctagactacaaaactgtatagcatgttacagcactgaatactgtaaacaactgtaacacaatggtacatctgtctagggcacttaccccatgaatggagctcactggaagttgctctgggtgagtcagtgagtcagtggtgagtaaatgtgaaggcctaggacattactatacaccactgtgaactt
0.3977772075850929 atatcaaaggattctgtttatttacacccaataatgaaaatcaaatattacaacatgacattccattgcacaccatgcttctatggtagaaaatcaatacatcctatttgttttcagtaacttgtttacccaaccacagttctagagtcattatgcaatgcaaacagtcttctaaagcactctgacccatatgaaataaaaactaggtcctctctgacactcccaaagggaatatctctctggctaactccaggaatttgc
0.04316125502480396 aaaaaccaaatcagatcaggcccgatttttggtggccagccggggagccgctcttgcccaacttgggcgaggtcgcctggaggacttgccaatgatctaacggctctgctgtaggttcctcaagaggtgccttctcggagttaaatgagtcaccgcttactaggcagaagcgcgggccgcgagcgcgggcgagaggcgggggctaccggtgggggagggggccgcagcctcgtggccatctccactatcgccgccctcctc
0.5975469440216659 gtgagtaagaagcaagaactttaggattaaattcagcaaaaagaaaaaaaaaaagagtaaaattttgcaagcagagtttgtgatttcaccagcaacacactaacgtttttggctactgaaaaccactatccccagccccatgactcagcagctaaatcaacagccaacatctcctactggtaaggactctaagaaatcaggcacttggtactctcagagcaattctaaggcgtggccctgaaagggctccaaacaatctta
0.1937049774070206 aaagcacaaagaggcagaaagcggctggtaaacctggttaaaagaccaaagttcagaaagtgcatgggagagggacgctgagctgcggacaccgttccggctgcagtacgtgttatggctgaggttacacttgggtgactcagggatgcaggcagatgaacattaaccacactaacagaggagaaagaagcccactggggctgtgcaaagtgtccaaggagcacagccccttttgccctgatcagatgtaacagcccctcg
0.1767245327915119 aggcacactgcctgctgccgttggttcctcccatggttctcagggcgccaggtctctgtcaactcccagcccccagtttccttaccttgtcctactgcatctgagtcaggatgcctgatgggttgagcgctgatgatctcatccgtgtcccacatgtcccagggaatcccaggtctgccctgagcttcctgtgtccttgggaaagtcggttaatctctgggcctcactgtcctcatcgctgagcttggggacttgtaacag
0.5295380908634636 aggagtcagcaaacagcattcccactagaatctgactggcgtttgtcacaacttccagggcaaccttcccccagctcccccaggtcagctgctctccctagcattgtctgtggtccggctcctctccctgtagaagcagactcagcctcgacatgatgaggtcacatgcaagcttcccctggcacagtggttcattcttcaacctgcccccttggtattgcaacacctcgctcctggacaacccccgcgcaccatgagctt
0.388003203745397 aggccagcccctctccccagtcattcgctcggggctggctccgccccagaactgcgcaacctccccgcccacatccgcgtcctaaccaatgagcgctcgaaatttgggtccacacccccgtcacgccccgccccagactcgcgcgcccgtgacgtcacggtccggcccccgccacgtgacggccgcgcgccgggctctagctccccgccgggctcgcgccgcagaggccggtgaggcgccggcggccacgccgcggaaggc
0.3549375135384102 atttctttaccaatacctttgagctctgaccttgctcccctggcagcggggggtcccagtgtacatgtgaccatcatccagggcagttaaagtaaacctagcaaagcaaaccaaaaatccacgtgtaaattgttgcatcacatcattgctcttgctcaaagcttttgagggaaatgaagataagaggtgatagagtaaaattttaaaaattgcacaacagaagagttgtgaatattttattttattttatttatttacttt
1 caagtacaaggtcagaatgagtaaattaataacttccagtatttagaaagtgaaaaaatgatcttttgctctggtctctttgtttgccatcctgtttgcatttggtatagctctaacttctctgaagacagacaattaaaaggaggctaagtgcacagcagacaaagagtgtcacagtcatgtgtcaccctcttgtgttgtgccttggcaaatacttgtcatctaattttactttggagatgataaggaattattaaacac
0.7974296361982063 tggaggtagatatttatcagcacctgtgtgctgtcaagaagcacacaagctgctgttgcccgttcattaggttttcagaagagtccgggcctcacctgtggccgggcgttgcatcataacagcagaacttgcttcattctggccctctgggacacacaggaatagatttgagagacaggatgagacatacagagaaagacacaagcattaggggaggaagaaagccgaatgatcctggagcatgtccttggcgcaggcact
0.3543157347886531 tttcaggtattttggttacatgcagaaaacctgtacaactatttattgattctgttcccatctcctcataccagtgcttttgaatgttactgtttcactaaaaacagcgtgaccatctgactcatgggtgcattcttgtttgctcactgcaataacctgtctcccacttctatttttttaagttaatatttgtaagtttaggtcagcctccatttccctccctcccttgtcctggctatactttgtacgtttatgtagtag
0.05577858080618966 cttctggccccggggcctggcactcgaggccccagatccaattacagctccccccaccctctctcttacacacacaactccccacattgttgccggcggaaagttatctggcccctggaagctgcctgcctgcgaggctgactcactcacctggagtgggccccagagtccagggtatagctgatccctgggaaaaagcaggagccagttctggagccctacagagggtgtggccagaaggccgtggattgggagcaaggg
0.3863934259130134 ggaccgcagtgccccgggcccagcgctcttctccaggtgatcgccggggaggcaggtttaaaaggcaggagccggaagccgtctcggcgcccaggtggccgagaatccagtcaccaggtcactgagtcaccgatgggggcgaggacacgggcctgggccggtcagaggggcgggatcgtcacccctggctcaggggcccctccgtccaggcagggagccaaagtcagtcttcgcttgagggttggcggtcgctggaagtgg
1 caaatcgtcttcttgatgtcagtcctaagttttaacttattaaataacataagacactaacgtctcatactttgaaaatggctttaaattgtgaatcatcgatgcaaaagataaatattgctttgtattttgggaaaaaaattcaatataagcacagaggcagacaatgggtgattgtttccactttggtttcagtacattccaaagccagacagtgcttcccagttgttggaaattaaacggtcatttgaggtggcctct
0.235254788594899 aggcccatgctcgcttctgtctgcccgatgagtcacttcaccctaggcctggccctctagagaacactcctctaagattacagaatgcaaatctggattccagagctggcagaggccccaggg
1 cgagtcgcggggcagcagaggcgtaaggagtaggcggggcgagccggctgggctcagggtccaccagctcacccgggtcgaggggcaatctgaggcgactggtgacgcgcttatccacttccctcctcccgcctccccctggggtggcgctcgctggtgacgtagtgagtgtgatggccgccgcgaggccgggaaggtgaaggtgagagggcgagcaagccggggtggcggggactggcccggcccggcccggcgagtcct
1 gagcagaaggatccttaaagatcttcatttctgctccatattggctgattaacaaaacaggtacatacaggggctgctcaagtaggtctttggcgttagtcatgggaattcagatttatttgcttagctaactaaatggagccaatgcaaatagattacttcaacagtctgagctgctgaaacattcctgcttccatcataaatgcttaatcatgctcaaaactgtctttttaggcaagaaactgagcccactaaatagat
0.604567424275932 ttctcacttttcattctttcattgaaatccctttttggcaactataaaagccatttgtgttggcagcagccagtggaaacacaaagatagacaaagagtgaatcatcccagccgcagccccgccccccatatctcaggtgaccttttctccacggtctccgcactcacaaatgcacacaagcgtgtggacacctgggcgtgtgtgtcagcagggaatcgcttgttttgacaataataggatccccaccacacattcctccg
0.2812204819180857 ccctcgtgctctgctggtgggaatgagaaatgatgcagatgctgtggaaaacagatgcttttgtggttcgtgaacctgatgattgggtgttcatgtacgtgtgtgagatgtaccaccctcgaaccttgttatgacgtcagcacattacccatctgacctggaaaaaaaaaagagagaagaaagcagttttgtggtgccaatttcatcctaggtataaacccaaagaactgaaggcagggattcaaacagctacttgtatac
0.1745409592244362 gaagtcatggaccatgtttactcaccatgtattaagcacctgctgtgactggccctgggctaggcactgtgggcacagaactaagatgcacccctttgctggaacagagagatgacgtcaacaagcattggtcagtgcaatgagagaggtgaactcagagaactggaggagcccagagaggggacagcttctgcggctccaagggaggtgtagtaaagaaggatatgcataggtggtcacaagggaactgagatggggaag
0.1267553487983407 gccccgcccactccacccccagtgcctggcatcttgaacaggggtcactgggtcggcctttctctttcttgttcccgtgtgtctctgtccacccagaccagcaagcaggatgactcacaccttcccttctgttccctcagtcccttctccctgggtcctgacactggattttaacatattgggttgcttggctgtcccggcacatcatgggggcctcagaggcagggactgtgacttagtcatcactgtatcatcagaccc
1 tgcccaaggtcacgtatgacgggcacagagggtgggattcatagtcaggctgtctgggaccgtgcagggacaagaagcttcaggaaaagaggacttccggaacgggggtgtggacacgaggatgactaatcgctgctctatcatgagtgcctagcaagtgggcacgcattgctgtctcagctcaaggttctttcgagccgtcagtgcaccgaggggaactgtcacagactccattacacaggactctcggaactctcccct
0.7525520451163052 tcgtgcagcccggcgctcggatgcagctgcagggtggcgcttatccacattggtgccactgtgatcgcacgctgcacacaggcagcagagacagagtggaccctgtggagttctgagtcattctggcgggtcccaggaaggagagaatcttagcaccctcttctgggcatttcttggagttgcatcttggctcacatagaaccagttttccaaaaatgtgcaacttcctgagaggaggcggaaaacaaggtgtgcttttga
0.133556482496226 ctgtgcacactgcttcggatgctatttttgatatttactatacgatgtgtcaaccttaaataatgagattctctaagcatagagtttattcgagctcaaagcttgaggacggcaacccagaaaacagacttcaaaagaatgagtcagtgttccaaagcagggaggtgaaagtttcactttgataggcagttaacaggatcgcagtgtcttccacacaaggtcagcacatgcggttatagccctttggttggttacagcttg
1 aagagactgtccctcctctatccttcagtttcatctgtaaaatgaagataatacctcctaggatttctgtgagaattaagtgactcaatacacataaagtgcttagaagagtgtccggcacaaagtcaatatttggaaatgttagcaatcatttggaaggtgcttgacgcacagcgttgatcgataaatgggacctattcttcttggtagcactgctggtctagagcaggattctggtttctgagctctccctgctctcaa
0.6091197428827591 ttcagaccacagggaggggctggctgaagcaggagagaaacccatgaggggtcaccctgagggcccaatcagaaggcacatggggggtcagggagggttaagaatgctctctggggcctgtgagtcatgggcctggcagcttggggtttcccaagactgctcagacgggctgtggcatgcagggagctcagccagaacctcccttgcaaatctgcaccctttcccccagcaacccccccgcttccagcacccctctgacca
0.4655785670210461 atgatattacagattcttggccagaaagtcacacatctgaggtttcatcaaagcactggaagccctggtagttagttattgtccttgataggtatgacagccccaccccaatgtccttccttgctgatggagaaatggatgacctcattttcaattattttgatttgtcaaattattttggttttgtgggagtagcatatactctaattgcagttctactgcctacctagatgggtggtatggaattcagtaacctatctg
0.06189629922973133 ggccgagggagggctcgctgagatccgtacgccaaggtgagcctgaccccgggtggggggcgtgggagggggagccaggctggctcctcccccaacctcgcgccaatgagtgtcggggctgcaaatagcccagtggaatcagtgagtcatggaggctggaaataccgcgccccctctgatcccctcccctcctcctgaccgcagccggtggagctgcactggggagcaagcctgggggtgtgaggggtgggggacccctcc
0.06051591911108842 accccctccccagcccgcctggctccccacctcagttggggttcaggtgcctccaccaaagctgcctgctccccctgaggactttggccccatgatgtcacaggctggttgccatggggacgtcaggtaatgaaccagcccagggtgaaatcacaggctgttcttcgcccagctgggactggtggtcacgtcaccactggcaactggaaaaacacagagtgtcatgtggggtgggggctgggaggcagcccgaagggaccg
1 gagggaaggctgccccgcttcctggagagacacccccaccccaaccgtccacttatctctgcggggcctgcctcaccagcctgtggaaagttttcagctgcccctcacccccacccccgcattcttgtgcgaggatgtcatgtgggaggagcctgctcgccccactgggctgcctcgtcccggccccctcaaccgcactcattgtctgaaactgagagtatgcattcgaggtcacctaaagcaggggccgcctggggaagg
1 ggggaggaaggaagcagaggcagcctgggccagcggacacagggttgggggtgacacaggcctcaggaatttgaaaacaaacacttcgccagggaagga
0.3506557434233623 tgcatgccaagcaaggccctgcaatgtttagggaccttgacatcttcccttcacatctgagtcataatacaaagaggactctctgaccccactgagctggca
1 aaaaaaaaaaaaaaaaaaaaaagaaaagaaaaatgagggtcctcactcagctttggaagtaacagaacccttgtattactctaagcagagaagctgaatatataaaccagacccaaatgcagctgctcagcaggcctcaaggtggagacttgcaccctgcttcctgcactccctaccccatcctctagaggcacctcccagaaacccaggccctccaggatggaccttgcatgaaggtccctggatccctgaaacattaag
0.6579554520657223 gtgggctgagtggaggagggtggggcggaagaacagaaggggactgggaaaggcactgttggtgacatcaccgatagggc
1 cctcttgtatcactatgagagaggcagaattgcagatggtaatgagtgagggctttgtcctcagccccatctgagtttgaatcctgaccctgccacttagactgtggggctggttaagtgacatgttgtctctgtggcttagtttcatcatcagtaaacatggggacaatgataccctctcctgggctgttgcaaggtttaaatatatgtcaggcgtgggcatggggtaatcaattgctcactgacgggagtgcttatcat
0.2811574483191032 gctgtgtgttatctattattagtcaacaaataaacattgaacaccaatccatgcctagcaatgttctcaatgctggggctgcaagtagacagagtggctcatggaggtaacctcaaggacagagtccaccctttgttttattttgcagaattgatcgacatctctctctaacactccctgtttgtgtgaccttgggtgagtcacgtaatctgactgtaccctaggtttctcattgaccagtgcctgcccctctaggctttg
0.006651467682041108 gacctagatacagggcaaaaaggcatgcctatgggagccccagtaaagtccttataaagtgaagacttcttggtgagtcagcccgagccaggcgggcccagctcattcattgcgaaagtattttcttttcagtgcttttctgcaaagcctttcactgccgcggaggtgaagtcatcggctggtaaacgctctgccttgcggtaaatttcctctgaactttctgcttctgtttaactcgccaaacctcaaggcgagctggca
0.3735433410242037 ccagctcagacatcacctccttcaggaagtcctcctggagttgaccatggcctcttctgtgctaccgtcccaccctgaacagactttgcactggctgtatgaatcacatcatacagttaccagttacccaatgtgtctcctatgctagacctggtgatcagacacccagggcagggactaatgtcaacttagttatttacagccttgggcgaggtgacggaaagagagaggagagttgtgtatctgacagagctgcgttcg
0.5724184617006508 ctgaatggcaaccactagattcaaagcaaggtgctgtgatgttgctaggtgtttggtttgtgctcctatgaccagtgtggggggaagggacttgggcagacatccaagctgaggtcccctgggcagagtgactcagaattagtgtctggataggcatccgtgcacccaacgctactgacttactccagttcatcctgaagacagactattacagtaaaagccatgttttaaaaaagttatagctgctaggccgggcgcggt
0.1317557163457684 agaggtgagtccacctgcccaggatcacctagcagctgtgagtcatggtctcctgaaaagagagacctttgttcacgatttccttttgatctcctggcagcccctgcctctcctggcctgggtt
0.2918990512077241 gttttctaatggtttagtaccattcccctagcagctgtgagtcatggtctcctgaaaagggagacctttgttcaccatttccttttgatctcctggcagcccccggctctcctcgcctgggttacaagagcccaaacaatgaatca
0.1828320362568862 tggagtcagagagatgtggacgcgttctggctgcatgttagcagcaggactggcaatgctttgctgcaggatggaatgcgtggagtgaggaaaagaggggaactgaggacaactgttaggcgtttggtttgaacaactgggtgggtggtgatgtcatctattgagatggggaaggaacccaaatagacagaaactgagaaacagacacagagacacgtgtacacacagagacagccagataaggagacagagagagaaagt
0.5805904871949834 agccgacagggcctcaaaccaacaaaccaacaaaggacctttaaggctgaaggacagtgactgcagctgggactgagcctggtcctggggtcagatgaccctgcatccccctcctgaagggtggaccctgggtttcagtcctggctcagtgacttactagctgagtcaccttatacaagttacttcacccttctgagccccggtttctcctgtacaatcaggataataatagtgcctatttcacagggttttgtgagcctg
0.1024416970501308 gccccaaatctgggctcttcttcttacaaacgtggggctttgggcaaacgccttcatcactttcattctttgagcgcctcgtgtggaaaggagagttactaacgcctgactcacagccacgtgaggattccaacgagcaaagtgcgtagcgcagtacctgacccacaggaagtgaggcacccaataaatattagctgacattagaccttacttttagtcttgattttcttttgtatgtgacagtacagcaagggtttgttt
1 caagattgcaccactgcactccagactgggcgacaagtgcaaaactccatctcaaaacaaaaaacaaaaaacaaaaaaagatacccttgcgtatcagataaatgatctcttgaacatcaggactgatctggcactaagaacagatgagtcactgttttttttttttttttttttttgagactttgcactgtcacccgggctggagtgcagtggtgcgatctcagctcactgcaacctctgcctcccaggttcaagcgattc
0.792203214994235 agatgtgttgaataccaggattttcacattttccatcctggctgctttagtgaactcctatcttaaacacatgtgcctagctccatctccatggagacggctgttttaactgactaggacattccacttgtgactcacaccctctggggcacaccagtgagctccattttccacacctgcagccaaggagtactgtgggtcacaaaccaaccaattcaaataggtttgaaactgggagagaagagaagaatgcttctgagc
0.6126168518827955 agagtagaaaccgagtcgccaaagaaaccagtgttggctctttagagggagatttaacttgagcctagaccggttccgaacccctttcccgagccctcctgacgtcatgggaccttccggccttttcccgtgctagggtgggactacgtgtcccggcatgccctgcgtcctgccactgactgtgaggcatgctgggatttgtagtcttcgaggtgggagtgctcagtgcgccgcagactgtgcgggcgggggtccgaggtg
0.5444816814634753 agaagcccatttccgcactcgggctaggccttcggagccgcggcagcatagtgggaggagtcgggctcagctcccccccaccacaaccgggattatttttatcggttgagtcatcgcactacctttcatccttgtggctttgggcaagtccccgccctccgagcctcactttgcttatctgtgaatggaaataacagtgcctaccccatgggctatcgggaggatcagttgtgagggaatgcagtgtggggtgtctggccg
0.6188192971718846 cacgagctgcgccggcccgcgcgtgcgcgacaggcgggcggagccagggcagtccaggcaccgccttgacccgccccagcctcttccccttccctgttcctcccacttccgcgggcacccaactgtgcgtctcctgcgcgctgacgtcaggtgcgtgcccctgtccggcagccgaggagaccccgcgcagtgctgccaacgccccggtggagaagctgaggtgagtgcggggcccgaggttccccgcgggagctgccaccc
0.2871112058599561 cttgagcccaagagtttgaggtgagcccaagagttcgaggccacagtgagctgagatcatgccactacactccagtctgggtgatgtcatctctatttaaaaacacaaaaattaattaatggaagccttggtgaatg
1 tttgtctgcgctgtttttgtttcagaacttttctcacaatcctattttttgttgaggaatccgctcctttgcccagctgtgggtcccggtcccacagctgtgttgatctaagactcagccccagacagcctggcgccagggtgggacgtcatgcgttcacacagggatgcgtgtcccaggcaacctttcctcgggcagtcaccggccggcgactgcctcccccaccaatgagcgccggacacccgagaaaggggcggggtc
0.3254529408701151 gaggcctgggcaaggcacaggtcctcggtttccccatctggaaaggggagtggagggggaggaaggatttgggctcaaaggtctcagaggatcaaatccaggcatctctgtttgtcatagatgacctcaccccagctattgatctccactcccttgcacccacatctgccttgtgttcctgtctctgggcccccattcaagctcttcatcctcctcttcccccgttccccaatatactagtacctcctctcctaagcaaac
1 acaagagaaaaaaagtagccaggcatggtggcacatcccaggtactcggtaggctgaggtgggagtatcacttgagcccaggagttcaaggctgcagtgagctctgattgcatcactgcactctagcttgggtgacagagcaagactgtttcaaaaacaaacaaaaaaactatcaccataacatcagatttttgatgcatttcctaagtgcatagactctgaagtttgatggcttgggtttgaatcccaactctggtttct
0.05806151752217375 gggattacaggagtgagccaccgcgcctggctgtactgttttctttctgttcaaagaaaacactagtataggttaggctgggagagtgagtcctaagcggctgagggtcaagtgtgactcatttcctatttgcagatccccacacattctcagggacatgctccttcaactcagtttgcctgccttctgacttttctgtggtccctgatacctatttccacttcagcttgatggcagcgttttgtgcactgtctgcatgac
0.8093756654787673 ataaatgaaatggtgacgtcgcttccccagtggccctgcagagtgtggggcggcagtggctggcctttagggggcagcagggtgcag
0.8858530266171326 tcctttgttgcctgctctacccaagagtggaagtcatgccacggtgtcacctagcagtttaatcatgtgttaagactatgtcaatctgttcttttttttttctgctgtggcaaaatccaggctctcgggccatggaagcttgactcatagtctctttccaaacccaagccatcagccagagaacaaacactggcttgcctgactcagtggaaattccagacgtttgtagctcattaactgccaaattgacagctatggagg
0.8342331969420539 gggaatctgttatattctggagtttcagagctgaataaacatagtatctcttgtccaggaacttccaggcttacccctgttatgctatatgatcacattagaaataaatcaatgcaggccattgctgacatattcctggaggcctgactcatgcccactcactcttctaccctccctctgctttgttcaactgttgatagagtcctggggactcaatagaactatcactggccagtttacctggatgagagtgtcttcaaa
1 ctttccctactgcccctcattactgcatataatctgttttcactgctttaactagtgtctggcttgtttttctttgacagttgctcaggggttagaaatggccctcctgggcaactcaaagctgcagcatgcatgaggggtgaatcagaggagaactggtatccaatcaggtgatggtgacagggtggagcggtgacctatgagcaggagtggtctggccagcattgaggatatattagggaccacaactggggcacatgg
0.06619233561402621 aatatggcagccagagaaaactaaatacaccacctttcaagttctaactaaaatgccacttcttccatgcagccttccctgattcccagccagcagggatctctgaccacactagtcacctttgccctgtgtttgtggtcaaggtaaacatgtggcttcttcatgatgtcattacttacatgtttaggaaacatccactgggtactgactaggtatcaagcttcaggaagggagctgaggggaatgcggagatgaggcctc
0.23071323135434 tgacatttgtttttctccactgctctcaggatgcagatgggaaagcgatggcaatcgccagtgactaaaaggttggttagacactactttgtaaattagggttacatgtcaaaaattgtagtgacttaatttcctatttaggtgacctcatctcattcttaaatatatggtggctgtggctgtgaatgtgcagatcctaagttgttttggtttgagtattttttttaacacattagattaatgatagggagaattatacat
0.6516360569117314 ttaattttcgatgcaatcttaaacaaatttaccaaagagcaggtgctcttggaccttcggaaaagaccgagattcccaacttgtgtttttctgtcttgggcatttactggctttctcgtttctcaagcgcggagtgttctgtatgatgcaacattttggcttctccccccggcgttgctgcttcgggaaggattgtgtgtgcccttttgttttgaaagaaattgagggagagaattcttaacttgcttgggctttaaaggg
0.04341663948320271 gacttacccaaggtcacacagcgtcaaatccacacctagaacccatctcttggtcttgactcctggttcagtgttccaagcaactgttgagaacatccatcaaacttaaaaatatatatgactatatttcaacaaatctatgacatcattgaatatagatacaccactcttttatataccccaggaaatagaaatgctgtcagctacagtaagacacagtatttctcatcacatagaatttttttattttagactaattaa
0.2425858920094308 tgcaagtacaaaggaatgtgggaagtctatcttactaacctgtttatttatatgggctttagactgacctttgtcctaccgggtactttactgcctcctactcagggaggtctgcaaaagtgtattactcacaaacggtgtttgctttaggcctcagaaactggcctttaatctttaccctctagtggtgtttacttgcaacttttgttaattagtgttgctgaataaatgcgagcctcactagctgatcagggccgagtc
0.8497465280315696 ggaaatggacccactgcccccactcccctcccccatttcccattgtcctccttcctgagaagctggtggaattcagaactttgacccttccctgtggccacagcagtgactcaggctttatgaggggcagagatgaaagagactgaagccccgggaagcctgacctgactccaggactgctggtggctatgacagtgtcagggacagggtccaagggggactggaaggtggaggggttaggtagagccctggtcattttcc
1 aaaggaggcggccgatcatgagatcagatattgtcgatgacctcctaccaatcagaatttaacgtctttctcaaccagcccaacccctggacaacacccctgatagccagtcattccacaagcatgtggtcattggcttctgcctgcatacctccagggacagggaggtcaccactcgacagttcacctgccccgtccctgaacagtcatgagtgctagaatgtccttcagactctgctggaatgtgcctgcctatagatg
0.414111525520304 ctcacccgcgccggcttccacaccccgcgggactgagaaccgccctcccactagctcgcaggcgcaggcgcagggcagggtcccctcagtttgggtgacggaaggggcgtgtcgcagcgcccaaagatgacgtgttctgccagcgccacgtcatgaggaagtgccggcccactgaagccgtggggacgcgcccagcggagctaatcaggtgccactgaactgaaggggtgaactagaggagaagagggtgactgggcgggg
0.02467497122440971 agggtgggcgcggcaggattaggtaaccaacctgaaggagcaatttggagtaaattgctctgggattcctgccatggggattttacaggcactgctaggctgctcagaggttctctcgctgactcaccctctgaggtgaggaacactgccctctgcagcccctgtactgccaccccgctactaggaccggggcgcaaggtcctgggggtggtgctcagaggtggattcctttgcccaggcacgcccctgggaccaggcctc
0.8991227601098507 aagtgcagattgctttggtttgggatttgaattatggaggtaaaatccttctgtcaaagccaggagacagttggtcttaggttgacatcctatctgtgatctgattggctccccatctcctgctcttggccatttataattgcctctgatgtaatggtacaacaatcctgatgagctcataaacttttacactctgcttttctgccagtgataacccaaactatcgctgccactatctgccttttattccagagctgaaat
0.04151576612179766 atgcatgagagggcccaggtgagctgagccacagtgactgtgcatagttcccagggcagtgagctcatcatgccagctcagtactccctaagcaagagaacagcagggaacacccccccgtgacggcatgcagtgaagggggtgactcagtgggcaccattcatccccaaggagctgccccgcccacgccgtgcaaagggcactggccttggcatgaggcctgcaatgggcttgtgacccacattcccacaaggactttct
0.8212998419144496 gtggatctgatttgagaagccgtttcctgatgtgggcagccatgtgatgccagccccgaacaagagggggcagcctggagcctggaaaggtgccagtgcaggtggggcccacgcccagatttctcctgctgactgttctgatgattcacccccacatcccagcctttttacctttactgcagagccggaaagggtgtggggaagagaggagagggaggcaggtcttgggccctggtcccgccccctgctcctccccaccct
0.5036101463582252 tgcagggcacagggccacctgccgctcactcagctgccccttatcagatgactcaagtggataaacaaggtcattaactcaggctgtaccagggcaccaaggccccaggtgc
0.1645278542295494 ataggtgttcaatttccaccagagaccctccatcccagcgcctcccaccacatcttgtccacattccctcctgaggaaagtgcacattgtattcttatttggagctcagagaatgagtcacatcctcacttcacagtcacatcttgtgcagttgaacatctgtgtactctaaaacctagcaagtccattcctatggtacagccacagtaagctcttgtgcaatgcaccaggagagaatgtatacaagaatgttactagaaa
0.6524912842625684 caactctctgagttcccatgcccctcactgaacctcccttcccccatggcgagcctccgccagcacctttgcacacactcagccccttccccctactgagccccagcacagtcactgaacagctcttcttcccctctgactgagtcatcctcccaagccctccccttcccctcactgagtctccaccacccctggtcactgggcaccctgcttctgacctcctccctcccccaacccctccacccttcctcttcactgagc
0.420728805573529 ggggtggagtagagtagtaaaccaaatgaaattgtaggttggatcagggttaagtttttgggactttatcctgtggcatggggagtcattgaaggctattgagcaagggtgtggcctgattacatagtgattcagccaaggtcacacagtccagcttccctcgatccttccctccccctacccactgcccctcccttccacgtgctcttccatctttgcctccagaggcctagctctggcacgactctaagtcactagcat
0.446276160260692 tcttcttgttagccttgaaagaaccgctagatttagtgaaaggaaggggccaagcccgtaaactttctgtggacacccctcaagttgcgcatagtgttgtcccttcactccggtctcagccagggcagaaagtagggtggggagagtgagtcacaagctctatcccgtcctgcacagtccatccggggcaaggcccgggtcctgggaatgggggatagtactgaaaagccatggtcaagtgagcggaaccctggttcagcc
0.3392959772521194 tggtcactctgcccaatcttgtgaatcaccaggttgatcaggaggcacatcctaaaccctagggcatacgcaatccttgtcaatcttcttttcctacttagtacactctttcacgatgatctcattcaatgtcatggcttttagctaccatctatgaggctatggttttgaaatctctatctgtagcccatttctctcccctgaactttgccatttgggtgtcccacagacacctgatgctcagtgggtctacatatgaac
0.3005360462786474 gactactggcacatgccaccatgcctggctaatttttaaattttttatagagacagagtctcattatgttacccacgctgatctcgagctcttgggcttaagtaatccttcagccttggcctcccaaagtgctaggattacaggcatgagtcaccaggcccagccacagacatttatttctaacagttctggatactgggaagtccaaggtcaaggtgccaggagactgggtatctgtgagggccttcttcctggtttcca
0.4728475206126231 tattagccttttactcaaaaccatcctggtgtttttgtgtgattaaatttgtaaattctttggtgtactcttgagcaggctccctttcttctgtgactcagagcctggagcgttgcagccaagctcaaaagtcaggaacgggggtgtggacttttgggctatgccagtcagcagccagaatgtggttggcagtctcctccccttcctgcacttcagctctacacagtgtgcattctggaatgacaggcattcctgtgtgaa
1 cccacgcacaaattcagaaacgcagagccctccctggccaacacacacacacacacacacacacacacacacacacacacacacacacactcttatcaggctggggcaggcactggcactgctgagtcacccacaggcagctcagcccaacagagctagagccacgtggctgccccagcagggagggggcagggcccacagcagctctttagaatcaccccatccacctgactgctggggttttcctctccctagcccttt
0.5160265478037064 agacccagccgcggggcctcatggcggggaggatgcgggagcgggggaggggcgcgccagggctagcgggcggccggacccgctgcagcacccgccgtggccagcagggagcgccgcgagaccgccgaacccgcggccgggcctgacgtcagcgccccgcttgctccggctcgcgctctggactcggcgccagtcccgctccgcgccgcgccgctccgctccggctcgggctccggctcgcctcgggctgggctcgggctc
0.2216568202319903 tggaggttgcagtgagctgagatggcgccactgcactccagcctgggcaacaaagcaagactacgtctcaaaaaaaaaaaaaaaaaagctggtgtccatcggcaggtgacgtcattgctcaaaactcagttttcctgtctgtgaaatggatatcagtgaaagagccagcggcgaatgtgaaactccagcctagtgtctggcacagagtgggcattcaaatagcagtagctgcagggcttgttggcactggtgttgggggct
1 tgagagtgcgataccaggattggtggacggagctggcgaccgccctaggcgcgctgggtcttgtggg
0.2655071951461602 tggtcattgcctcagtcgtcctgctgatattcatttagcagcgcgttgggggtatgttgtgaaccgggcacggtccctactctcagggcgtttaactctggtggggaaaacgttaaacaatgacctcactaatacatggaaatgcctcctactgctgcctgatgctatgagtgcctgaaataagcaggaaggtttttcagaggaaaagatgcctgcgctggtagctgcaggaagtgttgtaattaattaggtgaagaagtg
0.02538908763914685 gagtgggtctgagtatgtaagtcacaggtctccaggtctaaccaaccagtggcggggtgagtagtttggtgggaaggacagttaggaacaggtaactaaaggtgagttaggtcagagcaggtgaccaggggtgattcaggtcaaagcaggtgactgggatgagtcaggatgcagagcaggtaaccaggggaacagatgtgaactgctgattaaaactggggggaaatgttgtttactgaaactacggggaagttaaacttt
1 cctcgctgaagcgaacccatcgtgggaagggcgcggagaaagcggggagaaagagcagggggacgtcgggcctgcgcctggcaccgccgctacctggattcgcgggcccctcacacactcacctgccggtaaggatagctggccatggtgattctgacgtcacactcaggcaaggggtggggctttccgctctcaaacccgcccctcgtctcggctttggggctgggcccgcatctgattggacgtccgcgcctgtcaatc
0.4175170957428577 gaggtggtcaggttgggaaatttagtgagaagcctgggtggggtgttgctgcggtagccatgttataacctggcaaatgggacgcatgatagtgacgtaattgctggagtagctcctgagtttccgcagatgagccgcgggaaaggagacgaggggcggtggccaggcggt
0.8631348563789971 gggccgaaccctgcctctggctattctgaatgaccgcgagcaagtggcaccctctctctgagcctcagtgacatctctgtgaatcaggtgtgaaggtgcctctctcagcaggattaaatgacatcacttgttctgtacctggcacccagcagggccctgcaccatgggccttttcttccttctgagcctctgggcaggtgagggtgagctgacctccatcaagtcctctagaacctccagctttggtggcagctgcccccc
0.5784573906608901 tgcttcactccagtcacaaggaaggtttctttgctatatactcctttacttacctatctggcaaacacttattaaatagctgttgtggctaggccttgtgtctggaacaacgtatatgctcgatgagtatataataaatatttgaatggtgattcactcgacaaatatttgttgtagatgccggggatacaacaactctgcctttgtggaacttaacatcctatggagagcagatggattggaattagtataatgaaagaa
0.2952449597361589 cccccaccccgccacgtctcactgcttctcgaaggagtcgacgctacgcaacagcagcagccacaggtccggagaggacgcgggccctggcgacaggagcaggtggtggacggtgactcacaccgtgccgcgaagcgggggcgcctccgggccccgtagaaactctgcttgggctcagcccgtatggatcagctccgagaactccattctgccagtgagagacccggggcccagcagaaggccagactctgagagcgtcag
0.636197772675409 tgcccccacttctctctgcagctgaggtgcacacagcatcgcttccacctcacaagccccaacaatgctctgtgggttcccctccccctaccagctcactcaggcagtgacgcatgtgcactttcctcctggtggggtcaaggccgagttcttggacctgatgaggccacctggagttcctcatatcactggtgacctggccctcagctaatgatgggtgccccctcagcctggccccaggggaaatggaaattctttgcc
0.4717706447985238 tgagctttgggctcggcacctctcacaccttacttacctcctccactgcccaagccaggaacctggactgatctcagctcattgctcctctccatgcctcgccctgtggaagacccttcattcacctgggctgggttacgtcatcagcttctcactgacctctctgccaaccagttctgcccctccagacattctccactgtctcagggtcactttctaatagagggtgctcagcagctatttgttgacagacaaagtaaa
1 tcagctaccaaatagggaagggccccctgtccagtggacatgtgacttgcatgaccttacctatctttggagatga
1 ggttggcttcagagggttcggcctcctgagcaaggccacctggacagctgtgccctcccccttcattcctctcccctgagtcaggcctgcctggctgtgggcgcgccaccacccccgccccttgctctggaatggggcaggttgaggcctcaccccatggaggatgt
0.2266440496030783 taacattctcctaacaggtctcccaaatctactcttactccctccaatccaagttcttttttatttttttgagacggagtcttgctctgtcacccaagctggagtgcagtgatgcaatcctgagtcactgcaacctctgctcccgggttcaaacgattctcctgcttcagtctcccaaatagctggaattacaggtgcccgccaccaggccagagaaatttttgtatttttagtagagatggggtttcactatgttggcca
0.9054808637198167 catggctccgctacccctgcttcccccgctcagcccggcaccagagccccttcctgggtcaccgtcgccgccgcgtgccgggaactgtcacgcgagtccagccaggttgcatcagctgggctcggcgctccgcttactcggcctggacccctccggcagcggccggaaaaagtgaggagcagcagagagtcgagcaggtcgatgagacgggaaaaggtggagccagtgggcacggtgggcggtgcggagggcggggctgag
0.8123876648834674 atcagggaaggagaagtcagatgccctctggtggcaccgcacacctgatgaatgattcttttggctctgttccagttagctactgtcctagttagctctgttccagttagcttgtgtaactaacggatcagcctcaacttcgaggtataacacaatcaccatttcatcatggtcatggaatctgtgggtcaggagtttcacaaggcacagtggggatgactggtctctgcttacggtaggtggcctccaagatggctctca
0.1888460869869059 gggatatgattttatttgaagtcccaagcctggggtatgatgaatgtgggctttcgagtgagagttgggttcagtcctagttctactacctactagggatgtgatcttaggtaggtcacttctctctctggggaactgattgattacatcatcaatgcaacggggatggtaatgcctccctcatggggtttttgggaagatacaaatagataatataagtgcctggcatgatgtctggcatgtagtaaatgctcgatacat
0.5206763612021025 ccagctcccgttaaggcatctggcagggagggggctcctcccatgctggcagccattaccatacagctgactttcatgctgtctctcaggacacaggcaaagagaacggcccttctgactcacccacaatccccagctaaagtgtacataagctgaattgtaaacagctgaatgtgctccaagctgccacccccagctatgcaggaaggaatcaatggagcgaacagccaccctccccccaccccatgcagttcaggacaa
0.1277072544087869 ttttgttttaggttcaaagtcatgctatctgctaagaaaatagggtgggagaacagagcctctcaatgtcctgggagtattgttttgtctcaggcaaaagttcctaacgtggtgactcatatttaaaaccatcagtcttgtagcattaactcatggttagtaaaaacagacacacacacacacacacacgcatgcatacacacagacacatctacaaacaacaaaccttccagaatacaaaagcaaaaacccatcacaggt
0.2066163727446549 accccaacaagattaatgttgcaaaccttaggtgtaccgatggggaagtcagtgccatttctgccccggctcctaagatcaagcccctgagtccatctccaaaaatggctggcaatgacatcaccaagttaatgggtgactagaagggtttcaggattacagtgacattgacccttcagaatagacagactcaggttgaactgggaccttttgcctctgtcctgatgttacagtaggtagctagcctggtatgagcagagc
0.7446946136243979 agaagtgattgtaaatgctttaagactcaataataaaaaagcacaaataatctgagccaactaagtattccatcaaaaagcctcatgtaggaccagtggtgctatttacatagaccatagagtgactaatgcctctgggatttgtaagtcatacaaactggcttgttacagaaatttctgcaatagtggcttgggcaccaacctagcgctccattgatgttaaggtttatgaatcctggaagagtttgaaatagatgccca
0.5693838181983401 acgtcccccgggccgctttggtttaggtgggtttgagcgagaatttggactcgaagctgccctctcagccccagtgccagagcccccaaactccagggtgggaaaggggagtcccagccctgctccccctctcccccagtccccgcggcgggtgagtcacccgagcgctccctacttagtcctcaggcgctgcggcgcgtaccaagacgcggacgcagggggaggcagctagcgcggcgaactcctggagccgtggagccc
0.5519600976334815 ctccatccagagaggtagcctgggaaagcagccaagcaccctggcttagggatgtttgcggtggccccttggctcttcagggtgccttctgccatgcgcagtgacggcagactgagtcactggcaggtcttccctgtcatactggcctgctctggctcatttggactagaagaggagattgcaacaagggaggtcctggcatgggcatgtgactaagagtcccttcagctccaaccatcagttgttgctttgtgcagtgac
0.3554210714290477 gcagacgaagaccgagagaatggattaggtggcgtgactctgatgacgcaacgcacggggcggagctcagagaccgggttcccgctgcgcgtgatcgggccgtggtggttgtgtgcccacgtttagcagcgtgc
0.487353052855489 ttgcctttctcaggccccagtccctgaggtgtgtgtgaggactgaactttaatccggaacaatctggtttctcctcggtcagcccagccggtgcttcccccgcccccacccacgctgcaagaggcgagggaggggtggtgactcagtgtgcatgtgtacatctgtccctgtggtcccggcagctcgccgggtggggcaggaaccagaagtctcgcggcacctttcccccacccccaggtgtgttgcaagtggcctggccct
0.9143158740726667 cgcgggccaagcgcgaaggcgagatctgggtagcgtggacaggcgctagcgaataagaactggctcttatagagtcacgagactatatctgggaaactacacttcccagaagcagcctgcggtgactgcctctgttaaatgacgtacttcctgaaagccggctccggataggttgcttagaggaagtaggcggttctaaaccgccggcggctaggcctatttccggtaggaatcagtggacttggcggcagaggcagtgcg
0.9130154287274814 catgcttacctccaccacgtcacctttccagtgaggtccaccctgatccttggacttcaaatgcccctcccccaccccacgacaggcattcccttcctggtctccttaccttgtgtgtgtacacactctgtatgaatcacctccaacttgtttgttttttgtattgattattgttttatggtccctcacctccagctaggatgcctgcgccataggaatagaggcctgtctgtttccttctttgatatccccaaggcctgc
0.1070478574471986 agattaacacaaacctttcttagtttaggtaaatctgagaagcaaaccatgtttagaagttacagcatggccatcttcaatttattttctgaatttgtccctttgctggtatagagcagattcagttcagttgaatgtagtgagtgagtcatccatcaactaaaatccatgtccctttctgcttatccttgcttttaaaacagcaccatccaatagaactttctgcaacaatggaaatattctatctgtgctagccaataa
0.2353325736547583 tttttgcacttaaaaacattcagagaaggggtgtatggcacacaaggaaaggctaagaactcctacctttaacaatcccacctgcccttacaacttcagtaaccatttttccaccgatgactcacctgaatttttttctccaattcagatctctcttgaattccagacccgcgtatttacatacaaatacctccacttgagacgcccaagtgaggctttaaaggaacctctaacacaacatgtccaaaacaaaactcattt
1 aatctgtgtggcagtggtaccaggatacagatctaaataaagttcccaatgtgctaaattatagatggcctatctgtagaagggtactgtgagagcttttctcaggttatgactaagaggtgtgtaaacatgagggaaccttacaggtcaaggacagaaatcccgtgaatgcagacccaggaaacctgtagacggctctgcctacaaccttgcagacaccctgtgcatgcagcagctgaggcttgttcagaggggtgggac
0.03406182837405192 ggtaataaatgtatgccatcaagcagtggtaaatgcaatggcaggattagaaagtggcagaggtttgtggtactttggacagggtggtcagagatggcctttttggtgagcgtgttaaagcagagccatgagggagtgagtcatccaggcttctggggtcagagtgttccagtcggaagaaatacaaatgcaaagggcctggagtgagggcttgcttagagtggtttagggacagcaggtggctgaagtgaggtgaggacg
1 accttgtgccatggatagaagattgtaaagctaagatgtctgagttgcgagtcactctggatccagtgcagctagagtccagtctcctaagatcaaaggctatgctgaatgagg
1 ttgccttctcccagcaaaaatctttggtcaggaggggaggagcatattcttggctgaactcatgctgagctcatcggaagtgaaaacaatgagaggagaaaaattctgtgtgtcagttccatagtccccaggaggccgcataaagggaaggtctttttggacccattctgaggactgagtcattttcatgatttgagtgtggagttcctgggttaatgtattatagtccagccatagattaatctttccttactccagcag
0.1240058384171946 agtgcagtcgcttctgataggccccttttgcatggcaagccctcctccagccccagcactcccagtccccctccgctgggcttctttgtgtgttgtctcagctgagtcatgcctcaaaggtgcagttttctactctggtatgttctagtcatgaacgcctggactataacccatttaacagtcaggacgttatctaacttgcacactgtgctggcgattaagctgtcatctctctgctccaaaccctcctttctatgacct
0.650942420823342 caaatcatcaccaagtcctgtcagccctccccttctacagatcttgcgtctgtccccttccctctacccctggctcactcgcccagcttgtgcttcatggtctcctgccctggctatgacgtcagcttcctccttggtctccctgcctgccagttctcccacctccaccctgccccatctctcctccacatcagcagccagagggcccttctaaaacacaagtctgaccttcttagtgcctgctaatgatatcccattgtt
1 gatttttattattatagtcattaattcatttaacaagcaagctctaggcattctcccacatgtacccagtacgtcagccaaaatgtatttcctgatatttcccaacatttaacatgtttcctcatcccgctgtggctttgcacatgtggtttgttctgcctggattgcccttcactccccatctgcctggcaaacttgccctttgagcctcagctaacgcctggtctccttgaggcgcttgcctggacctcccacactgga
0.06754584214948435 tagcctctagccagttgttgctaggctgttgtcaggactggcgatgcgtaggccactgagagcacccggagtccgagtgacggaatcaggcgggcgcccgcgtcgctaaggagtgcgtcacagtgcgcgggcggccgggggcagggccagggctgagtcacgtggcttggttgcctacgcgctggtgggccgtgggaagatggcggacggaaagggagacgccgccgctgtcgccggggctggggctgaggctccggcggt
0.1238379835873895 gccctatgggctaagacagagggtcctcagaaaggagtgcggacgccgtcatgctgcagcagctcctgatcaccctgcccaccgaggccagcacctgggtgaagttgcgtcatccaaaggcggccacggagcgggtggccctgtgggaggatgtgactaagatgtttaaagcagaaggtaagaataaactgatgggtgggagggaggaaaagcagtcccctctagtgtgagaaggaatgagtcacttgagtggaagcatct
0.3993884936870419 tattactcgaactaatttattaacacaaacacagactaacacaactcgcccaccaggcagatggcgaagcctggctataaaactggcacaaggaagagagaaaattgattagcaatgagtcatgaatggcaggaaagcatgaaggagaaaaggcagatacacgaagtctgtctaccagctggtccttttttaaaaagggaggaggcagacagtgccccctacagggctaatggaaatggcatctgccctttttaggaagaa
0.3590971050153321 atcatagtccatgccctctggtggcaggtaacagaagagcattcacaccaggaattgatcagtgacagaaacatacaaaggattcctttgaagttactgtatatactaaagcatgtgaccaaatttgctgggtaagcagtttacactgagatcgtgactcacttgactaggggcctcattaaaggctagcttctactccagctcagtgactctcaaacttggactggaatcccctagggaacattaaagaatacatcagat
0.7081038940746436 ggctccaatctcctggtgaggatgaactttggtttggctccacctgctcaagtgccttcggaagtgtgcccaccttgccagcctcgtcagaatgcagtctcaggatgatgaaagagttcaggaaatgccaccccaaggtacgtcactttggacttcaaactgagagcatttgaggaacagcaaatgcagggagggactttctctgaacttcccttatctgcttcaagataaatcctccaaaaggaactcaatggttataac
1 tggtgcacggatctgcagggacagcttcccgtgcttacagcacaaagtatgcacggaatgagggcctctgcatacagggccccttcttcccaagataacatcaggctcctcattccttttagattagctcagttatcgtcacttcctgaatttcctgcctagtttccttcctgactgggtgaaattgtaaattgcggggctctttttcatttcccttttacttgctgtctgtaacttctctcccaccttccaggcatggag
0.2897355210589596 ctaatcaatataatttccttaaggacaaggccaatgtttcctgaacattaaaactttgtacccatatcacagttcttcttcattaaaggaaaagatctaaaaccaacacaaactattgattcaagtgactcacactagaaacaaacaccactcaaacagttccactttcatccacctctccaaacaacaatatataatgtactatttctgttcagaacttataaaagccttccactagaaactaaagaacatggatgattt
1 ggtgggcagaggctgaggagctgggagtgtgtctgttgtgtcatttccctcctccccagagcctgtggagcacacagggtctgttgtctgtcgtcatgctctccccctcgttctatgggtggcctgtctagactctgctccctgtgggacttcccgcagattccgttgctttctctctctgggcctgttttcctattgcacaatggggataatcactcctacctggaaaggttaactgaggtcacatggatgaggtgcctg
0.7401194969231085 gactctgtgcagctgcgcacctgtgtcccccacctccaccctcaacccatcttcctagtgtttgtgaaataaacttggtatttgtctgggtcagtgcagcttctgttgccctcttgcgtcaccgttcacagaggaagggtaaagaggcctgtacgcctcagcctcatgccaatcccttgtcagctttctgactgcacacttctgatctgcacagagcttgctcctaggtggggaggcacgggtgctgggtggactctaacc
0.09832480667328677 tgtttatgtaagttacctatcaatgttagaaattaaaatggagaaaattttaaaacacaagaatatacaagcatgcattttgttattaatagttgccagagcaatgacatcatcacatggcattccattagcctctggaaaactccactttacacttgtatgagagaatgagagggaaagagtcaaaacatcttagtatcattatcaaaatagttttgggtgtgtggactcccagataagtctcagggatcttcacatatc
0.2374918555652771 atgtgttcgagtttcaaagcaaacccactttgcctacagtttcaggatcttgtgaataagtttctagtcaccttctctacaccatttgtgatttgtgatttccttcacatcccccaccagccttctcacttccagactgggtggtgagtcatcgacccttccccactgaggagcttttgcatgccctgcgtcttctccagggtgggacagagtgccacggctgagccctgcgggtaggactgttccagctgggcacctcaa
0.02456679162693129 ttctaccttttcccgctgtttctcagttgctattgcaggatctctcccactccaatcccccacttaaatgtcagtgtgtctgagcattctgtgcttttttacttggtcattgcacttattacattaggcattacatcattcttcttcatttctcaagtgccaatcatagtgcctaaaatttagtgggtactcagtcagtgcttactaaatgaatgaaccatgcttttactgaacagttgtagattcagtgttctacaccta
1 aaaaatgcatgttttatttgtaaattgtgcagagccattttaaactttaaaacagattttgacatgcctatgctgaaataaaatcctccagccacataactctaaggtaaacaagacagtgatgcaacatgagaaccaggcctcaattttgctttggttgaacaggcttggttgaagagcttttaatcctattcatattatataatcttgagtggggattttttcataaatcccttccaatttagcatttcctctcttctt
0.03462666034741013 ggggaaaaaagggagaatctccttttaaagtaggacgtggtctgtgtgcagtgcattgtgggtatgtaaatgacgctgagtcaccaccccctcggtttccagaaataccttaaatagttc
0.4427881011875362 ggaaagacctgtgttgtggagttgccatgggttgctagagcaaacactcctccctcccaggatccctccctccagtctggctctggcttaacctgagagcattgttgctgtgagcatgtgctgagcatggggtgcccctgagtcatcagggagagcggccgacagggtcttgcagcttagaggcaaacttcctaagcgcaggcaacagaggggcagatgtagagcaaggctgtggtcagaaaggctttgtcctaccccagg
0.1513523444039056 ggctgaattatgtcaccccccaaaaaatatgctgaagtcctaacccccaatacctcagaacataacctcagtccctcatgatgtgactttgggaatagggttgttgtgtatgtgattgagatgaggtcatactggagtagggtgagcccctaatccaatatgaccggtgtccttataagaaggccatgtgaaaacagacacacacagggagaatgccacgtgaccacaaaatcagagattggaattttgcagctccaagtc
1 tgcctaaagtccaaactcactaaaaagaatacttgttttttcttcccctcccaataagactaacatgtaaccacacctgaacaaaccctttcacaggtattgtgtacctcaggatcactcaaattccaaagagaactattaacaagtcaacctctgtccccattccattctctctagtaatcctttattgcccttcaacagaatctccttctggccaaagttcggtttatttaaaaacaaatagagctggacatgctggct
0.4071423271685859 aacctgaacaggtccttcaagcctttgcctttgcttacattgttccctttcatttgaaatattctcccaattatccttttcacctaagaaaattttgtattttaaggcaagctacctttttagccatgacctcatctttctccctctcatctcaactcttagctcctcctctatgccactcctcttacagtctagcagaaaagctatgaacccctcaggagcaagttctggtttgccttccttcctcacagctttcaattc
1 agacagctttgacccatagtcatctccacgctggtgactgttgacataaaggacaaggaccagccttgtgactcctggcttgcatatttacttgtgggggtagcggttactgcctttggacacttggcctttgtcttttctttggaaatattttatggctttagtcattgtgaataatgagtagtgcatataggcagtgaatcctcatctgtgggaatagcaccatttcgtggtttttttttttttttgagacggagtttt
0.3328453001303573 ttactataatcatttcttatagttcataccgttctgtgtacctaattctcatttcactggatcttacgttagtagtcggcttcttaactaaaaaaagttctggaaattctgactcattccactggaatgatctggaagttgtccagttgtccaagcaatgctattggaagcctgtctattctttgatgtgtcagtagttttaaaatacctgccgcagtccttttccgtggagctctgagacaacccttctttgttgaagac
0.0309033841494756 gttaaactgtataaatgaagcagctgattcaaggtcaactgactgctcccagttttgtttataacttgtttctctgggatgaatcatcacttacctttgaactgtctcctccagctgctaaaatcgattcttaaagtggaaaaagcctgcttgctaggctgctagattttctgt
1 atcccagctactctgtaggctgagacaggagaatcggttaaacacaggaggcggaggttgcagtgagccgagattgcgtcactgcattccagcctaggtgacagagtgagactctgtctcaaaaaaaaaaaaaaaaaaaaaaaaaaaaaaattctctgaaaccagtgatgccatcaccaaacaatggaacagtgtgctcactaatgctggtctttacaaccttgaaattctcccttaatcttcttggcatttaatgctttg
0.2002684603429707 gggggaagatgacagtaagcaatgtatatcaggatgtgggctttttgtggacttttggctttactcttgtaatttaagtggttcacaaacattccagtggtccctggagataatagtggctgaaagtactggccagatgaggtcagcatcttctccccggaggtttggttgtcatcttcaaacacatactaattgcacaagcaaatagtgctacaaacactttttctggccgggcgcggtggctcatgcctgtaatcccca
0.9264739461259399 tcagttcagtcaactcaagtggggagcataaccctgagatcacagggctgctgagaaaaatcaaatcaaataactcatgggaaaaagccacataaacccgaacatagaacagtgtgatgtcgtcattgccctgacttgagagaacaaagcacagatccagtgaagggacttcccatggcaacctgggaaccataactgtctctgactcctggcccagagcacagactctaggttagccagccaaccccatctctgcagcat
0.2031537627690337 gtcaaggcctcaaatgcctcccagaccactgggaatccaggcctcctcctcagggactccatctgtaactgaggcacgggccacgctgaactgacatcagcataggctcagctctccccatactgtgggcacctcgaggacagagcttgtgtgtgactcatctctgtcctcagcaccgatgtcagggctgagccaaggtggcctcaggagcctctgggctccctgctccttcaccgacccaggctcctcagctgaagggtg
0.2970444414121406 aatttaaaacaacagtttgttacctcatagttttcgtgggtcagaactttgagttctggctcagggtctcttatgaagttgtagtcaatatattagccagtgctgcagtcatctgaaaggcttgactggagcaggaagatcagcttccacgatgactcacatggctgttgtcagaaagtggcagttccttgctggctgttggaaggtggcctcattcctcaccaggtagcctctccattgagctgcttaagtgtcatcatg
0.07967212047192085 attgactagtaataatttaactaagaagcatgtgattttagaatgaactgaaaagaacccattaatctacatttggttttcattgtctgctttgagtgaatcactgatacctggttgcccactacagtgctgactttgttccagagactcacagcattgcctcatattgtcgaagtggaagttgtgggggaggaacacttgtgtaaatatttgcctgcattttatctgacagttttggagacttcagctaaaactattcat
1 aagtaaagtgatttccaccaggtcacacagcccgctaaacctctcccaaagggttacacgttggtaaaggagccgccccgtgagagagaccggaccaatcacgtttgctgtgaggtcactttggaggcctgagattggtgctcgtgtctaaacggacccgatctttctgagtggctggtgcagctgagggaggttccaggtggcttgctcgggggctgcccagctcgccgtcctctgcagatcccctcgggactctcagca
0.6521352663849779 tgtcaaggtcaggtcatctgtactctccatgtgcacatctagtggatacttgaccttgtggcagcatttgacagtttgcccctccctcctggaatcttgctcccggctcctatgacaccatgctggttttcctcttgcatcactggctgctgctttcccttctgtccctgactctgagtaatggaggtctaaagggcattgtgctggactctcttgtttctctataattctgttacagtccctgcccagggatttaaatgc
0.01944039479600547 gatcttctcatgtctctttgaaaacagtgaatacattctaagctatcaggcagtataagtcacaatttaacttttaataattttttacctgtaatggacatgaacaggaaatatgcgatgagtcattcatctattcaataggtgcccgatttctattgagatgaacaccgtgtaccagaatctcactttcttccccatccatatagttgtgctgaccttaaaacctcatttgcaggctattcagtagttatgcttggataa
0.2846169549313192 ggtcacagtagaagaatgtgggtccttcatcctttcctgtaccttgggacatggttcaggcatgattgaggcaccctgggcactgaatccctaccttgggttaggccctgtgcaaatactggaaacacaaaaatgaattgaaaatgactcatacctagccgggtgcagtggcttacgcctgtaatcccagcactttgggaggccgaggcaggctgatcacttgaggttgggagttggagaccagcctgaccaacatagtga
0.3701282203113372 catgggagaacccgcagaaccaaggctcctgcccaggtgaagctgttgcacttcaaagccagaaagcccttaggtgccagtcctctccctgtaccgatgaggaaaaggaggtgattctttccacaaccccgcccatcatgagtcaggacttagaaataaacaaacaccagctcggagcaacaaaagccctggggctttgtaaccagagagacctcagttcacatttgaaccctggccctccaacctccctgctgtgtgacc
0.7095174871268909 cttccaacagccctccaggtcaggcacagttcttattcccattttacagatgcagccgctgagcctctgaggatccatgggctgggcggtggcattcgattttccctcctcagattccatcctcctgagtcacacagatcccatgacatctgacaatccaaggccactgctgatttctacaccaataaaatgtgactgctgtgtggcttaggctgtggggagggagagctgtatctgactcaggagaggggaagctccgct
1 caagggcgagctgggaatgatgcctccatcaggcactggagaaacagaacaatgaaaaggcctgctggccctaccctctggcacctccctggccagcaaggctgacagaaaagccaacatattgctacaccacaaggcagaatgatgaaagagctagaagagaggatcgaagtgttctgaaaacattaactctagctgggaagttcagaaaaggttttgtaatggtgataatagcaagtataaaaatgaggaccatttact
0.6632821401663906 gttgaccaatgaatgaatgaagattgtaggctcaaatattcaagttatcaaagtgcaaagaatgagaggttgtttgcactggacttcaaaaataaatagcctggacctgtactgtcttacacaacagctatgagctactggtatgtggctagtccaaactgaaatgccctttaagagtaaaacacacactggatttcaaagacttagtacaaagaaaaaatgcaaaatagctcattagtaatttttatgttaatgacatgt
0.8822355495895364 atttgaagtcagatctgtctgactccaaagtccatgttttttttgtttgttttctctgtggtttgttgtttctatgatgtggcttctgtcaccctgactctccttttgtcttttgtccctcaccaccttctgtagtttcccagtcctcctgactcataccagggaagcctcctgtgtccatatacaatgaaggctcagggacttctaactcctggtggactggctgattgagccctggaagtgtactttctccttcatttc
0.295217159750198 gaaaagtcaatctcctagatccctcccagctctgacattctgctattaatattttgctacctcttttacccggtatctacagctcatgtcctggcccacccagcatgagtcatgcctcaagaacctcaggcactcgctcactccaaggattttccattctttggagaacctttcactcttcaaatattgtctttctgatgtggtccttggcagcgtcatagatctctccagctcacgcagg
0.3021587968697251 gaatgtacattgtccatttcaggggcccgtgttgtgattgtcatcctaggacttaccataaattccacacacatttttccccagtggaaacttctatcatagggtttgccagatcatatggcccaagcaacagggctgattgcgtcatggcctggacaagcatctgtttgtttttggttttttttttcctgctctgggtctggtcaaggctgtcaggctttcgcatcacctgggacataagccagagcagcttccctgtgt
0.2723023377608775 tttgagacatatcatatgttgcacaaagcctgcctggcaattggatttgtggaatgagatggacatcaacatgcatgcttactgcacgattgttcattccctgcaaatgagtcataacctttcccatcagtgctgggctccatctccttgttctgtccattgagtactctccatctctcaaagtccatttaagactagaacagagtaaatccaagtaaacatggtactttgagagatgcaaatacctcactttcactagca
1 ctgaggatcaggaggcccgaataagtaattgcccaaggttacgtagtgcagaagtaggtatgctggaatttgaactcggatcgatctgatttcaaagccctgaatagttctaccacatcaagggcaggaatgatgcgaagccacttacgtattatggtacttgtcagtgtttgtgtacctaaagacaatgctcattttatgtctactgtgtgcccaatgtgtgtcagtcaccatggtcagtctgaggatgaagcaatgaga
0.1978058938643184 ttcctgggctcaggactctagctggggagtggcaaaagccacagtgcaactcaactcaggagaaaataaatgcctggaaatttgagccagctgtttttttcttactcaccaaagtgcattgagtcaacccttaatcttttgtcaatatttgcggactgaaaacacgacaaaccaccccctgtgccgctcagagtgtagacactgactgatgggaccaggtacaaaatcccctgggacaaaacagaactttcataactggct
0.3693477281731561 ttaaaggcatattcccttctgagtctcacttcctggggttctcccactagctcccgctagtttcccagatggacgcctgggtcaacttgcgacacattggacttttgtttttaaccctccaggaccttacggcccggaaaatcccaaaggtgactcagagactttcagggaaagtgatcaaagctgaggcccctaagggcactggattctatactctgcagcttcccctatcccagagcaggagaacgggctggagctgaa
1 gtgtacagagattctggtacagaatccatctttgaacctgctgctccctggacctgatatgtctagcagtgcttgtggaaaacctactcccttctcatcctctggccaggttaagtttaacctcctatgggaatatttccctgagtcactcaaaaacaaacaaacagaccgggcgcggtggctcacgcctgtaatcccagcactttgggaggccgagaggggcggatcacctgaggtcaggagttcaagaccagcttgcca
1 ttgtgagtaagaagagaactttgctccttcctggcattccctgggacagcggccctgattcgtggggaagagttctgtcatgtggcacaagcagagcagaggtcacagactcctgcttggcacgtgacagctacattgcacaaccctgataaagctgcaaaacccatgaggcagatgcctgtcatcctactcatagttccctctcccaggcacctggtgccttcatcacatggtctctggttccccacacctcctcacaga
1 gaaagccagcatggagtagtggagaaaagcatgggattcagaaacacgtggagaatataggcagtagggcctagtagttaagaatgacctcaccaggcagacgtctgaccccacctctcaaactcactcactgcaccacctttggtaagttatttttaacctctcttacctccgttctgtaaaatggagacaatagtaacaagtactttataggctcattgggaggattaaataagagaatgtatacacgctgcttaacct
0.3571414954148393 cctagtgggcatgagatatttgccctgaaggctgtggaatttgatgggctggggaaggcgactggaaggtatgtgtgtgatgcgtgtgcagtaacactgtgtataactctcattctttccacagcacaagggaagtgagtcagagtactcttgtccaaacaactgaatagtgagcaatagcaaattgttttaggaaatatagttttattatttctaactctgtaggcatacaatataataatgaagctcagaagatattct
0.8984933303898534 cccttgtacagtagtatctcacattcagtacttctttagatcctcataagaaatctgggaattaagtattattcccattttctagataatgaggatcagacttagacaggggcagttaggccacatagctagaaagtgagtcacatttacttagttttaccatgtgacaggtctttcccctatatcatctcccttaatcctcacaataatcctggagggtgtgatgactgttctccctttacagatgaggaaggaggctcc
1 agctattattacttagtagaattcagggtttggagtcagacaggccaaggtttgaattccatgtttgcctctttccagttacatgatgttgagcaagtcagtaagaggctgtagggctctagaacccatctacctgacttcaaattgcttctgtatgattcaccagctgtgtggccagagaaaattactaaccctctctgggcctaagttccttcatcaataaaacagggataataataataccaacctcaccgggttgtt
0.9979309062264131 gtcattggctgtgtaaggtacgcaagggtctggtcttgcccaacccgttttcacatctcttttgaagaatgcataaagtgcagggtgcttggtttttttctgatggtctctttgtgcctgtttaaggatgagagtgtgtcattcaaaccttgtccaaagatcaaactctctttgaggaggggattgatggaattccactgactgctttatcagtgtagtttgaagcttagagagagaaattgcttaagtgcttgtcagttt
0.1462789487652033 gaccatcctagaaggtgtgttgcaataggagattgctgaaatctcagcacacctgggaacattgtctgctcagcaaacttacacaaataatgaaatcccatcctctgagtcatttactgactatctgcaaagacaaagactctccagctccgtgaaagagcatatacgtaaccagactcacagcata
0.3302632953557076 ttaacacagtgcctgcccaggtcaatgtctgatacctagagggtggccagtgaatagtaattagcattcagattcacaggcctattacttggataaggaaatcaaggcagagagaggggtatagtcacttgccacttgctgacgtcaccatatggctctgtgctaagtgctttaagcacattatcctaggcagctctgagatgagaaagcggagctccgagaataggtgttatgggtccttagtggcagaacccagccttg
0.2527009940401452 ttatccagcccgagctcaacacttatctgctaccagtcaacccctaaaaatagcccatgatgtcaccccaaggccttcccattggctcgcgtcgctctcaggggggcgggcccgcccgtcaccatggagactccaccctagaagattcttctctgggcccgcggaggctcacgggatgaggtaatgctccgc
1 aaggggtctcccttcctgcttggctccacctggctccaactctagaaagcacctgtgttgttttactgataacagtgtttgcccttccaaagccagagccataaaaggcagctttcaaagtcactgccgcagaaatgtcaacatgagggggaggccagtcatggtttctgaggcccaatgtcacctccaggctgctgcaaaggctgctacaaagaccttcgggtcctggaatctggacttgcttctaccacaaacttgctg
0.349392187131002 gctgatcctgaagccttgctacaacacctacactaagtgccattaggacctttcccagaagcacctgctgcttgaggtatagaaaggggctgggtggaagacactaaagtgtccaaaaggtgatgtcattatttgatgtcccctcctctacactgccctccttggtgggaatctggcttctggtgtagctcctaaatcattcttgcgtaggctatacctctcttcttcacctcagttatttcaaacccacggtctctctac
0.9393271173455364 taaggcaacaaacagctctgctggccccggcagaggccttttctgccaggctcaagttacttaaaatcaatatttgaacaaggacaaaaccacatgttttcaaaaccaaattagaagggtctaataccaggcctggagatgtggttacatcacgcgcattccagctggccccttgggcctctgccgttgggcctgatcagcctgcccaagctcctaccccctgatacagtcactggacttacttgtcctgagcatctgacc
1 tgagggccataaaaggccagtttatgatggctgtgttgtgctggaaataaagtccccacccccatcctgctttgtacttgggagtgggaagggaccctctgggccaaggggattaatcatcagctttaatgttatgtcatgagggtgagactgtggtcatgctggcatgggaaagtgcctttgatctcctcaggtgctgggaacccagcaacaataacacctttgtgaggtctaggagaggtgcaggtctgaggaaacact
0.5764356835126485 cctgtacttgtagaatttaacaaagaaggataggacataaggagagaaagtggtgtctaaaaggtgaaaagaagcattgaattgtcactggttcatagttcacagtgctgagtgaattgtcactcagcaaatattaactgagtgcttactatgttccaggcacagcactggacattagagctttggtgagtaagacgagcaaagaccatcagaacacctacattctggtgtccattctctgtgttcccttaggcacattat
0.8795571224816822 cagctagctgtgagtgaccccggcactgactccgcgctgcagccctggactttgtgaaaatgggtcatcttccaggccctacatccctgggctgactcagaagcacggcggggagtgcagcggcttcacagaaagttctgctttggaaactgttctcctctaggctgttgaatgaaaaggctgttaatcgttatttggattccgattgaaactggaccttttgtctctaactatggaccagttacagttccagacaaagag
1 gcctctgacttattggattgcctatacaaagatcatttccccacctgcaccctcccattcctgaccctgccactcagagggcatgggtagaatattacattccagagagaaaaggcaatattcaggctgaaaaagaccaggctgcagttgaggacaatcctctttcaccatagagctctcaatgtccctgcagacaataggcctctgtgcggccccatcttcttatgcaaggacaacttacatgttttcatctttggaaac
0.01728833770024121 gagagaggatacattagggggagaactgcgtaaataaaaaggaggccataggtaggataataaggtgtgtgtgtgtctttgcacatatgagtgtggagtgagcaagttttaatttctcattatttaagagatatagaagaatgacatcatcaagatgggggaataggaaaccccagaccccattccccaacagaaacattaactaaacaacaatacacagacaaaaagtttttatgagaacctagaaatcagttaggaagt
1 acattatgggtaaaggcctaggggcagaaaggacccagcatgtaaagctgcagcttggctaagacatagtgtttctgaacagtttcaaatacgccagtcatatcatgttgaattcttggatggccagtcacccagcgtgtttcccttggaatgaagcttgctgactgactggctgacagctagaaagcatccataaatgagagatggagatgaaattaaaatgtgacttctttggcatccacctttcgaacctaggccttc
0.4609444564248772 gctctaattttctagcggcggtttgtacacccaagccggctgcaagggttaagtaaacttcgtggctaaggatgacttcatggccctggaattttgaaaagccaggattctc
0.03478357503438372 ggcagagatggcagtgagctaagatcggaccactgcactccagcctgggcgacagagtgagactccatctaaaaaaaaaaaaaaaaaaaaaaccacacacacacacaaaaatgagtcatcctccaagcatttactcaccatgttccaggcagctgctgctatatagcccatccacttttgtcagaccaaatggttatggccacattgatctcaaacagagagcacttctttaaaatagaggacacagcaggccgggcacgg
0.1898781415247193 aaatacaaagcagaacttgggagtacactggtgaaaatctccggtctccctaatcacttttttttttttggcagggtcttgctctgtcacccaggctggaatgcagtgatgcaatcatagcttagagtaaccttgaactcctgggctcaaataatctgaccgcctcagcctcccaagtagctgggactgcaggcagaagccaggacgtctggtccctgagcccttttgatggctaccatccaaccctgagacaaaatttgc
1 gagggtagagtcatgaggaattcaaggctgaagatgttttggatgtttggatgacaccgacgtacccctcaccttgcaccttgaaccctgctctgaagcccgtgtagttttcaggcttggcctaaggcaaaaactacaaagcatcctaatgagcagaattatacaacaggaatgtatgtgcatatttgacatagtttcttctctagaagggtggctctctggcctgtgacctctgccctcttcaagggcgagggaggagtc
0.4599722686022044 ccataatatttttatttatttatttattttgaagagacaggttcttgttcagtcacccaggctggagtgcagtggtgcaatcaaggttcactgtaaactcgaactcctgctcccacctcagccttccaaagcactgggattataggtatgagtcaccatgccaagcatttttaccataatttttaaaaatcctaattttatacagttacaaggaagaagagtatggaaaaggggaggagtcaggaagtaccttggctgtaa
0.3073292614924703 ttgcacaatttagtttgctctctctcttgaacttttgtcagagctatgagcacatgaccaagctagcctgctagaagatgacagtagaatttgagagacatgtcacagagctgagtcatttctgtcttcccagtagaagtcagcctatattagctgatctcagccaacctccaaacttgtgaatgagcctagttca
0.02167013608049025 ggtgtttgatagtccctgaattggttgtctgctctcatactcccagccagatgttgcatgcctttatctctgttctccaaacatcttttcactactctcttagagaactggccacattttgctttgaatagttctttgtatacatgactcactagttgccaaagtgtctgaaaggactttgcatgtactctgcagcttactggaaacatttagagcaggaagaggacaagcaggatcacgctgtaagcagggtaattcaga
0.1363436858563649 tagctaacttttttgaatgcaccctccctgccttttcttcattaaatcttcacagacctaggttcagattaaagtatattttctttagttgaatttcgggttggagtgccagggatatttctcccttccactcccacttgatgatgtcattcatttgaaatatagttgggttcatttatttagtttgtcttccattttaggtttttttttttacccacttcactgattttatttatgtgtttgtctgtttatgtgtgaaac
0.6473975178174146 ttttttttaaaaaagagttcgtttatcacacacttgttttttaaactaatgatttgctttcaagtcagtgttgtcacacgtccaaggttttcctacattctggtcaatatttattctattgtggactgtacaaagagagcgtcatcagttgttcttttaacactgagacttgtcaatatgaactaggaaagaatgatgataaagaacaccgaaggtacaggaggactctgggtgaggcatagtgccatcagatcagaatcc
0.2388793704432815 aattaaagtgaaaacatagtatatcaaaacttgtgagatgtagttaaagtactacttagcaggaaattgacggcattacgtatttaaattagaaaaggaagaagctgtcaaataaatgacctcatcttcaatctgaaagaaactacaagagcacatgaaatatgaagtatgctgaaaacaagaaataataaatatctaacctgaaacaatgacatagaaaacctaagaacaagagacaatatcaatgaaacctaaacctac
0.6793745293350657 gttcaaaggtgctgaggctggctgggtgactgccaagagacacaaatgaatgtgtccccagggtcattgttctactgagtacacatacaatgtgaccatttatagctctctcccctgattttctcagtgagtcagtacagtgtggggggaagggccaggacttgaagagggactataccgcctctgtgactgggtgaccttgagtgagttctggaacggttggcctcagcttccccatttgtaaggggagaataatgctgg
0.4778139114115608 gataatttttctggatatagaattatagaatgccagtttttaatttcaacactttaaagatttttgtttcactcttttcttgtttatttggtttgtgatgagaagtcaaatgtaatttatatccttgttcttctagccaggtgtgatgactcatgcctataataatcccagcactcagggaggcttgaggcaggagaatcgcttgaacccaggagttcaagaccagcctgggcacatggcaaaaacctgtctgtacaaaaa
0.4309657080004515 ctgctttaaagcccctctcctctttaaagtggtttacaaacattagctcagcacccttcagggcctcatagtgaggcgggctcatataagaggctagtgagtcataaggaagtggcagctgtggttgccatgtcagtggtcctaataacacccctaacatgtgtctctg
0.7721752334277929 gaagcttctcacactgtaaattagtcgagtttctccagttcaatacaggaaggctgagtgacttgcaggtggtgttcacacttttgccacatggggacgccaccaccgttggtagccggacatactggcactccgtcagggtggaatatgtgagcattgcataacacaaagtttcactcaccctcatcactcagcttgaaaggaccattaacacagttttctctcccattaaactaaattcctcaaaggcaagcttagact
0.2908331834759556 tgtggtaggtgggggtcaggagggtggctgcctttgtccgactagagtgtggctggactttcagccgagatgtgctagtttcatcaccaggattttctgtggtacagaacatgtctaagcatgctggggactgccagcagcggaagagatccctgtgagtcagcagtcagcccagctactccctacctacatctgcactgcctcccgtgactaattcctttagcagggcagattagataaagccaaatgaattcctggctc
0.6557746766009063 gcacaataatctggttttgctgaggcatcacactgaacagcatatctttagagctggttcaaagctattcagaacaccccgagcctagaaaaccatcagttctctaattatgatgtcatacattttgtctgagaaatataacaatggtataagggattcacaagcaacttaggatgaaccctcctctaaatgtcaaggatttactttgctcaaatatcataataaagagtttttaaaaatctcctatcttcaaaaatcatt
0.8956992246987383 gttaagtaactagccttagactagtaagtattggagatggaattcaaactttagaaacttgaggttgctttaggaaccaactcctaggcactcagctacactatgctatctctaataatgctagtaacaatttagcctattgcgtcatttaagcactgtggcttagtgattaagaacacaactcatgaccgggtgcagtggcttacgcctgtaatcccagcactttgggaggctgaggcgggtggatcacctgaggacagg
0.6769299606692124 tagtaaaccatttttctcctttgtttctctccccagtgttgctaaattttttaacatccaacttagtcagttggttactttgatttttctgtcgtttccaaggggttgatattttgggtgacatcatcgacctatttatttctactaaatcaggatcatggaagataaccctctttggggaatatgctttcttggtttttgttgataatcctgataaatctatgttgtcctcactcataagaaatttttctattgcactgt
1 atgcacgttttgaagatattggatacaactggtctccagaagtgggaagaccatttttgctccttttaatagtggtgtctggtgtctctttcctcagatattcagtaatggatatgtcatgctttttcattttgcccttctgataggtggaaaatgacgtaacatccttaatttaagttacattttttggatgccattgtgaattttttttcccctatagctattgcctatttgcataccctctgaagttgcccgttcttg
0.63894273191559 ggccccccaacacttgctgggcccttgaaaccaccaatctactttctgtctctataggtttgcctattctggctattccatataaatgcactgataaatatgtggtctattgtgagtgacgtaatgttttcaaggttcgtctgtattgtagcatgtatctgtacttcattcatttttatggctaagttatactctgtcatattatggaaataccacagttcatttatccactcatcctctgacagacatttgggttatttc
0.167513506141234 tcactgcaaagactggagaaaatgacaaatctctctgtaaagtgaaagacactaattcacatagtgggcaggactattgtcaaggcagtttcagaatttaattgacatcgctttttttctttcttagtggtagaaaataacgatgagtcataacaactgataaaaattatagactcaatgaaaatctgtgaattctagttatgttcattaccacagttgaaaatgacagctgtgcttctttataatacttttatttttttt
0.607702065908525 tttgaaattcatccacattgttgtttgtctgaatagtttgtccttttttgttgatgagtaacattccattgtatgaatgtactacagtttatctgttcacctgttgaagggcatccaggttgtttctgattttaggtgattatgaggtcatacatattttctcctgtgttttcttctagaaatttcttctttggattttctttctacctttgacaaaaatagattgactatatgtttgtgtgtgtttcttgcaggctgtct
0.5905587688129847 tgtactttattgtgtagacaatgaaggttttgataaagaacatttattcttcaaccattggtatcatcaggtcaaattaagatatacatttctttctagtaatgggtcttgattttctttgtatttgtgttttggtctttgttacgtcatcttttaatggtggcacaatggtccaagcttcacttttcagttttaccttttgtttacctatttcttatttgtttgtatatccaagatgttttcaaagccaccttatttgtt
0.5884027692609273 gatgacgtcatgatcttaaaacagtagagcctctttcagtgtgaaaacctggaggcagattcaactctctcaatcattc
1 gtatgatgtcaacctctactggtcttttagtagtgaatgtatagtcaaaaactatggtgagtattgaagaagtt
1 actggcggggagggcggatttgggggaaggaggaggaggaggctggaggtgactccagttcagacctcgcggagagtctgtgtcaggacttcgcattcccccgtctctctctctctccctctcgctccctctcactctctctccgctcacacacacgcagaggtgctggggcgaaatcgggagcttaccagagaattccttgggattgttggggggcatctcccctccgctgctgtgtgtggcgtggctcttcccggctac
0.1260210664813972 cgggtgatgggttgatctgtgcagcaaccatcatagcagcacacgtttacctatgtaacaaacctgcacatcctgcacatgtaccctagaacttaagttgaagaaaagaaaaagaatgacgtaataaccaaactgagtttgtaaaagcggtaggaacaaagaaaatacattcattgggcagattctatggattgagtatttctacttacataacattgaattctcaccacgaccctctgagatataggtattttgcttacg
0.631652289052736 ggggagcacccttgaggctgatcttcggcccagctcttctagtcggtctacaggctttgctggctgggctccctgtgaagacaagtgcccctttatgcctgttccttccatttttagacggatgactaatcctgtctccgtctgagagagcaatgctgtgtaaactgtggtccttgcccagatctatgactgtattgcagaatcctgcaaggttcacagggtgctggcacttcctgagatggcatcaccatgggattaaaa
0.09805910557372947 tgtgggagtttctaaaaggcccggcggcgggtgaccaggaggtctcagttttcctcccagtttgtgggaagggttgagggaagtgaggggagatactgggtgaggcgtaggagctactgtgcacccggcgtgagtcacccgcacacccccgccccgtacaggcgtgtctctctgtgacccgagtttggccaacaggcattttcagttccacccccaacccccagccccgctgacccgaggcggagagcaggcgcggaggtc
0.8261825681629749 cagtactttctccagagatttttctaattttattttcacgagttcactctaaaaaatggtttgtttgtttttaaagacagggcctcactcagttgcacaggctggagtgcagtgatgcaatcatagctcactgcagcctcaagctgttgggcttaagcaatcctcttgcctcaggctcctgagtagctaggactacagacacataccaccacacctgactttaaaaaaatatattgaatgccttctatgtgccagggtcta
0.8964506538068575 gctttccatatagcaagtgctccataaatctctgttgaatgaggaaactaagcacaactcccagtcatatccagtttccttctgctggtgagtcacaccaattgtgagtacagtgtaataaaccttacagggaagaggaagggatttgaagtggatgaacatttaaaaagttgccatcctgtccagttcatcaaaatgactttgtaaaagtactgcagtgttcaataagaacacgtttcatgttgagtttctgtttttcat
0.4830521933171192 actaatttaggaaagatgagacattttaaaatttaatacagtttgccctttttacagaccatgtagaataaagcctcagtatgcttgaaaaaatctcttagcaactgagagcggagctggccaacaatggatgattcattgatttagcttgagtgtgcaggaatgtctgccaaaaggtctgaataaactcacattgctagacactatggtaaaatgtaccctgacctcttttaaaactctatcagagcggaaagttaaact
0.2812283480413384 gatccttttaagtttttccttggtaacttaagagcttaaacttataccacataatttggtggcgttgtctccttactcccatacctcaaagcgtcagtaaatacactgatatttacctttcaggacaagaagctaattgctagtatgagtcatattaacttaaattccaacaatgtgagccaaactgttattttacttttccttttagtcttcatctcaagtcacaaggtaatatcagtaactaaagtataaaataaaatt
0.7210758478230683 gcatgtgttggatacctgagggccacagagaacaaaggagagatcatcagcttgatacaatgccagacagtctgcaatattccagacaaacaccagagggaacaagatattacaaactccttcttaaaaagtgagcaggcagggagcagtgactcacgcctgtaatcccagcactttgggaggccgaggcatgcagatcactaggtcaggagcttgagaccagcctggccaatatggtgaaaccccgtctctaccaaaagt
1 gtgggcggggggttgttcctgcttacatgtctgctgaagcatagtattttaaggttttgttttctttatttatagataatttaaaagctgactagttaccctctccttagaggctttgtaagtgcattcttatcagtaagatacatgtttactatatgactcagctagattctatatagatagtgtccttgtatcattaccagtaccatataaaaatactatatggatatatagggttgaaaacataatttattttctttc
0.6061136507796107 acctccaagaattcctctcattgcctattaaagtatgaggggtttttggttttgtttttggtggagaccagagatggcagaaaaagcacatctgtggtcttccttacacatatgacatgcattacgtcactatttatattctccaaattcaggctttcaattacttctgtctacaggcttggtttaaggctaaattatatttattttgcaaataatatgaaagggaaaggttgatctccatccattacatttggtagtttt
0.6076142704308182 ttcccacatcttgggatcataaggataactgcactctcatgtcttcttccacagtgattcttcataggaagttgctttttattgttgaaaacccaccttagcaaagatgggtttatgacatcaccagaaggaatatggaatattctaatgttgaaactatgaactacctttcgctagtagttctcacagtgtcccatagatgtcgctgtgttccctatgaaaagtgaaaatactctctggcaccccagggctcctcagtga
1 tatgagcaagccatgagagagagagggagataaaaaagaaaggggaggagagagagagagtgagagagtgtgtgagctaatgagaaagagagagacacatagagagagagtaagcaag
0.2744168719142293 agattggaagatcaaatgaggtgagaactgtgcattacatataggaatatgggggtgatcttgatgaaatctaattcagtataatgcttgaaactaagctaatggaaatggtgaggtcattgataatgaactaggttaagtaatgtgtgagagtggagaatgacaataagggtggagagttccaataaggtgatggaactgagacaccagggtgttaaataattgtctattggttgctagtctctaaaaagacactaggaa
1 tatatttgaacactatgttagatttgtctcgtttttattgagagtgtatgtgtgcgtgttgattaaaacctaacagattagaaggttggagaggaaactgtccttagatgacccagccttccattaccatgtggagtagcatatgatgcaacacttaaagtattgagccatattcatatcattttctccctgctgtgttttccagcatttaaaaaacatggtcaaaacttggccctttttttctcaaaatcgctaaagttt
0.9448650461216563 taaacagtggggtccctcgggtcttatttacataattgatctaaaagaaggaacacacagtggaatttctaggtttgcagatgacagcttttctggattatgaaatgtctaaccactgggtatttgctccagggaaaccacactaggatgtattagtcatcagacgatttgcaggtgagtttcttgtgggcaaataggtggttgggtattaaggggaaattacagaattttcataggatggtgttttgttggataaactca
0.0137877641509546 gttgtgccaagttgtgttagccactccatgttattcttagatgggctctggagtatgaccagcctgtgtgcatgcatttgtagtaggcactggataagaactggagtaatgactacagaagtgaacggtcacagctctaacctgctgagtcatctcagctcagccttgctagcaaggcctcccaggctgcatatagtttgcttttcctgttcgttgcattccaacctgtcaacggctattttctgaaggtctgtgggggct
0.0910916573783191 tcacatattctatggtttctttcatatgaaatatccagaacaggcaaatatatagagacagaaagtaaaggttactttaccaggtgatggaagggggcaaatagaaagtgattacgtaatgaatacgcagtgtttttatggggtgatgaaacactttagaaactagagagctagtggttgcacaacagtgtaaatacagtagtccctcatctacagttttacttttcacagtttcagttacctgaagtcaaccacagtcca
0.6656937793114931 gtctcatatctaactgccacctgacatttctactcagaagtcctgagctacttaaagcttaatacatctaaaatgtagctcttgttctctccaaatgttcttcttcacagttcctatctgtgaataatacagcactactgcccagctagaaacatgagtcatacttaactcctttcttattctcctactcccacctccattacaattaaccaccaaagctggtctcttttgctgtgtaaatctctctcaaatccaaccaca
1 tcccaccagcaaggatagatagcatgattaaacctgtagcaatccaaatcccataaagtattagttctgattaagcctgatttttttcatcttagtcactcagtaaagggcagcatccattttggtcaacatcattgtaccaatgtccagcagccaagacaaagagcctttatatggtggtatgaatagacaatgagagcaatacgacaccacttgaaataaggggggggagaaaaatgtttttataatgctaagttttaa
0.2129972586824586 tagttttacagtcatacatcacttaagcatggatgtacattctgagagatgcattcttaggcaatttggtcactgtgcaaacatcacaaagtgtactcaaacaaacctagatggtagagcctacttacacacctaggctacttggt
0.377605103054901 tccaaagctgctctttctgaaggctctaatgactatctctgatcaattctgtatcctcactacttctgtgaagcatttgctatagctgaccactttcttctaattgtaaaactttctgctcttgacttctatgacatcaccttcttacctcacagactactacttctcagtctcttgctggttcttcctcctcctctgctcaactatgaaatgttggaagttatcatagcccaactctccatctacaatctttgcttagat
0.5468301296714179 acttttcagagggtgtagtcattcaataataaagaccagtagaaatattttaaatcttttgtaatcttctcagccaggtttgggacagcaactgaactgtccaacctctctctaaaggcattacatcataactgtaattacaccaggctgtaactgatatcaatgtaaatacacctactgtactacaccataacaacatcactgttatggtactataaagtattacaggcatagatgttaactgccacagtatttataata
1 ggacttctagggaaggtaagctcccggggtggggacgccgtaggtgtgatgtaaagtgccaggcatgaggctggcatttgatgttaagcgctgtagcaacgatcacaacaacagaaccagcggggcgtgtacaggctggcggttacgacatggaatggtactggtttctattctcagcatgtgtcactgacttactgacaagacagttaaacataaaaggggtccattatcagtggtaactgggatcaagtccttgggata
0.4071979269337822 ttacaggcgcgagtcactatttgtgtccagcccactatttttaatatatagaaatctgggagccccctttcttttccccatgcactgtcccaatcaagtctgagtcatcaacaacagatcagtggaagccagtgaaagtctagcacaagccaggccaggcatggtggtgcatacctatagtcccagctggtggaaaggctgaggccagaagattgcttgggcccaggagttcaggctgcagtgacctgtggttgcaccact
0.1211441586053504 caaattaaaacacaatgagataccatcatatatccactagaatgttaaaaagactagcaatactagtctttggtgaacatgtgaagcaaccagaacactcacacactgcttgtggtacttgaaaatgatgtaatctctttaggaaacagtttggaagtttcctaaaaagttaaacataaacctattatcatgagatctttggggtgttgcttcacctgctggaaacctctgtggccattggcacctttacccaagttttgc
1 attaactttttgtggcttcggcctcaaatatggaatgtgtcctgaagctttctaaaacttcacacaggcagaaacttgtaatgaggaagaaacaagatctattcagtccagaaaggaacaataccagatgaggcatgagggaggtatgagaaatatccaacgggattagcgtcaaatcctcgggagaccttggcctttggactaggtcaagtctgcccacaaaaataggaaattgctctgggcccagtgagcaggtatgga
0.004103205009547368 gcagcccagaatcagggcatcaagccttacactgaggcactcttgggctttgtcaagcggccccatggacagtgactctgcccatggctagaggacagtgactcaccccaggcttcaaggcctggcttgttcctgcccaaagggacatcggtcaggggtgaacaccagtaatcgtgatcagaacagctcaaaacatcttgtggcaactactaagaccctttatcctactccctctcccctaaagatcaatgctttctggct
0.1566451956160655 tttgtccccactctgcctgcttcccaggcctgcccctgggcctctctccaaggatgattctgtctccatttttggtatctacaggccttgtgggactgggaggactgaactgggcccagcattctccaggtgactcaccaggcaggccatgcagaaaagccacttcctgcatccctgagtggccagtcatcctcctggtacctgccttaagaacatgtgagccaccctcaggggcagggtgggactgggctgtgctccagg
0.6474716704436093 aacactattgtgcaaaattaggtataaccccagccagtcattatccccaaactaacctcacaagcatacatcacaggctgatgcaacccacatcctgcggcacagttagccggcccctgacaacaatgtttaaagtgtggccaagggtgaaatattgcctcactggtctgaaaaggcttttgccaccaacaaaaaaccattatgataacaggaaggcgccgaaagctaagcatagtatagacaggaaagatctctctttct
0.1370001020555044 tgttggatccttttcagtgtatcttgtcagggagcagggagcacatggtgacatatgccccaatactggtatgttagctttgatctctgcaaaggcagtaaatggcctcttggtggaggctgtcctctgctggttattctcaacattgcatcacttcttggccttttggctaagatcaagtgtattctcaacattgcagctgctatgcctctgctgatgtgattgacaaaggaccagatgccctgagtacgaactctgaca
0.09506372927322969 gaagcgattcacaattcgcatccttgcacgttcttcctagatgtgccaagaatgcaagaccctgatcacgctttacttgggccatttctcagcgttgtgtttgcagcgagcaatcttgagggatgaggtaatgtctccctatggaacaaagagcaggcttgcttactgctcactataacatggtgggttccccaagctcagcattcctcttctgtaatgcaacccatcttgtgtgtaagcatgcatctgggcccgtgtgct
0.6705357275635099 gcggtatttatgctcacaacatgccaggcactctaatggcttccaatatattaattagaaaaaatatactggtccatgactcactgaactgatttatgaccactaatgggccaaacctggcaatctgaaatcactgccttattagataaccaaggacacagtgttttgcattcttctgtgggcaatcaatgaaaacacaaatgagtaactagaggcaagcccctgaattgcaaaagcactttcctaatagaaacagcagac
1 tcaccccttcagaagtggcattgacccttgttggaggctgcacaaatgtttcttatgattaggcat
0.7180338096407872 cataatttgccttgtccttcacagacctgacagtgtactttgcatgtagttggaccctgtaaatcattgactggtagtgcaaattccaaatggcctgtttcataatgatgtgacctatgctgttactccagtggagtttatctcagtgttttctctgtgggaggctgttagcatggtgactaagagctaggatctgaagtcaagcagatctgagtttaaattccagttttgccgtttactagctgtgtacctttggagaag
0.8103884762429407 tcccccgtctcctccttgggccttgggcctgcagttccctcttagcccttcagctcttacttttcagccaggttgtttatcgggaggatatggacccaggtgacagagcaccagctgtggaataaggaatgacccaaccccatctgtgtttgtatctgttgagtcatacaactttagcaccttcggacattcgtctgctcacaggctccttgaaagttaaagatttacccagaactggccaagtccatgttttggtaacaa
0.3738330304406732 aagtaaataccattagggggcaatttccctggtcgacctccctcacagagggccatctggctcaaaggttagttaaaggaggtagggtaaacagacttaattggggaagcctctattgttactagtatttaccctatgacttaatgctctgaggtaacaggctgccttcagcctgttcaattattacaagctatgtaacctttcagccttccaaaagatttgtgactatttcctatgactttccctaatatttccctttaa
0.741824173582921 gggctgcccgagtggggctatggagaatcaggagcaaactgctccccgcccttcccagttcaggggtgttgcttcatcgcccgactgacacgcaggccagagaagcagctgactccccgcagagctgctgccttataaggacattggccaggcctgccaggtgtgtcatcccaaagccctgtgatggccccagtgagtcaaggccagggtggatttaaaaaactcagaaaagccatatgggcagcaagtgagagttttctc
0.6086875531568586 gtggggtggcatcagcccccactcctttgttttatctttcagggttaggggagagtgatggctgtgcccattctgttctttctcacttttttttccctgcctgtgaaactgacttgtacacattcttgggagctgcgtcatgacaagtcccgtaaatgattcacactgaagtgacctttaaagagcagagtagaaaccagcaggatttggggagcctagagctgtgtaggagccaagcacccagggctttctgtccctttc
1 ccgattggctggtctctccccccagaaacccctgatgtcatgggcttggaatgcagggagggaggaaggaaggagaggatttggggagg
1 gccatttcagttcctgttatcgtgctttgaggtgcactgaactgcagcaaacccaggggatccaaggctacgttgaaaagcctttgaccacagtgcagggagcagaagacattaatgacgtgatgtcgacacagcccgcactcaggatcctccaggaaaagaacacagagataaccccggatcgatggtactttttgaaaatgctttattgcaaaagagtggctagggttttacaagggctatgaagaaacatattaaggt
0.8484989870006479 cagatgttgagaggtgatcattctgaacatgcagtcaggcagcctattcttggtgaattatatggatgttcctgtcagcatatggaggaagcatggccctcccaatgactcagaagtcatatattgacacagacttgccctagaatgacactgtcctgtgcatgctgggtacctctataatatactgacccaaagagtgtctgagagcttggttgaaaactaacaggaacagatcctttctctgataaagcttgcaaataa
0.7813987366658873 tctgcctgttgtcagttcagttttcagcaaaccttcagagggcaaagaagagttccctgtttgaccttacaacctactactgctaccccagctcagtcccctgagagtggtactcatgccaatggaattagtcattgctagtcgtcatcttaactgtcggattctttctgtgaaagccagtgttcttaaaaaagaccaggctatacttgctgtctcattttccctcgttcattttcatttcccaattcactgaaatgtaac
0.3307105472327854 gattttctgaaaattattgctaaacatgacattttgctctacctgaaagcagttaaaccattccatagagtctggaacattttacttagaactcttttaagattttcattttaacttttacagacatatttttgaggtgatgtcattctttttgctataatgttttgaaagtattccagtagattatttcatagttttactatttataaaggttttaacaactcatcttcttgcatataaaggtagtgagagccttatttc
0.9759591808278342 agttctgagcagcagctggaatttgcacatctcacttaaggcaatatttactgatgggtgctcaggaaagaaagatgaatgagatgagccttccatcctccacagtcagccttcatggctctaaagttttcattcttcttgggtgaatcatgctcctaggaatgataccatcactgctagtttcctggaatggccagcctcccaggccggttggaggccaggcagctgcacaagtctcttgtggttcccgatatcaggggg
0.6107559222501134 tcaagtaataataaagattcaataaacagtaaaagagtgaaatccaaaatgtaaacagttaatcccagcacggtaccttcaatctgatctcctggcctgaatgtcatctgactcacgtaaatgtcatgaacaggaacagactgtggactatgaccatgttcaggaatcattccatggcatgactgtgttacttttccattgggataattagccacataactaatgtgcaacagaagtatgcaggtaccaagagtaaatcca
0.5807592465679081 ggaacccaagtaggaagtctccatatatttgttcagccatagaaatgtacagaccttcacaagattagaatactggtggcatgggaaaacagagtttgctacctttacctatgagtcattgaattaatttttgctcatgccaatcaaacctattaacataacactgtcatgcgaatacctgtgctatttttcagatagtcctagaagcactgataaaacagtacatgttcatctgacagcgtatcatgaaaatacatgtgg
0.1112638265898551 atggctaaagtaagagtgggaatgaaagagccctttgctgctgctcatgaatgcccagagttgctgaggcaaagaggtctgagtccctggtgtcagattacagctctgcttctagacaggatggagttatgtgcggctgtgtacctggatgatgtcactgccagcagtgtttattgagtgttcactctgttgttgggaatgtgcattgttgtgcctctgtttttgtgattttaggttttgggggtctctcatgagtctgag
0.8137903078641151 cagagtgcttggagattgggagcatgaattttctttcagggacaaaggatggagaccgttggaagaaatgatttttaagcccagtgctctgttctccaggatggctgctgatgaggtgactaagtttacccattcgagtcatctgtcctgatgaaatgtacaccttatccaaggtcatgttgatgttagagcctttgttgacttttctttgtctctgtgttccagtttcacctattaagagcaaataaaaagaaagggtct
0.3094782237618915 gtattgtatttttatcctctagtgcttaatagatacaacttatgttcagtaattatttgttgaatgaattgaactggtgggacagaaggtcaattcgttggccaaatggtgtcatcatttgtttgcagaggcctgcagggccagttaggcaacataagagagcaaactagggggttggaaaaggaaatagtggggcttgtggtgagctgtatctgagcctagattaaacaccagccagagtttttgagctctgtggaagta
0.7709886767233863 aaacctcacacaagcactgctctccaggaccctgatttataaactgtaaccactcctgtagctgtggtgcaaacttcttcagtgaatcctggaacattatgcaaacaatttcaccatatgtcaatacctcaaagaacaaaagaaccagttctttgtgtttcacaatcgaagggcttaccagtgaactatactagagcaaagtcacacagtgatgagaactgagattgcagaagcctaagtattgaaccatcctataatatt
0.8446116689805442 taagggttctaggtcagcagcagtattgttgttaggacattactgccacctagtggtcattagggctgtgccagcaccaaagaaatctgtgtatggagctttcatcttccaaatgtttgtcttgtgacgcatgccacaaaacactcagataagctacataaacctttttatactgcagtggtaaacagctcacaagtggtgaggactgttgctgttgtataattaatgttgtgactgggcggcttgtgtttacttagttgg
1 gcatctcaaggggtcagcaaacaatggcctgtgggccaagtccagcttgctgcctgtttctgtaaataaggtttcattggaacatttgtttacatattgtctaagcctgtttctgtgctacaatgatggagttctgtagctatgacagaatcatgtggtctacatttcctaagtatttactctctagccctttggagaaaacgtttgctagccccagtcagtctttgatctctcagtgtttgatctcctctggctcctctc
1 tcgattcatttttaaggcaaacaagttggatcctggggactgctgaaggtgaagcagcagcttctctgagcctgccacactgggtgacctttgcatggggccacagaaagaacaatggcaaggcaacactcctaaattagtcatcggtgctgtttgatttgctcctgtgccagatgttccctcattgatcactgcctggcccatatgtcctctctgaacaggggagcgagtggagccagcagccgccacttcagaagcagc
0.4528654231374784 ggttagcaaccttagctttctctgcagagtggtaaaacaccactgctttgttttcttaactgatacctgtaatatatttccacggtccctcaggctgggctagtaattattttgcaaccttggttctcttaccctattggcttgtcaggaaagtgactcacagttttaaatgacttctaggttatgcttaactttttccattgtttattaagcaatgtcagtcctaccacataaagctccttaaaacaggggcttacacta
0.4441323689272149 tgagggcagggacttatttatgccccatttctgcaaaatcaagcaaagtgcttagcacacagtagtagacactgacaagtactttttttttttttttgagacagggtctcgctctgttatccaggctggagtgcagcagtacaatcatgactcactgcaacttccacttccagggctgaggtgattctgctacctcagcctcccgtgtagctgggaccacaggcatgcatcaccatgcctgggtaatttttttattttttg
0.1579976556700704 aaagccttccctattcccttctgggaattcctctgtgaccactcacttcttcctacttcttcctccccactccccaaccagggtaggaaaatgtctgtgtgcaccgacaatgtcactgacctccggattcctgagggtgagtcagggttctccaaatctatcacagcctacgtctgccaggcagtcatcatccccccagaggtgacaggctacaaggccggggtttcctcacagcctgtcagccttgctgatcgacttatt
1 gcagcagcctggtggcctggcatggcctctcgctgcccatctcccaaccctggtacctcagcctcatgttccgcacgcgccaggccgacggtgtcctgctgcaggccatcaccagggggcgcagcaccatcaccctacaggtgatgcatggaagggcggctggccctggcctggccatagggccctggtagcctctaggcggctggacagaagtggctgggcaggtcctgggcaggggtggggacatatagaggccgctgg
0.2960082619392527 tcctgagtagggcgcgctgcctgcagcccaaaggctggagcctgcagcgcctgagtcttcctgaaccggcatcagggagcactgggggacttttcagtgtttgttttctcctcctgctggccaggctgtaggacactattacaatgaggtcatggggccctgccccactgcgtccatgggtggttgagcagccaggatctttcccttcacaggctggctcgggtgtgcacacgggtgtgctggaggacaggcggggtcaga
0.4063876459531959 gcatgcaggtctctgcagcctttggagagcctagacaagcaccccgagttctgctagtacctgggttaaattgacagagtgagttctgacctgcagctatggcatcctgccagaacccatgacctcacccaagtgcagagggcccatgacaagcatgtgacacagcagtcagcactgggacaggccacagtgggatgaaagggtggagcttagcttagaaataggggagggaaaaggttacttccagcagagagaatgatc
0.07963980391989905 gctgctaagaaataaagcctattgattaaaaacattatagaatacctctcaagctgtatttaaaggaaaacttatgaccgtaaatttctatattagaaaaaggaaaaaagtatcaaatcaatgacgtcagtttgcttgtattaatcagggttctccaaagaaatagacccaataggagaatgagacaagatctcattctgttgtccaggctggagtacagtgatatgattatacctcactataaccttgtaacctccaact
1 gaatgcaataaaactgcacatggcagaggttgagaaagtcctaagtcaaaattgaaacaaaagatccactgccttcaaaagaaacaactggagaggaaaggcaaggtgatgaatttttatgaggtgtgtcaccaggaacaccattcattccataagcattcctttctttaaagaggaatacctctcttaacagcttaactcagggtggtgcaaagaagctttttttttttttttgaagggttttttcaaatgtttatttta
0.1289498996371529 aagttcctggatctgccacttatctgctgagtaccacagcaaagtcagcacccttccatgagcttaagattctttgccctctccttcaccaaatttttatgaataccagatgagatgactgtgacagatagttgaaaaccatacagctcaacaccatgatgtcatctgttttatggtcaatcagttgcctacacagatctaacctattaataaaagcctctagttgaactgtaatcttgttctgtcatctagaatggatcc
0.8110333159347197 cgcctctactccccacaccccaccaccacctcacactgccctttaggaagcgaatactccagccccaggcctcttcccttcaacatagatcctgagtggcccttcccttgcctccagacacattcacaaaactgttggttttgtggacatgagtcagagaatttacaggagttcaaagtacacagccacactcttcccaccacaaaacggactctctctgattccccagaagacaagcaagaaggcattcaccctgtcggc
0.5319479602419982 attattagaaaaggtgcttctgggtgattgcagttttgaatttttcatttcactcccattagtcatttcataaacacatattgagtgtttgcattacccaaagctttatgcatgctactgaatgagttgggagagtgactcaaaacaaataagatattatcctccctcaaaatgaccagacacatgcacaagttcaaagggatgaatagagaagatttcacagaataggtggcattgacaggtgcataggatttcaatagg
0.6655965125992817 cctaatcaccggtctccaaaatcggcccaaacctctggcggccgcgtcactcggctccaccagtctgtgccgcctgcaagcgcccctagcggcctcgcagccatcgcgcctcagcagcgccgtggcgtcctgttcggcagtgtccattagagggcgccagcgcgcctcagaagagggaccgtgacgctagccctcgcgggtgcagcccggaattgcaagaaggctgcggaaggctgtgccagcaacttgcacgacagcacc
0.4527026543691999 atttgcctttgagtgggagagatcccaatttgcacttactctatcaccacagggttatttccactcaccagcttactgtcataatttgattaggagaaatttagagttgattcgggtccccacatgtaataatatagtatactgatgatgtcatgatactatcagaaactgaagaccaaggcaggactaatttaaacgcaatggtgataaaaagtttggggaattaggggaaaaaagcagtgatgacatgtgaccaacagg
0.7758631171190352 agtgtgcaacatcacgagggaaaagaatccagatgtggttgctgaaaaggaaatctgtcatcaaacctctacaggtcatttgagtaggaaccaagaaaacttattttgtcaactttacagatatttgtaaactattacatcatcagcccaaacatcttgcatttttgttggctgaactgggtacaagtggttctatagatggtaataaccaatttgtaatcaaagaagattccaacagaaacagaaaaagtcttcagaaga
0.6204258613187654 ggtccgcccggtatctagaaattgccgggctggtttgttttgggcggacgtgacgtaacgtcttggcttgtctg
1 aggaagacattttctctctggattaaagcagccacatgttcagtgtgttgtcaaggcagaatggttgctgtttgcctgcacagctgctgaactcaggacctctgtttgtgaaatgatttcagaggcctggaatgtgcaacgctctatagaaaaccaaatgccactcttttctagttcagagctgtggttcaagaaagcgcagggatgaacagtggttccctttaagctgaagaggaattgcctaagagctgatgcactgtg
0.7784386578909639 tattgagggccagttgtgcgttaggtactgaggcttctctggagatacagaacagactggcccctgcctcgggttgttcactactgtggacttcagcacatcacagacgattatctctgcctggtattctgcattgtcagattcagtctgagtcatcttgggattacaggaaatcttttaaaaagtcagagtttgttcctggctaatatggtgaaatcccgtctctactgaaaatacaaaaaaattggcaaggcgtggtgg
1 aatgcgatgttacaacacaattaagggaggaatcaaagtacgtagttaactacatgttgattttaatgctgtgggaggtcaagattgagctgtttgggctggagggcaaagaaagtggtcatggaaaatgtgactaggtctagagagaccgttataattttaaaaggcagtggagagggggaggattcctgagaaggcgggaccgagcatggctgagagcatgactgacaatggaccagagaagaggctccggcaggagga
0.7404346069386937 taaggacgcgctcagcctcccgcagaacagctggggaagctattcataggaaagcgtgctatttgcgtctgcctggcatttgaatgaggctcacctaactgtgcctgccctccccacagatgtgagtcacgctccccactcacgagtgaggagtggccaggggcaaaggagaattgcttctcggctcagctgagagaactgtgggggccaggagcggcactgccaaggatatctccctcccccgggcagggagggcctcca
0.05947785422198849 tgataaaaccaatatctggatccctggaggtctgtttctattgtcttattttttctcttttgtttttgtttatttggttctgtcatctggaatacctggtaagttttaattgaacactgaaaaattgtagtggctttgtatgatgtcatcttctatctgagaagatttacttttttcctaacaggccagtagagtaagagaagctcatctttatccaatgaggaattgagatgctttgagactgtcttttagtcttgatga
0.004423139720205562 gacacagagccaatccatatcaccatctgacataggtgtgtggtgttcttgtttggtagagatgcgggtcttgctaattgccctggttggtcttgaactcctaggctcaagcaatccttctaccttagcctcccaaagtgctgggactacaggtatgagtcatcatgctcagcctagatggatttttttttttaatctatcttccagtagaatgtaagcctcatagccgtagggactttttccttttaactactatgatct
0.03070477199701669 caaacaatagtggctgagagccaggtcatgagcttctctatgttatgtttagatagctgtgattatataaggcatgagaatgtgtgcctgcactccaatcctgctgagtcatgcaggatgtttacctcagcctgtgcctgcttggctgcagcacagccatgtttcttacagcttgctaaaaatacacattcctgggtcacatctctctgagacctgctgaattagactcactcgatgtggggcttggtagtctgtattctt
0.2818634016971202 gaagaggctgggtgccagaaacagagacatcttgatggtgttgagaaaatgtttcaattttttcaagtgaagcatgaggcaaagtcatcaactgagaaaaggcaggaaagaggcaggaggtttgaatagggaagatgacgtaagagttatcttatgtcagagagtgggggagcaagcttaccgaggtaatatggtaggactctgccagtggtgagaacttattgaaaatgttgagattgttaattttacatgaaatcagtc
0.08084051210156359 aaatgaggctaggtctgcaggcaaaaaagcatggtaagtattaaaggtcaaggccactaatatcatgagtacagttgtgcagaaagtaacattgactgcttctctagcacagaacaatgtcgtcatcattaccacactgcactgacacagcctgaccgagagtcaactcctcaccttgggtatgtacagaacgaatggaactgtcaaactgctgtggttttaaaggcttcttaaatcaacagagatgaatagggcaacaga
0.205789266393044 tataggagatgacacagcctcccaggcaggctactgagtgagccggcagagtctccctcaggatcagggcttcgtgttccaaagtccaggctggtgtgaggaaatagggacaagcggccactctgactcaatcatccccagtgtttgctacttgttgctttgaagggaggagggagggcagagtcgaggtctggtcaacacagcagtggctcaaagtgcaatttaatcatcctggacttggcccaacccatcctcttggtg
0.1343383120317939 taccgttgtacagtctcctcccacactgaccctgagtttagtaacatgacttgctttagccaagtggacttttgtaagcatgatgcaagagtt
0.869974407161112 gagagcaaacaagactattgaacttgttggggcaagccctttaaaaggtctgtaagaccagcagttctttctttactcattaaacatgtttgcccattacctatgtgacttcagactttggacagtgtgagaatgtggaagagatatgctggctgacctcacatgtttggggaagggggagcactgtacccagcagaatatctcttgttctcaaatcatcctcctctaaacacatagccaactgtaactgcacaatgcgtt
0.04232008846961354 aggaaaggattgggagccagcaatactttccctccttttccaggaccagctttgtttaaaggaatcggtgaaatgctgtggtttaaaagaagctccccattgtcaactgctcaccatgacctcactcatcaaaggtgcatcaaaactaggaaacacgcacaccctattgggaaggaatgcgttcgtttcatcagactgttcctagcagggaggacggtaggagagtgtgggtgcctatatgtagactctacaggattgggc
0.3292813029004206 aagtcttaccgaattttgaagacagcaaagcagatgctgagatgaaagtctcttttaggttggagttagagccaatgtgggttggattaaaggcgattagacatatagagaaaaggtgactcatgaaaagcaatattagttcaagccatgcataatgggattaactgtgaatataccagaagggaaatgggaatgattccaagagtttgaaccaagggagtcagaatgttggggaggattgatgtatgtcttttggctgat
0.6168484245993539 aaaaaagtactgtgattttgtccctgcttccacagggtgcagagttttatggccttggactttgtcccttcatatttgacagcgatgttgaccatgatcactgatacaagcaaacccttaacatctcctgatattgaagcaaatcctatcagcaggagaaaggaaatgagtcactgtggaggtgtccattaacttttatagccagtttgaaaaaactcttgtcttgagagcagcaggattcatccccactcactcacccca
0.09967673571743936 gtcttttcctcctttgtcaccatcacctagcacagtgcctccatacaggaaaggctcagtaagatttgctgaataaatgggctctactgggcgctcaggggaggctgtttggatgtatatatcactccaggtgactcatggcgaccttagtactttggctttgtgaatagccagggaattcttttgtacccctaagatatagctgcttctagaaagtgagagcttgacttctttccatgtatttctagggaaggaactggc
0.8534256226156081 gagtcaggtgtcacttcctccgcccgctcccgcagctggttggtcggccgagtggcagagggtggggcggaagagcagatggggacgggaaaggcgctgtcggtgacatcacagatagggcgattcctatgcagaggaggcagctcaggggctgctgcttcgccaggaaagatttctcgtgctgtgggagctagtccaggacttccggttggacgtgatagtcccagctgtgtgtcagggctaggaggacttgaggcggca
0.06769894217048465 cacagcttacacttgagtatttgagtactggtgtaacagatgccatgtgacaaaataattaaaatcccaaaacggaagtggctagtgtgactttttatataggtcctatcgtgaaaagtgagtcatccatcattttatacttctctatctctaacccacttttttcagaatatttacatctttctccaacccctcccgtgataacacttggcattgtccctacccaagggaataaactgaaacgcgggaaaggtggtggaa
0.5410690372299893 aaaaaaaaaaaaaaaattctgacattgtggggaggcgtctcaagctggtcgcgaactcctgggctccagggattctcccgcctccgagacttcccaaagctgctgggattacgtaatggcgcgagccaccacgtcggcctggagctattgttattcaccgaatctgtggactgcacttccgcggggatgccttaagcgaaggcagaattacaagcatgtgtcactcttttaaaagtgttaattaaaaaaaaaaaaaaccgc
0.2640422352767367 gttatcttcctcgattcttccaccctctcactttcctgcctgttccccactccacaggagggagctgacgttggcttgaaaggagtaaagtcaacatctgctgctttcctgtggactctggtgattcatagagccggatggggagagtcaacaggaaaaaaggagggaggaggaaaagccacaagagacattctgtacaattccaaggaacagagaagcctttagacaggcaactgccatcccccctgaaacctgagacct
0.2389400307511051 tttgtattctcttttgatccagttataatatctgcctagttctctcatagattgagttaaataaaatctctaacacatgttcatgttcaatctgtatgagtcatgattctatgttttgttttttttttaaattaccttttaacgtaggtcacagtagagctttcatgcatcaggtggcagtgtttgttcaaacttaggtcaactgtaatgaaatgggatacctcaacaggaaggcaaacctggatccctagcaaggcagag
0.5486674408575705 gtactttctgcatcctgctgattgtggaagcatttcccctgcaaaaagttgtcaaaatgcttgaagaagtggtagtcagttggcaagaggtcaggtgaatatggtggatgaggcaatacttcaaagcccaattcgtttatcttttgaagcactggttgtgcaacctgcagtcgggggttgtcatggagaggaatttggccctttctgttaactgatgccagctgcaggctttgcagttttcagtgcatttcatcgatttcc
1 aatattaatctggaaaaacgagatcttgtcatcttaccaagttcaagggtcaaattcagagccaaaaataggagatgaagtcagagatcaggaactcagtaaaccc
1 ctcctaagaaaaattgaccaatgaaaatgccaaatcgtccaagggcagggctactcactgcgccagccagtccagtgaagggagggcgaggaagaagtccagctgtctccctaatctcgccctccttgcgtaagaggtcaatgaccgagtaacgtcattgaaatgcaattaaaatgggtattttaggctgggcgcggtggctcgcgtctgtaatcccagcactttgggaggccgaggcggccggatcacctgtggccaggg
1 tgccactgactgaagacagagcctgagaccacagctgggctgggctggtcctgctgctgctctgacagctcccgctccacccccacccaccactgtagcccttgcgaaatccctcagcctgtcacgggtcagtattccagctcaaggactttacccccttgtccccactcctggtcactgctctctcggatgaaatcagaggtcagcactgccagtaaaggagcttcagctccaccttctcccctcctcctcccccaaatc
1 tccacccaggaacctggcgtcctcaggaggctgcacttcccaagtgggctgagacagccccttaatatgtggggctggagccagagacctcaaggggccactagggggctcgagactctcagtggctgctgacgccctcttgtggccattttggggattggccagaaaagtttcagaagcgagccaagatcggaattcttaaggaggtaagtaataacaacagtaacagttaccatataacaatacttatcgttatatatt
0.2717685345074752 agattgtaccccctttcccaaagtatgtattggtgaactcccttttctgtttccttggggcactaagccaacatgtcctgctctgcccctgtttccacaccctgccacgtcaccacagttctactatgccaggaatgttaccggggaggagtggttccatgactcagaggacaccccaggtactgagtgggagtgggggcgccccagggactgagtgggagttggtgaaattaaaaataaaaatagtacttgatgaaaata
0.3371781048755655 atgccctttggagcacagataattgacagttggaggctaaaggggttgggtcgcgggaaggttgtgataagtccctgatagcctcccgtgcccttttttgacaggtcttcactgattcatgcatcaaatatttactgaactccgtcactgtgcagtgcctaactttgtgcttgaggcaaacaaaacacagatctatttcgaatgccattccgaggaaggtaagacatgcacgcacgtttaatcaaatagtaaacaagagta
1 tttctcctcacaccatcccatctctcccatttattgccaggttcttactttcaggagcactgcatttttctgatgtcaccaaggctgccaggaatttggggaatgctgggctttgccagagaaggagggatctcctctgagcgaggagagttacctcatcatcaggcatttggcactaacatttgcccatagttctccagggtggaggggggcgtgcacccagatggtttcagttccagacacgtgtgctcagagaggtgg
1 tctgcacctctctccttatttccctggggcctccctgtttatctccttatctctgctgtggcgtcttgatctctaacccctcagctatgtgtttaccccctccctgctttgaggagtgagtcagggttggagatttgtttgaacagagtggtgaggctgcctataatttggaggtagctgggcttctcccaaaaatgtttatgaggttagaggctgcttaccttgtgattagtactgctcctttttccctagagaagaagg
1 aatcatatgtgctatactttcacatgactggcagtgcaggtttgttaacaccagcatcactccaaacatgtgagtaatgcttgtgctatgaccttatggtggctactgtgccactaggtgatagacatttttcagctccattatcatcttagggggcctccctcgtgtttgcagtccattgtagaccaaaatgtccttatgtggcacatgactgtagttgcaatacaggacaagaaagttgcacaataactgggccttagt
0.3771431409076892 aaccaaatcaaagaccttaactttaaaaaaaaaaaaaaaagattgggtctaggatatgcaactgaccagagaaggaaggacactggggcacagagaatgactcatcccaaggtcacatagtctagttggtggccgagctggtgaactggatcaggctgataactgttaaaggcagtttctcctgctcttcaggaatagcacatgggctgtatacttgtgtgcaccaccacgctcagctatttttaaaatactttgtagaga
0.9367446165290262 tacctaaggcgggggccaagcccagttacagcccagctggagtcggactctggacacagcagcagactgccagagggcacatgcgtcaccctctcaccccaggacaaaagacactttctaagcggatacagccttctgaataacaggatatgaggggagcaggcggatctggatctactctgtgagtcacggcccatgcccaaaacccccccacatcaaccccaggcaaatcagactcccttcccacccccaagcccagga
0.6112208481566842 caaggtaaccctctcaacatggtgacgcatatgtgtcacaactaacagttaaagaccttccgaaaatggcagctcccttgtctccccactgcggcggatcaaagtaagacgttccaaacatggtggcacaagatccttgcgtcatttcctgtagtgtgctctatataaggggcaggatttccgctttcgctcctttccggcggtgacgacctacgcacacgagaacatgcctgtgagtgctttggtccaggtttcggcgga
0.4232154167569196 ctctgagtcagcattgagcattacctgtttatgggtccaaaggagcctccctcccagaccctctctccagcagtgtacagtccatcgtgtggatgggaggaaggcaaggccaaggtaaatactgactcagacaaatacaagcaggtacaagaagtacaaatacatatgtgggggaggagggagcaggggcctgccagccaaagctagtcatctgagaagagggggttgcggacaggtggggctgggagctgagtcagagaa
0.8403893814276844 atgacaggtatccctttttggaaggcaagtttcccaaactctgataccaacacgaaacacctggggccggattaccctctagtggggcccccaaatcaagctaaacagagaaggaagaggaggtgacgcaactaggcctcctgcaccaggccagacaggctgagcgcggcggccgtgaccccgcagtgagctttccacagtggcctcctacgccttccctgtggaaggcacgccagggcggcgatgttatctctgggataa
0.1769162851793862 gtggccagcagtagaactgaagcctgtaagttttcattcactcctaaagtgtgctgagaaatcctagcctgttttttccatttaattcctgtagatgagtcatttgctcctcagttttctatggcccaattttcccattggaataatgggaataatatgtcatccaccttacagggtgatgactaatatattggcatttgagatccttagatgaaaggtattactgtgtataagtataaagtactattatttagtaatcac
0.4800291185004979 aagtataatgtgtccttgagctttgagcacagcaatggaaacctggcgactcttcctggagctctagggacttctaaccagagcaagttggttcattacaagctgtcacaccacagaaagagaagacctttggctaaggtagagaaaggctgactcatacaggcagttgtataactgtagacaggcagggcccatggagctgtggagagttcactgggactcctctgccttctaagacacaggttcccacctgcttcaggg
0.5345527414380965 gcctgtgaaactgggatcgttcacacctcctgcacagttgtcttgtgaaaactgagatacattttaaaatgtgtctcctgaccccttctctgaggctttggtgtaggaacttgttgttctaaccagatgagtcagtccggatgggaacgtttatttacttgagggagtcaaaggtcgaatggaaggtgctgataccgtgtctggaaagaaggcatgggaaatgggcacaggttgccaacattctgtcaccaagatgcctgc
0.6092826519511829 gaagggagggaggctattaggaaagaaatataagctgaaaatgcccccgaaaggtccactcacagaaaaccaagagctggccaccaccctgccagcagtggtgacgggaatcatgccagtgactcaggcagcagccacagctccaaagtcctggagccggccccgcccaacacaccggatgccacaaagcaccacctacctgagcatactgttccttgagtggaccagagagccggaggacagcacagacatcagctccaa
0.6030297143594757 agcgccccatgcctgccgctacctcctccttcctatagcccccctaattctccagtgagataatgtctggggtggggggctgtttggtttggcctgagccctcaggggcgcctcacactttccgcccctggctggggcgcagggcagcggccccgaggctgagtcacggcccggcgcggagagggagagagggagaaagagggagggagggacctggactccgcccctcgtgcgcggggatcccgggtcagcccgggtgag
1 gccgcccctgactcacgccgcccccgggctggcgcagcgaagggtgtgggacagggtaaggggttggaagagccttgtggagagcgggcgagccggcgccatctggcggccatgctctgagtgggcgagcgccccccgcggccactggagcgagctgtcttcacgctcctcatccaccccagctggtgagcggcgcccccttgccaaggcagtgggcacagaacttctcgcttggccgcaggggaaggggctgcggacctg
0.8122037456725493 atggcttgagatggtgggggaaggggaaaggtgcagcgaggctcagagccagcttgtggagggaaggaaggaggcacagagtcaaaagctacttccaggctttcaagctgggtgaggtcatgcactgaaaggacagctggcgggagggcaggccctggctcaggaagcccaggcaccacctctgtgagcctctccacaagagggcactcacagtatgtctttgcacttacagtagttttaaaggcaaagatgtggattttt
0.2449630921117566 ggccaagagaacagggtgtccaggggcaaggcccttcaaggtcttagctgagttggttgtctctattggcaattttggggaggcttggaagttggggcttagaaaggatgaggtcatagatcatgggaagggagtggctggtttgggagaccctggaggatgggaaaggagggaactgctaatgggaaggggaggaaggaggatggtaaagtgggaggactgatcagtgctaccccctccccctcacagagtctgagtcag
0.7061805420556561 cgagcccagggtcccgcgtgtcgctcctgcgggcaggcactgatgtgatggacagaggcgtccttagccccggccgcacacgttacacactcgatcacacaaagcgttgcactttattcccggcatctaggcgatgacacaatctccagaacaaagacaacattgacaaacccaacaaaaacaaacagccgcgtgtgtgtggggaggggcagtcaagcgcagagtccgggaaggggatgggggaggaggagagtgtgggaa
0.4121075638665076 gttggaaaaacaacgggaatgttaactctagctggaaaagtgaacctgaaaaattcgactctggttggaaaaccaacacaagaataactgattctggctcgaaaacagatgcagggaaaattgatggaggatggagaagtgacgtcagcgaggagccggtgccccaccggacaatcacgtccttccacgagctggcccagaagcgcaagcggggcccagggctgccccttgtcccgcaggcgaagaaagatcgcagtgact
0.9717427581258745 atcttcacaatttatgttcttctgccatggcttcagccggtccctctgtttggggtccctgacttcctgcaacactctggactctccctttttattagtacttggtaggggtggttcagagtcctgatcattaaactcctctctctcctctgactcagcctcatcatctatctgaaaagcctccagtgctgtacacaccaatgaccaaactgaccaaacaggcaaaggaatttcctttccctttctttgtgctcttttaag
0.3851897706221076 gaaagcattacgtcatttcagagcggctggtccccgacccagccctgtgggctccaagattagttttacactctctggagcagaaagtggagtggaaaata
0.4964892150100116 agcagggttctagaactctgaaaccttgggactagaagtgtgtcacagtcagctggacttaggagtgcctagccaccactcactttactgagacacataactggataatgtgtcacattgtgacacattgtgacctcagggtcacattgtgacacattgtgacctcagggtcacattgtgaattagctgcagactcaaggctagaacttaggttttctggatcccagttcagtgtcctttctagtacataaagagatcctc
0.0881836586056718 gggctgtctctgaaggtcctgtccctttttcgcttcccccccgctggagctgcttctcccgcttgcgggagcccaggctgagagcagacacccaacctgtcgaacctgtctgacgtcatcatctctccacccacctgggccccaggtctccagccaccccgctcttcctgttctcagcttccgtcctctctgcttccttacagcacccccacctgccagagctgatcctccctaggccctgcctaaccttgagttggcccc
1 caggagacaaaggtacccctgtctctttgggaaagaatgggaggagagagagggaaaagcattcatatcacggggtagagctctgcccttggccccaggcacgttcctgagccctgagtcatgggaagggtggagaagcaggaagggggttttcaaggaccttggggaggtgggagcccagccccagaggcaagcagat
0.01638080737330437 agggagttgtgtgactgttgttgagctccaggactggccaatgccaagacatggctagtctgagggtccgtctgttttctctgctggaaggacgctgagagcccatctggttcacccactcagatgctgagagtgagtcagagaggtcatgtgacctggccaagtcacacagcaagttacagaaggagccaggctagaaccaggtctcttgattgcccatctgtggccttccccctacactacaagcctcttcttccagaa
0.3146597849304321 agtctcttctgatctccaggcctttcctgactatcaatctttcaccctgttcccaaatgtgaaaccaccacacagaagcacagtatgtaagagagagagagagagagagagagagagtgtgtgtgtgtgtgtgtgtgtgtgcgcgtgcgtgtgcgtgtgagagagagagagagagagagagaaagggttcacttccaggacagctcaagccccattaaagcttgctatcacaggtcatgccgggtgcagtctgtaatccca
0.8549838385908777 agacaggctgaagctggaatactgccctgtccctgacacctgctggggtgttctggcggggcccggaaacggaagccctctcctggctttgttgggtttcctggggaaggcggagctggtccacgggtgactcagcgtcctgcacagagtccaacccctggcccagtccgtgtgtgtgtgtgtgtgtgtgtgtgtgtgtgtgtgtcctatcctggccttgggcaggaggaattggcccctcatagagtgtcagccccatct
0.01193632881656818 cttggtcacacaaagtcacactgtatttgggatacacagcagagctcagacatagaagcagattcccacacagtcggacattgccctacacacacccacacaaggcttaggctagcctcctcctcccaccccaggccaatgacctcatcctctgtgtgggggaccgattctcatgctaattgctgccattgtccaagccaccatctggagggtctgagaaggagaggattctggggaagtgggaattctcaggccgttccc
1 ggacagaggtccagcccttcccccccaggaaggcccagcacaaactgggcccttcccacaaccaggagacgctgggtgtgagagcagggggtggaaaggcacgcagttccccctacaaacacgatccccatcgccatgacaacgcaaccccgcccccggggccactcagcaaccaggaatgtgaccgcccctcccccctcccccccgcccccccccccccgccccgccgccttctctccggattggggaggaagggacact
0.01617465316635605 acccttgcccagattcctgactcctgcatttttttcttttccagtttaagcggctgcagggcaagaggaaccgagggagagaagaaatcaactttgtggagatcaaaggtgatgaccagctcagtggggcccagcaatggatgactaagtcattgacagaagagaaaaccatgaagtcattcagcaaagtaagtgggaaacgtctattgagtggtcagcttgggaagctgcaaagcaaaatcttgtcttactccccgtctt
0.4249203861139785 tagcatccttgttgagaattaattgattattgatgtgtgggtgtattaccaaactttccattttattccaggtatctatcattatgccagtactacgttgtcttcattacttcagtgttgtagtaagttttgaatctgtgaagggtgagtcatccgtatttgtttctatttttcaaaatttttgggtattccttgacactaccatagtaatttcaggactcgtttgtcaattcctgcaaaaaatccagctggactttggta
0.2242790164117501 cggctggagagggaggaggacttcctggttcctgtgacaagtgggtgctgcctctttgatgcacctgccctctcaacctttcacactacccctattgcacgccctcctgagtcatcaccccatcccggtatctgctgctaatcattgtctgggccagcaaggctcaacaggagctggtcctttgtgaggagcttggcactaggcagggttcaactgaggacagaggctataccactgtctcctcagccccagctccagcaa
0.4960881262982412 agattctgtttacattcaccattttacagttgagtacatggaggctctcttggttaagcaagtaacccgaggtcacataagaagtcaggaggagtcagaattccaaaccagggcaggggcaatagatgagtaatgccataaatatgtgatgagggcaagtgtgactttgttcctcgtgtcatgaagattgagtgtggttggaggtggttcaggagacagctgtgtgcatacaagtggctctgccagtctgatgactatgca
0.3970087653637839 atgcaagccagccgctgtgcatctcaaggacatgctctgtgtcctgggagagaccaggatcccggaagtcatccagctgaaggaactgctgtccctagcagcgtgactcacctgtactccatcctctggtggtcgctatgagaaacagcaggaagctgagttggttcattgtaatctaaagaaagcaagatgaaggtcaccatcttggccatcatttttctctacatccctgccccacccctgtccagtcttacaaagact
0.6710529568252697 accccatcttcccagtgcaagggaaggtcgagccttccagcgcaggacttacttcaggggcccagcacccacttcctgccagccagctgcttcctcctgttccgcccctacattgtgaaacaaatgacgcagccggactttagacagaaaccctgcttatcagggagtccaggcagatgaactctgggttctcaatgccaggaaaaccctagtgtgtatccactctcacagtatgtgttcactcatactgctttccacaac
0.03951296762284497 ttatgtgtccacagaacaagtgcaaattgaactcagctgacttggaggggggtgggatgtatcctaacagccaaggccacaatccctagaaaccaatatgggccaggtgtagtgactcatacctgtcattcagcattttgaaaggccaaggcaaaaggatcccttaaagccaagaattcaagaccagcctgtacaacagatgagaccctgtctgtactaaaaaaataaaaaattagccaggtatggctcaccactcacact
1 tctcactcttcccccacttcacccttctaaggctgcgtgggttctctctctctctctatctctctctctctctctctctctctctctctctctctctctctctctctgtgtgtgtgtgtgtgtgtgtgtgtgtgtgtgtgtgtgtgtcacctgagagactgggttctgctaccctctagtggccagagctgaaaggactctcccacccaatcaatcgggaccttcaagcctttgggaataaacgaacagcctatttgatga
0.7936731899324624 aaacaaattcagaaaacagcttccgcccgtcccctcccaatggagggctctggcaggaaaagaggtgaataagaggcttctaccagggtaaaggttgaaggcacctggtcatttgatcaccttatcagttctaggcagtgattagccaatattgagtcagcaggggcaatagccctggcccttgtctcactcctgttgggggtgggggagggggagaggtacattcccaggttcaaagcatttgggtgaaatcagttaaat
0.6015313082982281 tacacggtgcttgaaatatggaaggaaatcaacacatattcattctcttaccttcttcgtttccttccccttttactgctgtcttctcccagatacaaaaccagaaactggtgagtcacctagtctcctttctctccctcactccctataaatgaccaaatgccatgacctgtcattcctatcttctgacctctacatgcccactacctcttagctgagtttaggccctcatcatttttcacttactgctgcagtagacta
0.1246616675045884 tgtatggatcggtctttcacttgttgattgacatttggatagtctacagtttggggctattacaaatagagctgctatgaatgtttgtgtacaggcgtttgtatgggcatatgctctatttactcttggtaaatacctaggagtggaatggctgagtcatattgtagtagtttaacgcttttaaaaacccccaaactgttttccaaagtgaatgtaccattttacattcccaacagcagtgaatgagtgttccggtttctc
1 ggtgagaattaaagtgttataaatttcaccttaagtgaaaatttattagttttctaatgacaaaagtagttacatctgacgtaaggggatttaattatctttttctgggcttgcgtcccggaacgctgctgcattatgtaatctgtagtaatatacccacgagcagtttggagggttctgggaagcacatttgttttgcttacctaccatgggaaagattccacgtggtcctagaagcatacgtattcgtcggttacagta
0.05550079770775363 ccagctggagggcctgtgaagttgggcaatcacgaatctgggccttacgtcatccctagctctgggtcgctgtcttgttgacagactgtaccgcctcagcagagctcagaaggaaaaatgtaaccacagttaaa
0.3301627637215735 accatgggctttgccttatagttcacgtgttctccacctaggagacaaaattattgaactagaaaaagcattaaatgggtagctttgggcattcgcataaaactcctagtgtctgtttctcccatatgtaaaatgcagataatgatgtcatcctcatagaagagttgaagaaataattgaggtagttgatgtgaaagtgttttacaaatgtacaaaattaatgcatgggtggctttttttttttttttttttttttttttt
0.8128291548427609 agcaagaggagagctgacagcctgcaacaatgccctcctttcttctcccagggccggtgttttgatagtgtcaggttacaccccagcctccccttggcccatttataaacctgacacaggcaacatgatgtaatgttatttttcaggatctcaatgaggaaattttttgccccaggtcagaagaatgctagttgatttttgctgaaatgaaccatggcacagtataatatatgggctcctagttcaagaaggtggaggcgg
0.1290031086888186 tgccaggaccgtcccttcaggtctgttaagtgtctataggatgaggaggaaaattcttcttctcgttgacattgtgtaggtctgtgtgtatctgcatatgcctatattcattatgactcatcatcttactctcatggtcttttggagatactttgtctattctggagtgcagaggtaattaacttatggtgccagctccactgatatccaaccatatatatctttggatttttgaaaacctgatgtttgcaaatgtctatt
0.1532664502323059 ctcacatggggtttgttgtcctaagttagttggggatcctgtttttgtctattagcgtatattcttgtaactattatgcatcccctgactgttttcttattacttcagcaagaattacactcagttgttcagtttttaaatgacgtaattagcagcactattttacattctctttaaaattctgtcttcagttggactcccttcccatcaccctctcttcctctctgagtgttactcaacatcctgctaatgagttcacgt
0.4948699591613159 gtgggggaggcagtgaaagtacactaaattatgagtccaggtgcctctctacagaaatccacttccgcctcgctgccgctctgaaggcgcgcagtgggtgttgacgtcaccttcggccacaggagcttggagaggctggggccctgactccccgcgggatccgctggtagaccagggcgtgctctcagactggaagtgcaggaaggctcgcttactctcgccatagaccagactgacaggggtctgccaaggctgctggga
0.5293584239875818 gttagacctaggttcaaattccaaattccatctactagctggctgtatgttttgaacaagttaataaatatctgaaatcttttgtcccacattggctaacaatgcctactgtactgtcttgttggaggaatgagtaagatgatgtaggttatgtgcctagtatatagaaggtgttgggaaatgttacatcacagagaggaggagaggactgtaaaatgtttgctggcaactgctctgggaaaaatccttccaggaatgatt
0.115307013609626 gtttcttgacatccttgccaactcttattttctgtttctttaaaaaattattataatcatcctagtggatgtgaagtggtaatttgttgtgattttggtttttatttctctgatgactaatgatgttgagcatctttctatgtgcatatgaaggtatgagtcatttacataccttctttggagaaatgtctatttaaatcctttacctatttttaattggattgtttgtctttttgttgttgagttgtgtttgtatattct
1 ctcttccctgccacagtccctgttttctatctaagatttggacatccttgtgagagaagcagcttccttttggtgcagagagctaattccaaacaatgattgtattcagaatgactggggagttggaaatacggctgatgagtaatctatcatacagcttggacatttgttctttcatcaaatatttactgagcacctagtaggtaacaggcactgtgcaacatgctgagaagacaactgggtttttaggctagtggaaaa
0.1669367317988564 atcccaagacagacaagcattaaaagtgcctgcggatccggcaggaagccaatccccagatgttacttttggctgggaagggtgaggaggaagcggtggccttgctctggcttaatctgcagtgacaaccgtggcgagcatgagtcactctgggcctcatctgaaccctatcttggcatcttgcttgtggagaggcagtgctgtataatggttcagagcaggctttggaacagactgcctggacaagctacttaattgctc
0.2717382997580592 gaggatggctctagctttctttttctctgggagtattgtttttcccttttcttctggtctcatggagttccagggtctaaccactaaggcagagcaaaactagaactagttggaaatcccactgatgagtcagagcccagtgaattagtaacagtgcttgaggcattcctcctccagggatcttttatgaaagctttaactcatgctccattttcagagagaactggcaggtacaactctcaagccctaaattttctccag
0.5058093704351955 cattgttccttctaaacatacatttaaaaagaattctttcatcctttcgagtggaataatttttatcattcttagccacagcactgttgtaatctttagtcaccagaattttcaaatattgacaaatgacagcattagtgttacctaaccgtaccgtattttaatcagtcacttatggagtacccattttgttcctagaactgggtatttgctgaattgttactggaatggagatatttggaaacaaacagctctcttatt
1 tgaatcattttttaaaattggacattattcaactatttcaaattgaacattatttaaaaagcagagtttaaagcagttatctctccttactcccagtggaaacccttgactccaagttgacatagctgagatgactgggctttgtaaacagctagacttcagttcaacatccatttccactagctgtgtgaccttgggcaagtcacctattattttggggacctttgaacctatctataaaatggcagtaactatgccagt
0.221600117543585 actgaagtccttctccaagttgagctgtgcagttcataccatgacagattttccatttcttcctcccagaagcctattggcagaaccagtctgcatactacactgttgtggtaggcggcagacagatgtgactcagagcatgtttgatttcccagaacatatttccaagggggtaatggctaatgagttcacctttgagtctgccaacaaaagaggcccacagagacacccaggtcagctgaaatctaccagacacagaga
